2706 128
27803 -0.06693148 0.15310466 0.13501573 0.19644244 -0.4633112 -0.02762442 -0.06073513 0.07253769 -0.03616245 0.5062903 0.30104005 0.079675466 0.014634434 0.038679488 -0.28664917 0.30614787 -0.06635933 0.1571716 -0.45510948 -0.17985566 -0.28792113 0.045770407 -0.07792854 -0.29191273 0.054420754 0.2786499 -0.23596634 -0.2936906 -0.09771269 -0.457225 -0.20421958 -0.028568458 -0.1638703 -0.5472309 -0.04988092 0.06862886 -0.22160469 -0.3627685 0.0017247631 0.3585087 -0.62413776 0.42156893 -0.36816022 -0.31403282 0.18271862 -0.2963994 -0.13849263 0.47822753 0.4052522 0.002186502 -0.17833687 -0.046611488 -0.357093 0.12487856 0.23929706 -0.10660609 0.1695145 -0.19146912 -0.13304621 0.14033358 -0.05426634 -0.5631333 0.049570046 -0.35416543 0.366525 -0.4673718 0.081427485 -0.35210714 0.05923535 -0.14844918 0.042629965 -0.24161753 0.021683557 -0.18133177 0.075682364 -0.1283977 -0.27213472 -0.010988955 0.14417359 0.033678308 -0.3633531 -0.056277376 0.056331288 -0.081961006 -0.122675434 -0.26814228 0.31748247 -0.21182741 0.041027576 -0.059211977 -0.108587116 0.23753142 0.19616574 -0.30723396 0.31545755 0.2805758 -0.13091426 -0.57676077 -0.088804975 -0.030449146 -0.3532696 -0.09918547 0.056855336 0.11336126 0.64106625 0.24042618 -0.05745 0.104655854 0.06781013 0.0025394578 0.08992586 -0.003640095 -0.09003495 0.009553517 0.12706661 -0.0007786318 -0.10389494 -0.2206352 -0.31889552 0.27635247 -0.082221456 0.16266426 0.06767802 0.26183373 -0.042870656 0.21633837 -0.26730323 -0.17900264
35008 0.1515209 0.2593357 0.108316086 -0.14664046 -0.29168725 -0.077004336 0.33624414 -0.33748394 0.09042097 0.4941435 0.40921494 0.47175744 0.47133037 -0.17636713 -0.07229152 0.30660585 -0.11926265 0.23220955 -0.4718887 -0.03654646 -0.08762494 0.18643117 0.21378365 -0.41571385 -0.06878153 0.3173526 -0.22349669 0.2474188 0.18387337 0.2006869 -0.38316706 0.14647217 -0.078814164 -0.0031070213 -0.40871766 -0.3286124 0.21188703 0.07053753 0.42660853 -0.15961696 0.33719286 0.094919816 -0.04365675 -0.75113267 0.21845539 0.2073284 0.013904073 -0.056531824 -0.27656212 -0.23818941 0.5908652 -0.3184465 -0.0036476443 -0.048255462 0.22438811 -0.25934118 0.303622 0.028312724 0.002443885 -0.05585902 -0.0017104521 -0.5697194 0.5197268 0.059835803 0.6306066 -0.6394906 -0.20437698 0.1967708 0.04774116 -0.57339954 -0.3898874 -0.08468298 -0.100865215 0.08380001 -0.050449274 -0.43547565 0.3638274 0.44625583 -0.18885708 0.30577686 -0.33229437 -0.3751809 -0.2971681 -0.15184444 0.5330347 0.53066176 0.44723594 -0.2147758 0.17508864 0.079169 -0.23100619 -0.3405395 -0.5112201 -0.5679441 0.35886547 -0.04599575 0.28102702 -0.39545128 0.030907385 -0.25211608 -0.4568397 -0.08596123 -0.19928443 0.24274239 -0.5430015 0.2940024 -0.25683329 -0.4545965 0.21700437 0.07265829 -0.06794887 0.115235284 -0.44317153 -0.21344154 -0.14669007 -0.052599516 0.21816821 0.07299096 -0.07757592 0.12174575 -0.040190447 0.05002161 0.10944526 0.18601918 -0.15425934 0.16636676 -0.5263663 -0.2394588
23664 0.004028438 0.0117887575 -0.028451055 -0.16385995 0.09196964 -0.20869617 0.22311392 -0.055440363 0.17627804 0.68879485 0.22171418 0.2552102 0.06592971 0.12426272 0.4393661 0.16582064 -0.07551266 -0.06484117 -0.35323152 0.13738367 0.063834116 -0.16261292 -0.3914156 -0.34778023 -0.16021101 0.061461218 -0.0817213 0.05530724 0.031537924 -0.31839237 -0.5428356 -0.10221824 0.39633575 0.035464562 -0.21579213 0.17396538 0.2959726 -0.10324876 0.16263968 0.032509357 0.21679473 0.19279625 0.037698936 -0.60798925 -0.26101872 0.018453963 -0.16621105 -0.15090299 0.2801509 -0.031421077 0.20967472 0.16772299 -0.25544196 0.2730984 -0.02193765 0.10396195 0.3892306 0.17214312 -0.2200948 -0.24594633 0.09360078 -0.19394739 0.10511964 -0.07433916 0.20716201 0.0050870464 0.5650434 0.48197523 -0.29348242 -0.31528983 0.09374679 -0.0047990656 -0.40896422 -0.041805245 0.14972061 -0.43392408 0.040897757 0.07281852 0.17297922 0.24845335 0.5155845 -0.36222023 -0.28651756 0.41685158 0.27920315 0.3217062 0.19666019 -0.2786498 0.35674348 0.11564585 0.10758584 -0.29379904 -0.39091453 -0.29404923 0.16853747 0.062969945 -0.58749795 -0.8665598 0.012120823 -0.16417517 -0.24537179 0.07772067 0.23533553 0.040798955 0.39316028 0.23235779 0.2905933 -0.22248417 0.644631 -0.28464872 0.13951123 0.12327415 -0.2984821 -0.4409701 0.34046713 -0.33975515 -0.15588218 -0.011794519 0.20918779 -0.13262531 -0.21531762 0.05583197 -0.18708798 -0.12247204 -0.2484291 0.37295657 -0.012882195 0.314901
10830 -0.10336373 0.11912907 -0.109227955 0.29548737 -0.24040577 -0.068970926 0.1340992 -0.049730845 -0.061792534 0.7029755 0.4253725 -0.31057665 0.56015956 0.02847136 0.16063273 0.31244585 0.09411848 0.46412304 -0.44679657 0.2621333 0.14583294 0.25022164 -0.400095 -0.12170932 -0.34097233 0.05899631 -0.3939182 0.429095 -0.21149907 -0.36822474 -0.35119885 -0.23459336 0.07669108 0.29678124 0.33699948 0.33856928 0.15701954 0.19538428 0.2025166 -0.10000569 -0.15485905 0.10220178 0.00596834 -0.031255 -0.21390381 0.43826693 0.31901273 0.1639243 -0.24609925 -0.20817353 0.7852615 -0.49659318 0.25186116 0.41344428 -0.047272548 0.0943391 0.18132988 0.3961492 -0.3452679 0.04030873 0.1655706 -0.3639125 0.37246403 0.09360631 0.6923729 -0.43524686 0.55699503 -0.38676336 0.29201266 -0.33437657 -0.084825724 -0.1861288 -0.4444339 0.21063913 0.17084214 -0.17012773 -0.05625043 -0.49119237 -0.5120437 0.06302066 -0.10782717 -0.15378076 -0.061730478 0.2517251 -0.14705147 0.66656715 -0.16518717 0.2037182 -0.044355102 0.1022052 0.106447496 0.21279033 0.18675257 0.44495946 0.23831998 -0.064213656 -0.6763136 -0.4305082 0.38432372 -0.19859649 -0.6582945 -0.46624056 0.35998213 0.15098755 -0.1292284 -0.012114041 -0.21601345 0.086412065 0.15246098 0.20543355 0.13584863 -0.28195 0.15454935 -0.15930964 0.2593686 0.01873896 0.027967717 0.3151359 -0.076992065 -0.15013178 0.04589212 0.29069677 -0.26875758 -0.23406866 -0.119490735 -0.475662 0.056768496 -0.094344184
10080 -0.112440325 -0.099770166 -0.23323402 -0.0038994113 -0.29071853 -0.26573685 -0.4193937 -0.080309704 -0.11449363 0.63132685 0.43105596 -0.113535784 -0.30050573 -0.20521355 0.19661531 -0.088237956 -0.06494236 0.22717477 -0.1511311 -0.054501325 -0.35360038 -0.10419387 0.11387636 0.12761524 -0.2667705 0.20162421 0.12163648 0.08925877 0.27710402 -0.40298343 -0.56437397 -0.21708146 -0.23467286 -0.1862453 0.09835738 0.425508 0.20120277 0.113039814 0.56606674 0.065501995 -0.07899104 0.29583988 -0.2049515 -0.29089335 0.22568907 -0.35781357 -0.33673066 -0.08908296 0.5464396 0.016852058 0.45148584 -0.25317004 0.4185864 0.19685708 -0.07281514 0.40789542 0.06949798 0.05922576 -0.02894375 0.2710349 -0.17993549 -0.014028289 -0.21792148 -0.14314535 0.073203854 -0.21303234 0.26153776 0.0043740724 0.38143018 -0.37933725 0.31171456 -0.3049888 -0.73502034 -0.21238463 -0.034638382 -0.2883731 -0.049175788 0.18193425 0.2335573 0.346188 -0.13303347 -0.7844105 0.21714365 0.4590772 0.18307318 -0.17954916 0.18767853 -0.68625367 0.20762345 -0.16343966 0.05546205 -0.14875087 -0.19888346 -0.045212816 0.498339 -0.06894317 -0.57931584 -0.13494062 0.16332038 -0.032015063 -0.30097997 -0.18926322 -0.35861972 0.3086789 0.218218 0.2540676 0.16314115 -0.21980654 0.2812026 -0.054392222 0.42891622 -0.15478903 0.017632416 0.09953305 0.057320986 -0.10894645 0.22921702 -0.2865331 0.37248507 -0.11460138 -0.14060739 0.043988388 -0.12546135 0.34820014 -0.2383421 -0.16083403 -0.44590062 -0.14286985
7195 0.3428851 -0.24865869 -0.14460848 0.10560303 -0.08619257 0.3197601 -0.048517317 -0.31106675 -0.310593 0.2366677 0.2222218 -0.43875805 -0.06311232 0.053872693 -0.35680467 -0.08619005 -0.48798382 -0.13935402 -0.47080287 -0.02223218 -0.075735524 -0.3919826 0.32612228 -0.46713477 -0.5741393 0.5736126 -0.4353204 -0.38518298 -0.55010337 -0.2519508 -0.6570592 0.08877368 0.29562515 0.016589472 0.15211879 -0.3048852 0.21825959 0.29744273 -0.25074056 0.3593608 0.10938677 -0.24571921 -0.104073875 -0.16736475 0.41321087 -0.45196086 -0.04753924 -0.2540196 -0.17444234 0.1452212 0.24733177 -0.08380667 -0.33158943 0.44308415 -0.18444969 -0.23139235 0.43953556 0.2117786 -0.1425922 0.41448018 -0.22730172 -0.22705863 0.44668812 -0.090017796 0.21333998 -0.09083657 0.24685515 -0.32124528 -0.20624405 -0.29988778 0.08537655 -0.53612286 -0.37155843 -0.22375286 0.31452432 -0.094934285 0.16690442 0.048296563 -0.25870365 -0.16194248 -0.16320173 -0.10522669 0.061946265 -0.12941411 0.24392094 0.465093 -0.1658438 -0.30780524 -0.22617684 0.2773226 0.028015759 -0.066754036 0.029760778 -0.14586021 0.30032998 0.32659337 -0.40457684 -0.3780762 0.29280987 -0.117631316 -0.43756476 -0.44155586 0.006543532 0.23477751 0.46464565 -0.22419564 -0.24158199 -0.06830324 0.38909286 -0.19143589 -0.36693937 -0.085033834 0.35388383 -0.21403053 -0.08318284 0.11594468 -0.17040199 -0.2705183 0.06250695 0.31566054 0.27860165 -0.37479907 -0.25436267 0.47577584 -0.09150272 0.364685 -0.41617674 0.6817545
27450 -0.073675685 -0.11760352 -0.11230087 0.05377632 0.09243094 -0.141542 -0.22251266 0.07177954 0.2356132 0.26087272 0.07060913 -0.4518514 -0.29451916 -0.005311312 0.006149443 0.17474918 -0.006483441 0.20980705 -0.5048966 0.39083177 0.304456 0.018294875 0.11260427 -0.10732736 -0.55872244 0.2970071 -0.33537737 0.11774677 -0.31757733 -0.16057338 0.106530845 -0.01816911 -0.13466766 0.5207635 -0.23123558 0.32730126 0.31438464 0.19942722 0.40421733 -0.099785015 -0.64326495 0.42685944 0.19140328 -0.3567599 0.088278316 -0.35670874 0.22629258 -0.10461952 0.035947584 0.13819125 -0.12593181 -0.13385127 -0.056195598 0.56108713 0.22649029 -0.5613283 0.53603375 -0.020067137 -0.119170785 -0.41270366 -0.12022191 -0.1651493 0.2619354 -0.84833956 0.4380318 0.45511627 -0.12704243 0.117842354 0.2648976 -0.113311015 0.20538336 -0.45446223 -0.3479423 -0.111521445 0.17685598 -0.52662486 0.0736471 0.026506098 -0.22264576 0.29052708 -0.22363938 -0.13746844 -0.27817872 0.19055492 0.22599117 0.19807677 0.08562613 -0.23243192 0.11039775 -0.016002398 0.33022678 -0.43604305 -0.35118383 -0.35182083 0.43351308 0.2907776 -0.6891926 -0.5595669 0.07727011 -0.18829417 -0.32996532 -0.50686437 -0.0453044 0.16101211 0.06944143 0.51601017 -0.19079223 -0.24910404 -0.12581293 -0.20486008 -0.29071206 -0.19346203 -0.11807129 -0.11609234 -0.09885273 -0.094216935 0.11889814 -0.14602101 0.13182294 -0.3263218 0.12962797 -0.027135957 -0.1369523 0.18749194 0.048931397 0.0060339775 0.34221867 0.32221484
27302 -0.08009114 -0.010835294 0.34028944 0.13284774 -0.06628366 -0.51601017 -0.02786318 0.07789029 0.036641587 0.29588187 -0.2272592 0.04622566 -0.043431662 0.27187714 0.29570666 0.1398201 0.08135821 -0.034430414 -0.68524474 0.45593047 -0.01491956 -0.034168027 0.20581503 -0.62779117 -0.1177469 0.25351548 -0.14943485 0.10868766 0.3163539 -0.3213432 -0.73965836 0.5273516 0.06174236 -0.18260041 0.09120665 0.18572198 0.2791148 0.08035286 0.11652862 0.4124881 -0.1957619 0.47696024 0.030028705 -0.46171325 -0.12773964 0.19895123 -0.4364996 -0.21788324 -0.013153197 0.23272713 0.46233228 0.07392723 0.3462547 0.31129816 0.14879303 0.04620269 0.25750872 0.6159462 0.021168819 -0.24437024 -0.15612772 -0.4029034 0.22281975 -0.39244577 0.23635913 0.2860359 0.40539283 -0.28158942 -0.3129178 -0.44318748 -0.08979907 -0.35635194 -0.44250506 -0.23217282 0.50641346 -0.0856543 0.15497577 -0.25505558 -0.029851375 0.00944434 0.04754066 -0.25670236 -0.27015373 0.04500336 0.26977375 0.08105451 0.17391764 0.526669 0.10775319 -0.2371707 0.15827903 -0.6260963 -0.035143677 -0.09625907 -0.0350602 0.56046206 -0.1578428 -0.10512035 0.4725693 -0.22167267 -0.6568212 0.010215276 0.4330926 0.26415431 0.24115396 -0.020367041 0.1791913 -0.35755035 -0.05054074 0.27873632 -0.085546106 -0.2674313 -0.20923279 -0.3035183 -0.29432797 0.05305586 0.021447474 -0.23357007 0.17938665 0.31550702 0.16718073 -0.044452813 0.10883677 0.051228777 -0.06559437 0.08463021 0.04901192 -0.033902414
5323 -0.120194055 0.11931834 0.5606924 -0.24144194 0.039085787 -0.028212626 -0.09739855 -0.058826096 0.38949138 0.62137985 0.31741935 0.2764438 0.15766169 0.085004106 0.0889401 0.09545664 0.23289047 0.14120704 -0.620176 -0.04763751 -0.09783945 0.097173974 -0.15943658 0.12290966 -0.6061524 0.21246804 -0.22286488 0.09517302 -0.012125691 -0.028550642 -0.07280534 -0.28709826 -0.13552168 -0.009418109 0.13361278 0.12953953 -0.028885001 -0.1478477 0.4497842 0.19268669 -0.3903612 -0.08066892 -0.2705639 -0.2847032 -0.51385206 -0.106610574 -0.05418018 0.16044544 0.068909824 0.08116547 0.38914433 -0.08491715 0.2727538 -0.27099797 -0.6020026 0.15917742 0.29178533 0.56289774 0.06648889 0.47329032 -0.47454354 0.41822937 0.06722734 -0.036429107 0.42965183 0.18403925 0.09227208 -0.32757813 0.22754005 -0.15689567 0.059397273 0.13854313 -0.37342295 -0.54460126 -0.07666165 -0.6690456 0.32022664 0.19849661 -0.09337667 0.32121795 0.3255831 -0.47932526 -0.16337031 -0.03363106 0.10848299 0.10396758 0.14851129 0.06777426 -0.11963941 0.32227287 0.36336538 -0.4071817 -0.12660626 -0.14317745 0.1524055 -0.43432096 -0.5632611 -0.42569667 0.30387142 -0.34026566 -0.49859554 -0.50828314 -0.23324075 0.33640537 0.13513516 0.07221071 -0.21768476 -0.14190574 0.22326519 0.045653477 0.18918596 -0.28157058 -0.03729436 0.047040306 -0.30998972 -0.42049015 -0.04294687 0.07018912 0.2761029 0.12879965 -0.08477661 -0.60689116 -0.19584577 0.45932427 0.01340112 0.22397293 0.040266808 -0.10040525
33643 -0.09586296 -0.02437156 -0.372713 0.4461133 0.17615275 0.010330943 0.032842256 -0.49173734 0.022834655 0.36595562 0.31924143 0.0052177142 -0.25759697 0.31214824 0.3856585 0.5055599 -0.24048768 0.27141148 -0.51525855 0.49100482 -0.19439669 -0.042770702 -0.38046 0.2955967 -0.32806998 0.48735845 -0.3514066 0.1604925 -0.40923056 -0.37104717 -0.72455907 0.1876499 0.1244462 -0.29887858 -0.28267777 -0.1638485 0.16070205 -0.00056283106 0.039776932 0.20984693 -0.49742332 0.29558957 0.40523008 -0.3834842 -0.55977803 -0.19171877 -0.16247696 -0.10131373 0.24340436 0.04419936 0.16305552 -0.38863516 0.090720214 0.032450028 -0.11213977 0.4606229 0.6416004 -0.09055433 -0.17218369 -0.16096054 -0.108310424 -0.20267262 0.122408636 -0.36435354 0.48008364 0.37819475 0.20945288 -0.002166025 0.13786994 0.09259353 0.23827775 -0.07576988 -0.48165512 0.19936477 -0.046470445 0.23016515 0.1311891 0.14731766 -0.11997128 0.38697875 0.08498854 -0.26611656 -0.49380878 -0.5695292 -0.067130834 0.0431436 0.34900185 0.12725288 -0.17106992 0.22639072 -0.03379227 -0.032506365 -0.53033125 -0.4166881 0.38682294 0.43318895 -0.16317426 -0.22155882 0.48267692 -0.34372506 -0.3739314 -0.17165565 0.39678323 0.07534216 -0.23693143 0.3049671 0.20166093 0.2807705 0.029989222 -0.14655305 0.05812803 0.0027101499 0.0413244 0.0020134724 0.3305644 -0.32798445 -0.48873737 -0.055245582 0.18463928 0.30391094 0.054347802 -0.23522457 -0.13978775 0.1589195 0.17455134 -0.27464917 -0.43037197 0.167436
31917 -0.5250279 0.115242 -0.034044236 0.17658329 -0.12794153 -0.1373036 0.33310685 -0.22623415 -0.15445513 0.65364116 0.21432413 -0.31820583 -0.019136075 -0.19471516 0.0970222 0.5721229 0.002964484 0.2758597 -0.08216183 0.30465585 -0.14085759 0.13194388 -0.3234647 -0.32146707 -0.47334445 0.49794784 -0.5824868 -0.4599196 -0.2863143 -0.5765674 -0.31855604 -0.21269862 -0.081294954 0.061290596 0.18314879 0.2833423 0.23994341 0.31971845 -0.0006882924 -0.0157082 -0.11954985 0.19766207 0.31847602 0.081218496 0.51109886 -0.039728925 -0.6407906 -0.5327118 -0.19639571 0.34809348 0.21376623 0.16057459 0.2043538 -0.17106669 0.15178622 -0.26179427 -0.10655556 0.8026042 0.046025664 0.039875597 -0.23663181 -0.38772154 0.2590274 0.5239309 -0.13224794 -0.36670557 0.44399893 -0.3309181 0.25189766 -0.4650019 0.06858861 -0.121469095 -0.40592226 -0.007486126 -0.1610746 -0.13782565 0.4619451 0.023616647 -0.19779772 0.23165905 -0.007248338 0.087472506 0.042109948 0.13357681 0.42559478 0.2708723 0.2495997 0.022491923 0.31517693 -0.16813324 0.27692252 -0.25354186 -0.4157243 -0.31408694 0.2874171 0.66653943 -0.5147963 -0.42928618 0.7987832 -0.4078753 -0.5539064 -0.49512598 0.25940773 0.6073321 0.31885162 0.29562637 0.23802648 0.2548753 0.42103547 -0.23719536 0.18596627 0.35267136 0.028974632 -0.08585855 -0.09831928 -0.05286118 0.1423473 -0.1825831 -0.048032146 0.46625704 0.4939137 -0.19340912 -0.09085233 0.028923122 0.084854215 -0.28884596 0.18719152 0.08499831
37289 0.064190984 -0.20671438 0.20555189 0.21570107 0.003642183 -0.5676794 0.0910143 0.1426331 0.20302378 0.02468436 0.41652453 -0.06968233 0.17986159 0.27449262 0.039665505 0.19097166 -0.2762086 0.41674456 -0.47030807 0.12262566 0.27378112 0.029008098 -0.29096237 -0.7375233 -0.18334363 0.31506938 -0.25113344 -0.06268163 0.37206918 -0.11588738 0.06297278 0.31942096 0.33580178 0.23523457 0.3400168 0.48171762 0.26725775 0.1511492 -0.262714 0.26586857 -0.13123232 0.18395624 0.14484586 0.07269333 0.08996965 -0.26114407 -0.10451227 -0.37368387 -0.05168121 0.29782763 0.2014194 0.11416157 -0.31861493 0.011503385 -0.07699884 -0.018206544 0.75615287 0.4053926 -0.20918645 0.0036069953 -0.40730482 -0.258446 -0.28272325 -0.6845147 0.31982172 0.3126848 0.1224811 -0.09802088 0.3854153 0.30222753 -0.035369687 -0.22214986 -0.3842018 0.192014 0.02139688 -0.4386732 0.16757649 0.29137686 0.088831745 0.02767324 -0.049083166 -0.5157508 0.077222995 0.28576785 0.47128335 0.49587423 0.014678477 -0.61549443 -0.05286258 0.30579436 0.14662006 0.11032292 -0.16847129 0.010516922 0.20698746 0.31944737 -0.4422666 -0.42781276 0.15549389 -0.014989704 -0.9962357 -0.1383107 0.25748587 0.22438228 0.046476994 0.5768021 -0.32591534 -0.42450303 0.17500904 -0.20556946 -0.23496197 0.07824499 -0.10445553 0.16325215 -0.12740639 0.23040618 -0.33976233 -0.11096189 -0.108309165 0.50939006 -0.15739663 -0.288035 -0.04631279 -0.107391775 0.29534853 0.60283136 -0.37254885 0.55744195
20363 0.06391842 -0.11963725 -0.2442305 0.18874621 0.21488914 -0.12643817 -0.12538864 0.161527 0.28734443 0.55230445 0.04334274 -0.24694696 -0.15053171 -0.052465715 0.19014688 0.1940767 0.46812922 0.2941081 -0.4486734 0.29518965 0.007726912 0.18074487 0.042768486 0.006771216 -0.11456085 0.014857227 -0.076889984 -0.021895641 0.27366188 -0.58414084 -0.60120505 -0.079754986 -0.025184864 0.28124654 -0.13096866 0.1170145 0.064998426 -0.40949216 0.11026966 0.13392597 -0.061657775 0.14250842 -0.0021044193 -0.57575846 -0.28911847 -0.03490175 -0.46591014 0.29052135 -0.34254873 0.42453662 0.2768514 -0.4498276 0.4346681 0.08055485 -0.31808263 0.14130999 0.2865964 0.20021345 -0.2407544 0.18276252 0.068764545 0.33761352 0.6419659 0.21293738 0.3950561 -0.35567898 0.2534338 -0.16315977 -0.048825853 -0.35724804 0.0013923038 0.17869477 -0.24312909 -0.24075153 -0.021002071 -0.8022927 -0.13935512 0.10305853 -0.6739762 0.33827776 -0.41199014 -0.218202 0.14813419 -0.40143132 0.20388646 0.29555956 0.057632517 0.3294836 0.29591134 0.36849937 0.37141997 -0.64747155 -0.2833079 -0.038724393 0.29371873 -0.015113953 -0.12882155 -0.79646325 0.44612086 0.013272171 -0.26102716 -0.5983284 -0.1998145 0.21936159 -0.043941114 -0.20010418 -0.039204445 0.29229718 -0.05320395 0.20665182 -0.14035347 -0.38165465 0.13760053 0.050330274 -0.42205623 -0.6536799 -0.10217015 0.23250502 0.1474564 0.15046135 -0.24390723 -0.42959112 -0.291464 0.19610746 0.35287416 0.29427 0.13509277 0.3651139
31170 -0.1356734 0.011535731 -0.53419816 0.47871596 0.30248106 0.055062436 -0.039173663 0.20452783 0.26689953 0.058226153 -0.12595588 -0.049328357 0.03740566 -0.35543486 0.30168048 0.2805199 -0.1168689 0.15557353 -0.6417243 0.09700177 -0.34604448 -0.029195696 -0.38713455 -0.3098764 -0.22609112 0.44164664 -0.10530891 0.27264035 0.3641163 -0.07446997 -0.46968442 0.5987979 -0.123062894 0.22931412 -0.39731175 0.077310085 0.13853173 -0.046894204 0.36012155 0.064831406 -0.04578679 -0.0026530651 0.23911513 -0.5359888 -0.39766788 -0.27814898 -0.04441429 -0.2267046 0.36320823 -0.10045459 0.2547506 -0.51843715 -0.30072248 0.1428952 0.4155296 -0.55117375 0.38359427 0.41115654 -0.14621063 -0.5560725 -0.021240044 -0.57125056 0.31042925 -0.23601803 0.41351846 0.11060451 -0.0484159 0.29517728 -0.13195977 0.10205348 0.038686763 -0.16897285 -0.7546134 0.2823201 0.3397627 -0.062927775 0.6302601 -0.16874458 -0.02450696 0.2606208 0.31814238 -0.40751198 -0.1552128 0.125993 0.24606209 0.07293448 0.3507842 0.19268425 0.26520267 0.24899094 0.27804068 -0.21511067 -0.010226704 -0.5322441 0.27158043 0.3581985 -0.3683001 -0.2867194 0.12619273 -0.2569059 -0.4071456 -0.19471663 -0.041939627 0.061278924 0.28618273 0.22406329 0.17076375 -0.05437299 0.14441097 0.014299482 -0.0012245667 0.019809922 0.00026025937 0.16739897 0.017098572 -0.07854865 -0.19748902 0.0208381 0.5138988 0.09483935 0.063662745 -0.2181396 0.28147992 0.37157756 0.2350164 0.0009447535 0.011297245 0.20468824
2152 0.46689147 -0.27716488 0.24704425 0.032432377 -0.14063114 -0.28415218 0.1343167 -0.18879364 0.12200094 0.1993672 0.120639235 0.2733164 0.18710314 -0.029151458 0.43774185 0.29543772 0.08426479 -0.2044714 -1.0221087 -0.23648676 -0.030291932 0.4871628 0.06804291 -0.08062405 -0.46204966 0.4743457 0.2431635 0.59247845 0.19580503 -0.55080783 -0.31071958 -0.08475956 0.53228205 0.57403576 -0.24677773 0.44327646 0.2417171 -0.36368895 0.19201556 0.119652 -0.1930549 -0.08934851 0.17857511 -0.5088075 -0.20945676 0.1513506 -0.10006637 -0.23441124 -0.18170704 -0.40995988 0.18463579 0.055525206 -0.097235136 0.4141587 0.05914376 0.08740198 0.382452 0.031638645 -0.20646654 -0.38034028 -0.040811244 -0.41935778 0.27115494 0.2781814 0.14384905 -0.09672148 0.4614286 -0.38531917 0.0964969 -0.30557966 0.15785255 0.19017187 -0.41011852 0.0012510371 0.3746957 0.08985281 0.010404769 0.0048955823 0.17254281 -0.05800587 -0.030903332 -0.28243473 0.54748046 -0.09423453 0.054551437 0.047114965 -0.30232653 -0.43340275 0.024353271 0.2956259 -0.18621856 -0.091663636 0.08067527 -0.27411205 0.27905422 0.30746448 -0.36907643 -0.5962857 0.40306082 0.086123765 -0.26872236 -0.23565142 -0.12069918 0.19118658 0.29576203 0.13430831 -0.034080576 0.41305065 0.49175373 0.38959762 0.1978201 0.08928278 -0.24061212 0.29858527 0.089226976 -0.24624549 0.22047913 -0.16366272 -0.0048003714 0.35737786 0.03666337 -0.09603854 -0.4362578 0.090141125 0.044284217 -0.04450102 -0.21578604 0.11955212
34606 -0.20370448 0.10881798 -0.3628218 0.11975536 -0.19315916 0.350458 -0.33139235 -0.49480098 0.2691706 0.4609035 -0.12018901 -0.14652725 0.09308595 -0.0083535 -0.3317376 0.4123356 -0.27869835 0.007785691 -0.27624696 -0.09193186 -0.14854166 0.5195335 0.14502159 -0.09671792 -0.113168575 0.54091465 -0.3380049 -0.41144833 0.18855956 -0.022389375 -0.30864632 -0.18175961 0.08750769 -0.42770037 0.11354692 0.32015404 0.490047 0.08152699 0.42962697 0.09895743 -0.21606436 -0.29992622 -0.27484217 -0.5463915 0.3150015 0.06007569 -0.32701817 -0.36119443 -0.0141408015 -0.037292387 -0.0074095665 -0.06536731 0.07044145 -0.28889087 -0.27049598 -0.21652946 0.19895518 0.48613498 -0.3627939 -0.18470658 -0.49574956 -0.5433825 0.19510424 0.14666812 0.73710686 -0.03786193 0.123183735 -0.12148085 -0.44626296 -0.5546527 0.27581728 -0.22637825 -0.7542947 0.20708722 -0.2044677 -0.23101643 -0.31488568 0.33674988 0.19987215 0.038709335 0.19086727 0.050171625 -0.27093697 0.5657009 0.32687306 0.49595135 -0.1504446 -0.17814492 0.24382657 0.08076394 0.35573602 0.11508996 0.08731821 -0.31285307 0.41132513 -0.21018675 -0.22277498 0.041832685 0.06365904 -0.1169433 -0.41414097 0.17112978 -0.3202369 0.38623995 0.19739628 -0.22100225 0.23205087 -0.35897395 -0.048847828 -0.48425853 -0.07912348 -0.4595473 -0.11841779 0.059265576 -0.04839491 0.12517247 -0.18945268 -0.04343674 -0.027864395 0.17633687 0.022230742 -0.44292387 -0.40059483 0.5096225 -0.1290685 0.0076267216 -0.60232323 -0.04079802
4333 -0.1008894 0.1452879 0.43655565 -0.13530919 -0.0069474955 -0.11553306 -0.11713041 0.087115064 0.26573125 0.37353796 -0.09651578 -0.07071926 -0.31902078 0.4853955 0.19202144 -0.4379851 -0.16707629 -0.03529458 -0.4785758 -0.08200695 0.15518545 -0.021819388 0.13505673 0.28670108 -0.79214376 0.2686789 0.23739785 0.22345148 -0.15136255 -0.38692126 -0.11780092 0.06545401 -0.12827641 0.1534377 -0.174667 0.24152945 0.026204107 0.22331367 0.11359548 0.06673803 -0.64402324 0.5104318 -0.36184138 -0.34705022 0.049789827 0.21234412 0.08479108 -0.03076453 0.040515557 0.033138122 -0.28040665 -0.07934484 0.12027522 0.6492791 0.044717196 0.34817973 0.15241262 0.2895472 -0.06297858 -0.116613865 -0.074367054 0.17636827 0.9097265 -0.12642455 0.90428627 0.16311626 -0.068871915 -0.37089476 0.25381604 -0.121541336 0.20658594 0.020522377 -0.65033907 -0.52641284 -0.33555883 -0.2968416 0.011086233 -0.034834947 -0.2858288 0.33450082 0.3315557 -0.04309972 0.26534823 0.03158512 0.48889557 0.03343811 0.22800992 -0.9148803 -0.15213206 0.025463747 0.22648922 -0.4561676 -0.06869751 -0.092786536 0.20930468 -0.2020244 -0.84233665 -0.48792922 0.01951322 -0.09554536 -0.77188 -0.55903906 -0.038138032 0.08867479 -0.30956662 0.04653337 -0.12750533 -0.40189272 0.05913326 0.13733837 -0.32611537 -0.43269557 -0.30535454 0.07636177 -0.41703808 -0.09513626 -0.07986841 -0.18557642 0.18006743 0.47566524 -0.12981036 -0.28961638 0.13399073 0.4661807 -0.034679525 -0.21371716 0.040698458 -0.24141206
27048 0.044936262 0.077193715 0.024533331 0.5303598 -0.27403867 -0.2505533 0.37542915 0.07551304 -0.30315262 0.37854525 0.5337105 -0.1362639 -0.2922469 0.22764358 0.16196746 -0.09546911 0.19597137 0.35641837 -0.7157338 -0.0965058 0.19226724 0.90311587 -0.39929032 0.13218933 -0.4019857 0.10086575 -0.32191747 0.5057265 0.00660406 -0.4500359 -0.4908235 -0.059141856 0.18449318 -0.09446111 -0.14147432 -0.053069502 0.50479865 -0.34791484 0.28017437 0.41166276 -0.19598377 0.09606678 0.12573671 -0.25732753 0.004544014 -0.31048983 -0.43098944 0.45383275 -0.19059531 0.21317075 -0.08058894 0.10248827 0.15442508 -0.080921516 -0.45126316 0.15144621 -0.019772723 -0.037572164 -0.23560247 0.4689458 -0.12613103 -0.123732165 0.4269033 -0.09348045 0.4917836 -0.02944916 -0.12009944 -0.25288686 0.05032288 -0.44645095 0.07139057 -0.10161762 -0.70697385 -0.41798708 0.41980973 -0.68721896 -0.121732175 0.110479675 -0.22402203 0.20734087 -0.1526684 -0.48733172 0.05703894 -0.19240075 0.004576638 0.026196714 0.2189393 0.053194847 0.19298016 0.4109597 0.042083718 -0.23422128 -0.34697357 -0.082695745 0.1348375 -0.01809717 -0.1298239 -0.7093002 -0.2926801 0.27528802 -0.33362874 -0.5459835 -0.07762003 0.6241732 -0.44190603 0.2243982 0.35470995 -0.3797444 -0.22966665 0.18567604 0.048479542 -0.21593046 -0.00022984063 -0.080004305 -0.24848278 -0.1138351 -0.25794554 0.09915921 0.090742506 -0.5938104 -0.43033978 -0.369159 -0.20450096 0.30148107 0.33969453 0.11088008 0.15379046 0.18083526
25630 -0.2448934 -0.16490991 -0.14718471 0.35609847 0.34386036 -0.19358216 -0.18819556 -0.55857724 0.16975266 0.20979542 0.5735916 0.42454123 0.26393646 -0.1580637 0.41591564 0.41255152 -0.136061 0.27707255 -0.42787626 -0.08061671 -0.19457307 0.72776663 0.16087222 0.030881817 -0.39987054 -0.106961675 0.1839413 0.291706 -0.43156147 -0.010993176 -0.3079012 -0.06334611 1.016539 0.1390427 0.09582373 0.03058254 0.69638586 0.10752996 0.6882447 0.02299118 -0.6412973 0.23545034 0.08352539 -0.34911868 -0.1654945 -0.4941353 -0.10325698 0.19425318 0.23049001 0.20534305 -0.07155813 0.39510274 0.15432723 0.29001024 0.13609155 -0.34762138 0.122864954 0.47128892 -0.1740285 0.46844652 0.0039839875 -0.21689387 0.21130757 -0.36778033 0.2782046 0.061197564 -0.08126975 0.3539729 -0.029731587 -0.6707855 -0.09164553 -0.3646695 -0.2916312 -0.38994652 0.10866924 -0.3196509 0.009026187 -0.146 -0.5904756 0.48672977 -0.16962096 -0.44268876 -0.39434052 0.3290747 -0.061474774 0.4395494 0.3633598 -0.2358471 -0.16989166 -0.26548502 -0.07580031 0.1599962 0.008416089 -0.16722573 0.7615679 0.3737715 -0.29182926 -0.29796875 0.265077 -0.40771383 -0.5577166 -0.48302677 -0.11665499 0.4817072 -0.40039003 -0.24299407 -0.06441396 0.3041964 0.4535132 0.16305272 0.121717684 -0.20224997 0.007009312 0.36309043 -0.8206148 -0.32973215 -0.26988775 0.3098078 0.043821212 0.63359195 -0.5150338 -0.19712293 0.19720061 -0.507274 0.015176208 -0.004269335 0.24364272 0.13943595
34603 -0.026027089 0.09949496 0.32563516 0.15181102 0.096796885 -0.072489835 0.28219384 0.30043173 -0.30980033 0.26961473 0.47320285 -0.1894543 0.11001298 -0.41612825 0.19647087 0.22016086 0.116226934 -0.09639933 -0.16099867 0.63357705 0.1632943 0.24777803 0.25586933 -0.20819339 0.14750868 0.19805342 -0.1432402 0.054760423 0.19807397 -0.19320889 -0.4912943 -0.023995046 0.3671324 0.20705946 -0.13590291 -0.34729072 0.028945046 0.02213525 -0.41372082 -0.22043253 -0.4682171 0.00058680365 -0.097699404 -0.29689965 0.39162928 0.12454605 -0.16078193 0.15659595 0.13853464 0.45241553 -0.03487878 0.19726355 -0.049984112 0.24354412 -0.16368468 -0.14785826 0.66084224 0.1953702 -0.28861368 -0.15399952 -0.52995175 0.090985045 -0.3101897 -0.67070025 0.63580227 -0.56973755 0.31703916 -0.13388911 -0.07267692 0.31624904 0.06576232 -0.3775457 -0.5800727 0.10538162 -0.032345723 -0.0832354 0.051187303 -0.18610816 -0.27162728 0.48869956 -0.21585207 -0.55618906 -0.085290104 0.58900166 0.38170758 0.49071842 -0.16061793 -0.79932094 0.08769738 0.015834557 -0.15664785 -0.47097516 0.15323709 -0.1695203 0.15690042 0.5574796 -0.3498724 -0.2374512 0.31312042 -0.06029259 -0.8085518 -0.6365297 0.010258808 0.022605242 -0.037095115 0.12666446 -0.021685185 -0.33938834 -0.15839015 -0.22743587 0.37504354 -0.2494554 -0.33763185 0.02018765 -0.089874215 -0.4227784 -0.11865364 -0.39413822 -0.3117636 -0.2260483 -0.2563787 -0.094149165 0.07403394 -0.12057831 -0.07035276 0.34080696 -0.36641806 0.40720293
6301 -0.37559715 -0.09602376 0.479709 -0.0009031385 0.19860867 -0.034100678 0.2734412 -0.38302794 0.2428866 0.19016434 0.048834637 0.14498287 -0.16492386 0.081420936 0.17028952 -0.14294812 -0.28228706 0.08978021 -0.73825634 0.26432586 0.06724429 0.59362024 -0.2007805 0.18615626 -0.5059807 0.32751852 0.11243248 0.22372682 0.077791214 -0.08929029 -0.15612385 0.031845205 0.72848016 -0.087741815 -0.037705097 -0.23891732 -0.111506075 0.044752855 0.24043858 0.3711229 -0.67265034 0.1864035 -0.23816736 -0.3775819 -0.621112 0.096543096 0.035815995 0.02889363 -0.17939326 0.19814128 -0.062108226 0.07789437 0.2709937 -0.20038344 -0.23361531 -0.2164136 -0.025765078 0.14021783 0.16859075 -0.015890686 0.017139904 -0.11352241 0.61949426 -0.04507965 0.3950647 -0.29971427 -0.15269604 -0.068415664 0.30666998 -0.025330216 -0.14556031 0.11070637 -0.2680455 -0.09505722 0.0848912 -0.35355455 -0.13807054 0.05070104 -0.67637664 0.18539631 0.09449062 -0.67704344 -0.09687688 0.34946886 0.12453735 0.15210141 0.45380336 -0.15671095 0.23903367 -0.14458546 0.61762494 0.039380893 -0.024421884 -0.4911497 0.27278 0.29305366 -0.65148747 -0.6384497 -0.008520188 -0.5698623 -0.5727264 -0.23580968 -0.06027902 0.103272475 -0.5064821 -0.31027326 0.18871503 -0.1424143 0.3288839 0.18850274 0.07942286 -0.50616693 0.05256588 -0.058150794 -0.5833179 -0.38670966 -0.12452758 -0.17533123 0.33858463 0.5402778 0.152238 -0.26588646 0.4707501 0.1354052 -0.41992387 0.004947878 0.0995413 -0.0081546195
23818 -0.28379667 0.012946311 0.30708975 -0.19052278 0.1873376 -0.34909666 -0.16165802 -0.7266721 0.11091742 0.21429281 0.20823044 0.2896978 -0.21588299 0.46276695 0.1126253 0.298249 0.48751822 0.29096317 -0.49356103 -0.17062709 -0.00086484704 0.47373652 0.13630876 -0.18984541 -0.4318435 0.6592053 -0.09441894 0.14111397 -0.10842024 -0.85518575 -0.41509402 0.18660441 0.08352439 0.022848487 -0.14005779 0.024572263 -0.29285744 -0.43448374 -0.19564363 0.036960416 -0.41178307 0.17908031 -0.08998399 -0.4364419 -0.5508724 -0.19931573 -0.3784795 -0.16788788 -0.06863761 -0.023985958 0.35721448 -0.22313455 -0.17590187 0.16828318 -0.39512482 -0.38968292 0.2632471 0.23200649 -0.3420967 -0.22061695 0.142615 0.09672738 0.1319044 -0.31159663 0.45886424 0.2350816 0.28823456 0.076503076 0.061022613 -0.1897437 -0.175753 0.36266 -0.23133378 -0.5032024 0.45970872 -0.4323768 -0.06087236 -0.06965176 -0.5294352 0.5424362 0.022844277 -0.16994381 -0.2669324 0.31598574 0.3266996 -0.30649292 -0.09355392 -0.2611536 -0.33413836 -0.09532964 0.027636876 -0.21267271 -0.18500209 -0.30621344 0.3270062 0.09803804 -0.06930093 -0.51755214 -0.17425217 -0.36288974 -0.22159511 -0.45899856 0.28839314 0.32794476 0.064805195 -0.1568463 0.18674739 0.20992354 0.27456433 0.45381042 -0.233741 -0.42125463 0.058212794 0.12644114 -0.7806647 0.07884135 -0.5727923 0.39440796 0.40733337 0.098140925 0.29535216 0.17189144 0.056354225 0.16573459 -0.04337021 0.04713822 -0.5037257 0.1632637
21851 0.026456617 -0.14333159 0.08631336 -0.23243438 -0.10060677 -0.04965394 0.36631846 0.28891516 0.5401078 0.540367 0.2731953 -0.17486134 0.3360787 0.3286228 0.6895511 0.114609525 0.7369693 -0.39410454 -0.9424458 0.27783686 0.2505939 0.39928055 -0.15906292 -0.06362939 -0.6034807 0.7412411 -0.017794667 -0.26988646 0.29954877 -0.22164237 -0.44518444 -0.29617795 0.3452108 0.23006435 -0.48092654 0.4730463 0.15039086 -0.021092542 0.04639998 0.091981314 -0.43131337 0.31533054 -0.57290274 0.065959625 0.12349075 -0.07041603 -0.13243884 -0.053896222 -0.33160728 -0.08880259 -0.26265085 -0.10921069 0.56816196 0.690409 0.086930245 -0.25454485 0.5858982 0.088959865 0.10734099 -0.1622244 -0.46270368 -0.35046935 0.05381146 0.09787998 0.60953504 -0.45266473 -0.2573961 0.092696674 -0.5494121 -0.43343914 0.06881379 0.022635948 -0.1227968 -0.17427512 -0.019796079 -0.18089037 -0.1507682 -0.1048819 -0.55211294 0.08203539 -0.29273006 -0.5402499 0.2872072 0.11440371 0.022559503 0.028853804 -0.1685906 -0.40192646 0.27193338 0.41611242 0.13376954 -0.3365187 -0.2091122 -0.251071 -0.1764034 -0.33173227 -0.35042796 -0.21624812 0.40122125 -0.16428639 0.046819005 -0.61023045 -0.6566338 -0.07887331 0.0073576337 -0.1312801 -0.052884154 0.28047055 0.45952982 0.089629725 0.03739096 0.13775226 -0.087748885 0.29352126 -0.4711113 -0.1374424 -0.99544334 -0.30783498 0.1606146 -0.19626248 0.3705537 -0.36044687 0.367655 0.42347926 -0.34224865 0.13555442 0.33646762 0.24248952
17675 -0.18549456 0.24062788 -0.41894698 0.66475606 -0.22939678 0.053303447 -0.047127172 -0.20757945 -0.16644475 0.48686707 0.22172557 -0.22390868 0.44979912 -0.08776062 0.29849616 0.15605958 -0.3602781 -0.22546667 -0.24632189 0.16558646 -0.09592166 -0.13913375 0.022326129 -0.21748623 -0.4658957 0.5032411 -0.116903506 0.08595362 -0.057442553 -0.46558923 -0.75089157 -0.24096534 -0.23511665 -0.06927441 0.20612204 0.4601106 -0.30327234 0.29730257 -0.17083678 -0.06858245 0.1213784 0.35779017 -0.10593288 -0.12128109 0.2206658 0.3586555 0.21001276 0.10781773 -0.06314677 0.06648695 0.57148993 -0.19963753 0.22307134 -0.07821537 0.16420506 -0.062107738 0.43525591 0.47559837 0.0017400793 0.027580412 -0.35507962 -0.18202598 0.49908254 -0.19138475 0.56744176 -0.2047642 0.01106665 -0.45079982 -0.18064862 -0.47911865 -0.3482543 -0.3579258 -0.5025597 -0.12986061 0.13478138 -0.2179213 0.07509169 -0.014935137 -0.14121482 0.2708104 0.23809463 0.35331213 -0.090359785 -0.082598954 0.2252348 0.41113287 -0.14212185 0.09654517 0.16032067 -0.02895331 0.1379662 -0.4128838 0.24144112 0.21159379 0.07874385 0.38393578 -0.32086557 -0.2961905 0.38433948 -0.33004114 -0.7992796 -0.38722864 0.30402657 0.14815211 0.19611116 0.047314424 -0.26992574 0.1952386 0.015124774 -0.024714606 -0.040741883 0.15215689 0.27863282 -0.3456908 0.004134728 0.028060844 -0.0047856956 -0.037242904 0.1022443 -0.020391006 0.025192276 -0.06402496 -0.4721197 0.52812064 0.1414147 0.027584668 -0.42026722 0.031625297
21376 -0.22478816 -0.2979042 0.08338699 0.23826537 0.10099486 0.37527487 -0.24275558 -0.097103186 0.08722438 0.25005046 -0.0714645 0.4069508 -0.22269058 0.45717713 0.19406326 0.16773549 0.46962523 0.2724272 -0.48489463 0.11256688 -0.21122706 0.4929837 0.18397205 0.22069873 -0.4878895 0.182018 -0.15520406 0.14897454 -0.19476433 -0.81605643 0.027294008 0.19867398 -0.07214004 -0.28683776 -0.04417834 -0.1569243 0.37275508 -0.19739781 0.21019131 -0.25781643 -0.36206347 0.13257603 -0.09132452 -0.6277825 -0.27948844 -0.43797842 -0.022875786 0.31146145 -0.024120057 -0.022998227 0.52007025 -0.5659322 0.1371344 0.14298388 -0.90383303 0.029940663 0.4437323 0.53114593 -0.07490852 0.3194775 -0.20375353 -0.33178163 0.31889036 -0.22473948 0.6849553 0.20462699 0.4100952 0.10873431 0.09830045 -0.18880701 0.21448565 -0.0808627 -0.5649148 -0.19666098 0.10636999 -0.14534421 0.005286664 -0.40291697 -0.26814628 0.55846786 0.25276634 -0.15548043 -0.53489816 -0.065681405 -0.1401845 0.5259425 0.18746059 -0.24571979 -0.062638514 0.004572709 0.051105835 -0.38758656 -0.30135146 -0.4941838 0.1992381 0.03897003 -0.0652438 0.14446269 0.15217039 0.010393861 -0.3899634 -0.52748156 0.10263113 0.25957417 -0.08902903 -0.45700136 0.20548485 0.3926303 0.39815283 -0.19533432 -0.41119826 -0.4273026 -0.3876002 0.15988593 -0.5524381 -0.38671413 -0.30364847 0.3728859 0.16252066 0.47612634 -0.1575523 -0.3692882 -0.034386903 -0.32903197 0.2717791 0.48632056 -0.20452672 -0.07346231
21358 0.043420434 -0.24150285 -0.48066583 0.08222063 0.17865598 0.25139165 -0.27115926 0.03544585 0.25778195 0.50131243 0.39975137 0.0012845912 -0.4584563 -0.27871788 0.14170983 0.41070983 -0.29493853 0.013237759 -0.5988137 -0.05139171 -0.32936803 -0.0640095 -0.13005607 -0.23657963 -0.20350912 0.29194686 0.010120391 0.03130582 0.09938704 0.0016758022 -0.5834982 -0.23833168 0.43159807 0.39851958 -0.048323214 -0.4001548 0.053804126 -0.36761057 0.18134563 0.2734891 0.20156813 -0.44101432 -0.18794985 -0.46939963 0.22520207 -0.5426494 -0.2830605 0.15174776 -0.0812497 0.2661713 0.35112053 -0.42062536 -0.16110839 0.13087265 0.4115106 -0.17072077 0.57918644 0.5827747 -0.17032312 0.09863843 0.10041629 -0.41022012 0.11746174 -0.029864093 0.50235623 0.00419718 0.6827986 0.053964064 -0.20891453 -0.22232078 0.3362714 -0.6051383 -0.23158304 -0.1541224 0.4097181 -0.42601877 0.16534281 -0.35316995 -0.08053588 0.12514004 0.19339603 -0.19150269 -0.4791985 0.2634786 0.5776666 0.18612444 0.13479628 -0.0961083 0.12649116 0.26503974 -0.304474 0.16263297 0.39742023 -0.14982288 0.28517362 0.53315896 0.10465453 -0.22256364 0.47737756 -0.41283697 -0.5057388 -0.10646009 -0.45857635 0.22379716 -0.48334607 0.27769354 0.08408846 0.30371642 0.26236928 -0.48437446 -0.059794646 -0.06755669 0.037994087 0.5043784 0.37054706 0.0629698 -0.008947833 -0.41542014 0.33620644 0.3522113 0.17814924 -0.14877184 -0.12706646 0.66328394 0.693506 0.10760792 -0.12862436 -0.0035539174
28961 -0.2119015 0.10822977 0.33981898 0.26511115 0.27988115 -0.32718173 -0.41710684 -0.38571298 -0.021318518 0.6082805 0.3758295 0.27360412 -0.0013481027 -0.11878397 -0.062471442 0.14304115 0.27091104 0.07693625 -0.41706333 0.59578395 -0.28957558 0.19417134 -0.27153978 -0.23340008 -0.7223411 0.017777074 -0.29937902 0.08076855 -0.18091659 -0.2841982 -0.6633713 -0.032863468 -0.317437 -0.07862497 0.06341675 -0.11620835 0.323945 0.033259466 -0.047174618 0.0032910574 0.081948526 0.5878069 0.11644758 -0.5603697 -0.2218481 0.30472365 -0.21451665 -0.02723389 -0.36976418 -0.25331885 0.3630829 -0.03605465 0.29371786 -0.2734493 0.30618078 -0.12005098 0.15847501 0.42891893 0.24837162 -0.07674261 0.15908055 0.31175277 0.38561997 0.2090832 0.43000004 -0.50807106 0.08268319 -0.44062194 -0.019504184 -0.59835786 0.049240455 -0.1147106 -0.38152942 -0.37284988 0.0027991578 -0.60936624 0.14934154 0.14845687 -0.14036833 0.44297373 0.0036466434 0.14742327 0.08529258 -0.19156784 0.25092065 0.31357402 -0.09456353 -0.009552222 0.057500288 0.28939325 -0.05613113 -0.1408228 -0.03797394 0.060032073 0.1350746 0.11225622 -0.19045208 -0.6359716 0.2830724 -0.33226654 -0.493563 -0.16247447 -0.120101206 0.1121361 0.31643164 0.38830796 -0.26502496 0.56158197 0.0951147 0.16751802 0.36425054 0.02536261 0.16539945 0.029944478 -0.13290143 -0.12403421 0.22367717 0.12276044 0.20007932 -0.02650958 -0.08872972 -0.44923064 -0.18266022 0.012739429 0.22871491 -0.025175765 -0.048224226 0.12018569
25102 0.11066765 -0.10734826 -0.121639684 -0.114079036 0.4341936 0.29909742 -0.059331574 -0.19420114 -0.3166622 0.7374776 0.34481364 0.17422876 -0.3094383 -0.07425424 0.18581444 0.14059061 -0.1694299 0.23194224 -0.39802894 0.36835927 -0.14822109 0.4120365 -0.07659661 -0.0049761133 -0.015689146 0.3452276 -0.2973456 0.29563764 0.19033337 -0.050680842 -0.25475216 -0.054115355 0.33706167 0.31562525 0.21521176 -0.5606604 0.36300376 0.04290143 0.05436454 0.3158526 -0.25257266 -0.06376998 -0.22112103 -0.29954848 0.45911816 -0.19879033 -0.22486977 0.2201759 -0.26062375 0.014056208 -0.031730924 -0.14516932 -0.5081111 -0.17507075 0.29145503 -0.016724393 0.32130593 0.20151652 -0.15464252 -0.32765493 0.040846128 -0.120741054 0.3379924 0.4511051 0.5962533 -0.2215602 0.16659977 -0.07205008 0.2650841 -0.42739287 0.37254918 0.018488495 -0.34827423 0.20290212 0.20186923 -0.2270894 0.19960995 -0.2620467 0.28537568 0.32930145 -0.36314282 -0.3385427 -0.3718773 0.066275485 0.078603886 0.36871016 -0.45635298 -0.38361174 0.0019869716 -0.0008133618 -0.020475708 -0.015512699 0.29609084 -0.3695942 0.5200387 0.5295644 -0.31068563 -0.5078353 0.724636 -0.35980797 -0.39497763 0.24670373 -0.26947966 0.09642669 -0.3726771 0.053230263 -0.09249839 -0.19363394 0.2713869 0.27928364 0.12524386 -0.35169262 0.1691948 0.38997936 0.022474384 -0.005428187 0.37125283 -0.4110668 0.12392924 0.3073487 0.22214217 -0.06515265 0.32856998 0.14232698 -0.2887603 0.18182217 -0.29019004 0.18339342
31367 -0.48420814 -0.0228913 -0.24495044 0.42182547 0.58809644 0.37756377 -0.10467953 0.09416657 0.23640855 0.6658019 0.14456813 -0.48242965 0.10905181 0.17692712 -0.2366229 -0.23397572 -0.22939028 0.3178357 -0.63276917 0.50342107 -0.13956033 0.3812617 0.22189036 -0.27877507 -0.040750828 0.6701677 -0.41316214 -0.19169341 -0.044040777 -0.19119325 -0.23967618 0.04811158 0.42931148 0.13103136 -0.1842236 -0.13780288 0.32221466 0.018950611 -0.21725959 -0.02626211 -0.19570902 0.29499623 -0.14661998 -0.64722764 -0.28735462 -0.13944487 -0.13247092 -0.38674396 0.23535275 -0.06187211 0.036238145 0.42202985 0.2890498 0.42745626 -0.27915624 -0.15392768 0.33504564 0.5984927 0.5027175 0.17516711 -0.06845869 -0.29160637 -0.004940445 0.2281967 0.22860469 -0.17392015 0.14396155 -0.10936475 -0.27864474 -0.06292717 0.09441175 -0.69609356 -0.63733613 0.49723998 0.44249037 -0.55534077 0.19509791 -0.32460737 -0.6594366 0.17364642 0.51124114 -0.39575964 -0.010809117 0.25285965 0.1873569 0.29782307 0.43618992 -0.10733408 -0.23925385 0.62139505 0.50161 0.17310362 0.38118863 -0.6789736 0.29025835 -0.026148604 -0.41401494 -0.48629743 -0.117344186 -0.24556325 -0.5554198 -0.21454057 0.015713999 0.06393573 0.46552157 0.40160596 -0.42846623 0.1015276 0.38572899 0.33123127 0.26635078 0.21352296 0.17069505 0.45881984 -0.38331884 0.30169114 -0.2731688 -0.3298515 0.4615447 -0.111836925 -0.094493896 -0.2266319 0.8790151 0.0398031 -0.33335572 -0.25487024 -0.10712491 0.15259357
15994 0.025638316 -0.17935343 0.20534773 0.021646243 -0.008127452 0.57195884 0.03934684 -0.1758304 -0.40676293 0.6246347 0.37169617 0.05184482 -0.06340824 0.5226958 0.20380291 0.1427209 -0.22760431 0.12995611 -0.6840235 -0.3432657 0.32546476 0.17386198 -0.22146691 -0.31571752 -0.5228398 -0.16144808 -0.4783387 -0.07809692 -0.4153025 -0.2732634 -0.35950646 -0.03077086 0.79809946 0.15510459 0.23450732 -0.07489663 -0.03986375 0.21602365 0.21223387 0.39270487 -0.36816755 -0.41746578 -0.34044567 -0.59017724 0.07211745 -0.2193739 -0.3264194 -0.3621705 -0.03021567 0.27657068 0.3859511 -0.2785132 -0.4754499 -0.048624616 -0.039257478 -0.11567613 0.64848834 0.41662854 -0.43389636 0.15443559 0.07216427 -0.38871983 0.40434578 0.12169523 0.2371241 0.036723584 0.36446843 -0.002279328 0.42495653 -0.4769768 -0.010502652 0.18362418 -0.3501277 -0.1791858 0.100334264 -0.23379473 0.11835843 -0.5151953 0.11061245 0.40666366 0.0048810076 0.035179753 0.043435358 -0.00026961823 0.21146287 0.31704 -0.35044742 -0.27311376 -0.41448554 -0.2366003 -0.1187546 -0.17519385 -0.09391663 -0.04338193 0.37225768 0.086236455 -0.34704486 -0.18318617 0.57732385 -0.12812191 -0.5419909 0.2555876 -0.48862955 -0.004934645 -0.4137251 0.20150964 -0.11284568 0.025318561 0.6791785 -0.4813148 0.18298265 -0.06795534 0.029325314 -0.015540044 0.41943863 -0.16188431 0.53283 -0.31949022 0.20302519 0.2359044 -0.033448633 -0.15544194 0.370562 0.4907827 -0.08026098 0.506807 -0.050393023 0.14223997
21501 0.10047351 0.38868397 0.38113078 -0.0934993 -0.012008342 -0.25460646 0.2564653 -0.09286628 0.18908624 -0.07242349 0.4883087 -0.041433472 0.14297885 -0.07474475 -0.2746564 0.220791 -0.22342506 0.07725265 -0.45648474 0.046694163 0.017618539 -0.22698186 0.2337161 -0.4096205 -0.75087583 0.35406095 -0.17627725 -0.18070568 -0.120442174 0.022958454 -0.22094429 0.18646185 0.13796113 -0.080672674 -0.10910576 0.11647089 0.34519732 0.33549786 -0.14752187 -0.14899483 -0.33746138 0.17308576 -0.021804672 0.03386414 0.40193895 -0.35569033 -0.17088497 -0.41742432 0.23331185 0.20166263 -0.24547708 -0.11207248 -0.061844755 0.78289384 -0.52381253 0.24756755 0.4706668 0.28637773 -0.3776757 0.1048278 -0.49223706 -0.024156291 -0.021258868 -0.9079924 0.40162134 0.14947692 -0.11060098 -0.53354454 0.21463309 0.26744506 0.44912797 -0.4600991 -0.4117583 -0.13733384 0.030033985 -0.5168691 0.53516036 0.17410226 -0.3769924 0.4148817 -0.06879373 0.019068906 0.34709933 0.50146854 0.16405335 1.0932825 -0.5108576 -0.8212953 0.12431157 -0.052431397 0.041950163 -0.5152397 0.009760762 -0.29720998 0.19898432 0.58450377 -0.49437678 -0.13412248 -0.29570818 -0.58648443 -0.782795 -0.5961633 0.35752085 0.05054981 0.04116641 0.2171107 -0.051887162 -0.54505897 0.047080982 -0.35522115 -0.35273412 0.25713128 -0.26239765 0.09881545 0.024973778 -0.4029536 -0.24432315 -0.4905557 -0.28141665 -0.13857779 -0.022098947 -0.44371274 0.21590568 0.3013981 0.100414895 0.36164287 -0.09192616 0.4262082
34774 -0.408381 0.14201568 0.12889265 -0.21232118 0.35487825 -0.15842581 -0.09121985 -0.13899137 0.11519968 1.107044 0.07449879 -0.015901651 0.12494199 0.2144013 0.028138164 -0.3102747 -0.038864795 0.38438165 -0.5480834 0.07389772 0.121570274 0.19722492 0.10969134 -0.11265431 -0.36502737 0.07950369 0.0728905 0.11068414 -0.40944493 -0.24330786 -0.5166276 0.04766215 0.05260807 -0.1928304 -0.25258845 -0.48855937 -0.060063936 -0.4173236 -0.13827379 0.0008729494 0.048292417 0.27895594 -0.10060422 -0.6019777 -0.75906473 0.09623266 -0.062863484 -0.2020183 -0.15823902 -0.29139584 0.09935101 0.110755526 0.24093974 0.22944863 0.023333536 0.010650509 0.21877538 0.23072407 -0.17743248 0.002359478 0.18449529 0.23812316 0.47102058 -0.16914591 0.5041806 -0.40589634 0.1539215 -0.3688803 0.16604109 -0.16801776 0.09434638 0.05193988 -0.50300527 0.11830006 0.10671594 -0.8809856 -0.2151048 -0.101784535 -0.62032956 0.4995472 0.322817 -0.09639635 0.24460092 -0.018646918 0.21286057 0.16115096 0.19624175 -0.12616156 0.113524176 0.33157107 0.25538394 -0.20002398 -0.3594458 -0.5911958 0.1037572 -0.29351255 -0.587689 -0.71151507 -0.018452113 -0.25789303 -0.6921054 0.04339544 0.1841789 0.31655765 0.043678083 0.10826189 -0.12865749 -0.19324642 0.16569893 0.050062057 0.12250993 -0.55362415 -0.02407377 0.13460052 -0.19171257 -0.110658266 -0.24756598 -0.08160898 0.4576668 0.35279375 -0.2927921 -0.20389655 0.11852627 -0.1294017 0.07578034 -0.30480123 -0.058160786 0.41947412
33303 -0.00043371925 -0.11946622 0.102836475 0.17167291 0.061724037 0.25828674 -0.3489594 -0.59067345 0.25077304 0.60450596 0.0831091 0.059641343 0.003375475 0.26472655 0.3007858 0.072801 -0.009800884 0.22818753 -0.36519796 -0.007338561 0.08381587 0.83486325 -0.5424987 -0.097646765 0.14900817 0.127754 -0.104572 0.14654309 0.3246435 -0.2193909 -0.13794653 0.20364954 -0.25224802 0.004437704 0.1788061 0.08619149 0.0724401 -0.14910226 0.28946245 0.2428838 -0.36842132 -0.11307611 0.21757454 -0.7563207 -0.016444692 -0.13779826 -0.23989211 0.22320338 -0.48548242 -0.16336434 0.11789254 -0.2030198 0.08645348 -0.08496718 -0.028776206 0.13039112 0.22736226 0.3799373 -0.62666756 -0.056880403 0.07321994 -0.27500492 -0.02484867 -0.04326199 0.92062294 -0.39731014 0.40577653 0.060598336 0.08379529 -0.7070725 -0.08035113 -0.4176382 -0.51049864 0.19205081 0.035085443 -0.2955158 -0.16052172 0.10993038 0.34424976 0.107824534 -0.17291881 0.10859591 -0.6572073 0.12578908 0.181161 0.9180334 -0.30606717 -0.08430915 0.11342556 -0.32176286 0.15056592 0.28397402 0.17196725 0.16647005 0.3137255 0.26291296 -0.20394082 -0.5135972 0.15953685 -0.029454092 -0.4471056 -0.18723303 -0.13805759 0.01907677 0.16379294 -0.25940806 0.08492527 -0.5398585 -0.119892634 -0.19619906 0.25233248 -0.24394825 0.42854708 0.19606411 0.041766077 -0.04485199 -0.20970157 -0.56743747 -0.27480093 -0.05804981 0.3385665 -0.049264282 0.01765783 0.011178574 -0.023653809 -0.04661009 -0.29714698 -0.3134014
29283 0.1232542 -0.16924967 0.16145006 0.029074458 0.31282645 -0.059806466 0.42636803 -0.5575759 0.3770304 0.39633003 0.50057393 0.17550036 0.02772755 -0.42482108 0.8713424 0.18713182 -0.21006629 0.08776374 -0.36020452 -0.3976318 -0.1871628 0.24519084 -0.5653865 0.048704136 -0.7334666 0.28243312 0.15182924 0.18192716 0.13231309 0.38058412 -0.7775333 0.23229681 0.73962176 0.0077959658 0.06975325 0.16630232 0.09658284 -0.23205017 0.49116465 0.7630428 -0.27830407 0.297322 -0.31378382 -0.42276832 -0.8740866 0.021951009 -0.14527795 -0.011511423 0.4284331 -0.16058822 0.1821256 -0.009001964 -0.14146975 -0.017775435 -0.2264852 -0.23769774 -0.113271564 0.39032614 -0.24885386 0.16654906 -0.2602595 0.054069802 0.14295463 -0.42957687 0.4470265 -0.3038595 -0.4486341 -0.0144686205 0.3334817 -0.047301605 -0.030711193 -0.531815 -0.71485376 -0.40567502 0.18489084 -0.37557542 0.2313948 -0.35694322 -0.36801958 -0.0060693994 0.120556965 -0.7395056 -0.24743818 0.3187488 -0.027832458 0.096032515 0.44677374 -0.15274347 0.3000842 -0.06153387 0.029478798 0.15848339 -0.017708724 0.07306187 0.12897812 -0.043455932 -0.7235035 -0.5169204 0.011255889 -0.6372592 -0.30754194 -0.780975 -0.07816442 0.27670333 0.12929773 -0.3445355 0.08158547 -0.034709536 0.35095415 0.2133332 0.009158898 -0.56158775 0.091137186 -0.058287837 -0.49062118 -0.22147025 -0.103518285 -0.18008214 -0.23152156 0.6963806 -0.027589958 -0.24976403 -0.11662927 0.01909993 -0.5107165 0.60406715 0.31544173 -0.09095395
22715 0.0057330583 0.47149643 -0.3178112 0.5042466 0.11442197 -0.010982583 0.25200835 -0.0035981748 -0.35963067 0.41932184 0.49324647 0.05458186 -0.36016187 0.28654203 -0.3184551 0.47610065 0.050040472 -0.45351097 -0.16839027 -0.6477972 0.07171267 0.5140268 -0.075087294 -0.84353703 -0.12505254 -0.19557501 -0.83700025 -0.16498506 -0.34437558 0.10584212 -0.012520072 -0.10210047 0.28425303 0.45047957 0.1763396 0.378406 0.23315646 0.2450211 0.20225796 0.37725833 -0.42512918 0.5427246 0.12368975 0.30187127 -0.10249756 -0.32252592 -0.49064383 0.04006376 0.09882125 0.24777256 0.601791 0.035887968 -0.3977346 0.33219475 0.38864806 -0.13775982 -0.04572851 -0.056386277 -0.2744754 0.14175665 0.08431744 -0.47299606 0.098225735 0.15357529 0.7649074 -0.276391 0.49821135 0.00078531716 -0.1205235 -0.1323161 -0.009341406 -0.16458511 -0.435473 -0.026432287 -0.1067563 -0.30134308 -0.25100607 -0.25334698 -0.41578996 0.65724546 -0.31143743 0.14460562 0.17472972 0.30786595 0.0043193838 0.21899998 0.31874022 -0.75381094 0.3817971 0.22492757 -0.044497885 -0.6016068 0.21741451 -0.06692828 0.52591574 -0.39728528 0.0228704 -0.60577136 0.10500962 -0.24772127 -0.66985404 -0.15806381 -0.55300856 -0.11627787 -0.40406033 -0.27113515 0.3779332 -0.2359515 0.58912104 0.15791617 0.27985233 -0.45214653 -0.20946608 -0.10857757 -0.3769656 0.091898955 0.46526945 -0.20323126 0.34377152 0.35135028 0.2675954 -0.022572974 0.44917712 0.46634045 -0.21574694 -0.12674648 -0.23148541 0.14265525
24350 0.0585497 -0.3467987 -0.049992662 0.5601397 -0.33266804 -0.27463084 0.20117128 -0.36113024 -0.059843272 0.08168153 0.29598993 0.34462577 0.54546183 0.23404084 0.44532228 -0.008037492 -0.4252022 0.34666425 -0.6584195 -0.036261387 -0.0394361 1.0407813 -0.34312063 -0.55215466 -0.15508844 0.06279786 -0.111272626 0.66518456 0.3364451 0.17793441 -0.30653587 0.58495957 0.31557405 -0.0452634 0.027771382 0.09991375 0.4729611 -0.21137866 0.31165934 0.32656252 0.14820452 0.41566396 0.26090476 -0.2978131 -0.002674437 -0.50115746 -0.1764015 0.6375376 -0.34748533 0.13552347 -0.0013726647 -0.025925405 0.45855322 0.0017449172 0.028679742 -0.05678352 0.027263876 0.38103285 -0.59767157 0.770739 -0.49276268 -0.12904486 0.66909635 0.046514012 0.23331027 0.1292579 -0.22625321 0.2620888 0.17329456 -0.7060416 -0.32001898 -0.17317374 -0.79462767 -0.65570694 0.11840971 -0.44630504 0.009701686 0.5117167 -0.15480909 0.003756893 0.02619829 -0.345792 -0.08592838 0.5450216 0.07358862 0.25633988 0.3174788 0.32847646 -0.31591374 0.51898944 -0.10238865 -0.13815689 -0.2260628 -0.38642082 0.5926915 -0.075795375 0.098470554 -0.5616102 0.34281784 -0.30700558 -0.9163214 -0.09945595 -0.4031108 0.44357142 -0.484216 0.5289995 -0.063681014 -0.44946104 0.17002437 -0.18297681 0.22014876 -0.37698987 -0.08747921 -0.232802 -0.5854411 -0.37179086 -0.05892387 0.43497026 0.137598 -0.31060857 -0.6165137 -0.63437194 -0.53304935 0.3577737 0.28480008 -0.012079342 -0.2922364 0.1620849
23881 -0.1332927 0.54583156 -0.5177978 0.21903004 -0.06604539 0.18454452 0.1497887 -0.3151562 0.14321087 0.36330613 0.36290196 0.24795085 -0.25317937 -0.09401965 0.0024152675 0.42765272 -0.2802585 -0.2556909 -0.4196865 -0.33471084 -0.17767741 0.12088521 -0.019053971 -0.35802943 0.07026803 0.22481358 -0.4609782 -0.016175162 -0.2299249 -0.15966633 -0.57138985 -0.15181643 0.11676972 -0.012902041 -0.107933864 0.63472545 0.22608665 0.52251 0.06504036 -0.034058228 -0.032550424 0.20158468 0.15538433 -0.1444609 -0.068058416 0.10796651 -0.07563792 -0.117230564 0.335381 0.08061593 -0.13830681 -0.11684158 -0.3308988 0.110308684 -0.43437773 -0.15719515 0.32336 0.4364629 -0.67884547 0.058709554 -0.14361352 -0.29486886 0.7425885 0.6059724 0.60977554 0.20090401 0.06718293 0.032440417 -0.39538264 -0.49002263 -0.1817599 0.1607083 -0.5423647 0.37705526 -0.19254914 -0.32738444 -0.17158143 0.25929728 -0.045483205 0.46467993 0.061300647 -0.18113835 0.16779658 0.6159993 -0.13081972 0.91545546 0.22927386 -0.14899784 0.5889212 0.21470347 0.020394808 0.007222442 0.07528313 0.3501025 0.14188568 -0.41994125 -0.56539047 -0.39110902 -0.00053298764 -0.6336558 -0.89022344 0.31976393 -0.19554438 0.14432573 0.49663168 -0.5078742 0.006020976 -0.05556115 0.3358545 0.018520437 0.3476494 -0.20857428 0.20477918 -0.27344817 0.011447254 -0.16705352 -0.1612827 -0.46710712 0.29470724 0.23736627 -0.19694102 -0.123958185 -0.2469565 0.1310461 -0.099031255 0.077590525 -0.3211308 0.11990299
20506 -0.04248841 -0.100371346 -0.6114 0.1522797 0.05510831 -0.20984845 0.06644496 0.11585677 -0.30637655 0.2828738 0.15265031 -0.2020347 -0.16706368 -0.01048071 0.32350063 0.037504103 -0.18274616 0.31772166 -0.62517273 0.2947489 0.08395118 0.36073706 0.056808982 -0.19226328 -0.38645303 0.095035054 -0.120964184 -0.45555735 0.37582645 -0.20827933 -0.5832766 -0.1018409 0.07969143 -0.24320981 -0.8629156 0.55492395 0.017196877 0.12506415 -0.0014671878 -0.019039309 0.042661805 -0.2055027 -0.39592358 0.11925604 0.13183747 -0.16370606 -0.55017465 -0.057237785 -0.03688495 -0.39835918 0.40399593 0.2587776 -0.24044494 0.13748811 0.018351514 0.42854208 0.26919508 0.26123986 0.008218962 0.14520645 -0.6146888 -0.08591649 0.3453041 -0.115932286 0.8646897 0.19327112 0.4038587 -0.17702024 0.0032872267 -0.41881227 -0.1759031 -0.51264507 -0.83503056 -0.17730886 0.16387077 -0.27087557 0.29656032 0.28449598 -0.05629484 -0.17257117 -0.028713362 0.17987852 -0.0889788 0.008365149 0.63087124 -0.08388152 -0.08120346 -0.5028809 0.13097204 0.03122392 -0.31715623 0.43978813 -0.23791468 -0.44711396 0.43756935 0.26228708 0.31011245 -0.35674185 0.21641608 -0.46147534 -0.34158164 0.21777762 -0.21877468 0.23525858 -0.3771865 0.5629682 -0.18087573 -0.039377406 0.00081734546 -0.15846948 0.15972655 0.06415945 -0.39425635 0.053382587 0.011894814 0.027638232 -0.19185185 -0.13114353 0.3269465 0.20691386 -0.4729172 0.030458424 -0.23360667 0.092557535 0.34106672 0.12935601 -0.5734128 0.38870823
24473 0.30582878 0.08876869 0.14554685 0.114429325 -0.12329934 0.26372877 -0.07422961 -0.26296732 0.11304642 0.27624997 0.013364427 0.23206307 -0.039805826 -0.11107503 -0.07940379 -0.284053 0.0071030725 -0.010514785 -0.31892598 0.043554008 -0.35412 -0.082424484 0.29540005 -0.47053123 -0.6641927 0.36493734 -0.16335455 -0.37311238 -0.5341915 -0.087448634 -0.4291378 -0.23419057 -0.14645065 0.63482374 -0.3160209 -0.29773995 0.046545092 0.100186 -0.01693227 0.22400917 -0.44364053 -0.04991459 -0.40357628 0.16460685 0.48742577 -0.63126254 0.07776713 0.4575197 -0.07351271 0.17957681 0.24613458 -0.41601035 -0.24573986 0.30538994 -0.34454963 0.3485577 0.13788421 0.12685262 -0.17126316 -0.013988491 -0.20442237 -0.15917742 -0.017390423 -0.56601375 0.45552322 -0.04493786 -0.1446511 -0.064694464 0.09469742 -0.3992063 0.12090367 -0.3716228 -0.7494668 -0.45095623 -0.28877577 -0.26908833 0.2425086 0.29768172 0.07424951 0.2687352 0.18437852 0.056334756 0.1262574 0.044559993 0.47022584 0.24288066 0.2740662 -0.5343263 0.0053682285 0.28834426 -0.05051569 -0.4205241 -0.12892942 -0.0798456 0.3240606 0.03692966 -0.30597925 -0.7644161 0.34948954 -0.5818842 -0.43675548 -0.38779518 0.24794996 0.400275 0.09644827 0.18309015 -0.13346165 -0.93912154 -0.12717079 -0.046469 -0.6130139 -0.017943615 0.31461254 0.21238564 0.07632916 -0.36690107 -0.12162157 -0.2778293 0.009141408 0.12092545 0.25914896 -0.43309844 -0.22571295 0.30664295 -0.059629083 0.46011037 -0.009893794 -0.37666696
15074 -0.20347205 -0.83376324 0.0746898 0.5712715 0.04379585 0.3700746 -0.21676998 -0.37027013 0.34364483 0.25653496 -0.2457109 0.049510863 -0.21980228 -0.19277307 1.0530775 0.39394283 -0.3053559 0.36499384 -0.3950719 0.531019 -0.25810152 0.72956014 -0.40360838 -0.3988218 -0.5231952 -0.038368974 -0.31059077 -0.23338835 0.03881522 -0.30034265 -0.5731882 0.27704933 0.26635414 -0.30757958 0.14344642 -0.24643874 0.2648021 -0.11783345 0.18214372 0.78602296 -0.093866065 -0.25932887 0.26965296 -0.5211388 -0.2297511 0.15824737 -0.12581941 -0.41891325 0.07236613 0.05971368 0.1233196 0.5271708 -0.044023596 0.31475177 0.11401537 0.15657745 0.83139694 0.1983808 -0.33378997 0.08655082 -0.19176818 -0.6246826 0.30127573 -0.23536001 0.25151882 0.069413975 0.25242957 0.34099936 0.6902899 -0.74749166 0.2093282 -0.677185 -0.8796968 -0.39078683 0.010006776 -0.05107502 -0.2718544 -0.0022582852 0.21104889 -0.37534526 -0.031108871 -0.15149269 0.12630774 -0.026362095 0.5783097 0.4363141 -0.101619825 -0.27342457 0.22165029 0.0652518 -0.0031513553 -0.19284613 -0.33760837 -0.2621383 0.14669977 0.12878457 -0.14653167 -0.096036024 0.69820654 -0.37926066 0.03792373 0.2962938 0.2960048 0.29589087 -0.070119366 0.4785135 0.30166063 0.08630779 0.63594174 -0.14560013 0.32690462 -0.42525035 -0.12670104 -0.038924847 -0.40153438 -0.14596252 -0.34269863 -0.8415915 0.23880917 0.5827985 0.04319342 -0.0755188 0.2967502 0.07115846 -0.48782772 0.29008734 -0.16704701 0.21579292
14648 0.1432821 -0.4924338 0.52613455 0.075643845 0.005722222 -0.56440854 -0.2537105 -0.31007433 0.38067657 0.7885224 0.035620365 -0.48754695 -0.18025106 -0.39244312 -0.027552364 0.41436055 -0.40988788 0.5556515 -0.5661074 0.3365195 0.33294323 0.35381776 0.24103303 -0.065097466 -0.39599025 0.24294996 -0.32172105 0.061800048 0.049236137 -0.1541727 0.19361427 0.14410147 0.10752364 0.50083023 -0.13408811 -0.09783005 0.69294924 0.37749845 0.7109641 -0.22168247 -0.3406004 0.35190398 -0.5127871 -0.2763702 -0.26154542 -0.017248563 -0.04464858 -0.006488667 0.0040410142 0.16847992 0.4851663 -0.11918556 0.012425879 0.13307087 -0.33241066 -0.48107213 -0.17453662 0.35553762 0.38880605 -0.0011770639 -0.23063627 0.11608327 -0.2852331 0.02160716 0.6946266 0.18097903 -0.16528936 -0.34131175 0.16422485 -0.24257024 -0.3150061 -0.124798134 0.010511567 -0.20942578 0.29597494 -0.16399015 -0.020173939 -0.114546776 -0.6121208 0.3132089 0.32311812 -0.3927041 -0.5856667 0.32802212 -0.017574117 0.3468779 0.33758584 -0.0070916605 -0.252896 0.18210731 0.1475179 -0.5154106 0.2701547 -0.4576321 0.42567074 -0.20388252 -0.40071282 -0.6058629 0.2664143 -0.39288327 -0.55913246 0.0047123316 0.11187517 0.2379867 0.42284074 0.14701352 0.10759611 -0.09007136 0.16762044 0.28014746 0.28161255 -0.5373781 0.19373839 -0.056617435 -0.010176453 0.28271973 0.036119565 -0.37931463 0.24914576 -0.17404446 0.03747101 -0.28453234 0.36248913 0.5512397 -0.4886407 0.22858503 -0.5080241 -0.57137495
18489 -0.38176754 -0.20039038 0.31806445 -0.16152948 -0.18519016 -0.14459491 0.096987106 0.13164979 -0.032048993 -0.42333144 -0.16303992 -0.059481114 -0.12701653 -0.2894936 -0.22563936 0.18679927 -0.15613376 0.0056283795 -0.7352305 0.3384971 0.0018804163 0.41215461 -0.19066213 -0.39867446 -0.30031016 0.36859792 -0.3495662 0.11982876 0.51711535 -0.22196694 -0.5103314 0.3651077 -0.029715914 0.115611866 -0.20195214 -0.02329545 -0.48622802 -0.43992555 0.05028706 0.24899153 -0.78561443 -0.011376778 -0.057537243 -0.4948783 -0.03491625 0.09146696 -0.08161805 -0.36786062 0.37215456 0.18982211 0.35785988 -0.7632715 -0.047854215 -0.26485956 0.57736295 -0.37790075 0.5228663 0.16246884 0.02890068 -0.52183336 0.19341898 -0.6600746 0.39735073 -0.7808366 0.18636781 -0.020182854 0.22705589 -0.015551806 0.09708363 0.17305386 -0.17396402 0.25723398 -0.4827079 0.30479178 0.16623044 -0.36389795 0.33112743 0.13941976 -0.5388292 0.26378602 -0.060882635 -0.67815 0.11202626 0.31692207 0.68365467 0.19093096 0.29013973 -0.10931303 0.547177 0.2652466 0.7030419 -0.19527586 0.14714094 -0.25436303 0.8145802 0.51477545 -0.39322007 -0.39869326 -0.31032848 -0.09177907 -0.11338346 -0.15029645 -0.022680696 -0.027340144 0.27384683 0.28256032 -0.027219638 -0.23230146 -0.34324387 -0.46918857 0.1667766 0.20569122 -0.16562936 0.119239196 -0.4624112 -0.45115477 -0.24469194 -0.04801168 -0.097667 0.1454924 -0.36997125 -0.1365635 -0.031302247 0.12805076 0.5204151 0.09991124 -0.020628097 0.14118767
33069 -0.15059221 -0.31158176 -0.10748811 0.05529081 -0.06770462 0.20651282 0.19215871 -0.18720025 -0.56847847 0.29352158 0.12743987 -0.4910132 -0.4041683 -0.077833585 0.2081577 0.34126619 -0.1662845 0.45773286 -0.6620382 0.31832182 0.2674679 0.084419675 0.21422487 -0.64609134 -0.6858937 0.21421652 -0.42068043 -0.3638556 -0.15231211 -0.326307 -0.21033712 -0.101621374 0.12961064 0.1749077 -0.69244283 0.19738384 0.09857992 0.014005565 -0.24412628 0.17974702 -0.27541938 -0.37694356 -0.2623809 0.14697857 0.56246346 -0.05793458 -0.23616467 -0.31405443 -0.015443253 -0.59038395 0.31626758 -0.317591 -0.2960612 0.42022514 0.24033275 -0.0066153547 0.36209068 0.16455217 0.14799707 -0.1304608 0.013534522 -0.41100696 0.4552894 -0.20860782 0.41386202 -0.030417655 -0.07506335 -0.40230346 0.25875658 -0.328253 0.037588105 -0.13601163 -0.17548749 -0.25895634 0.37673172 -0.16707678 0.012171538 0.5616921 -0.5964358 -0.051555753 0.11225877 -0.06752275 0.11701891 0.0355673 0.5279724 0.39053968 0.14296572 0.064363986 0.19544081 -0.44480518 0.16819885 0.14077081 -0.42951143 -0.07872218 0.5467555 0.30163488 -0.35613197 -0.3728271 0.44425845 -0.3445173 0.094324894 0.06653823 -0.22900255 0.32987595 -0.054479487 0.57921714 -0.06473071 -0.35900092 -0.06448304 -0.36693534 0.14914033 -0.12025589 -0.17827082 0.084395654 -0.07744113 0.21110225 0.09815303 -0.3125484 0.2505694 0.17259456 -0.028279865 0.25414106 -0.4974124 0.56137073 -0.13267434 0.15728435 -0.44262156 0.30182236
19441 -0.12639923 -0.39489934 0.38114378 0.24540548 -0.3100823 -0.4826639 -0.16224855 -0.38850203 -0.035845555 0.46180826 0.11756355 -0.33614105 -0.05654336 -0.16182779 0.13066489 0.19834797 0.042375468 0.021567687 -0.5232696 0.070294626 -0.10132193 0.7416786 0.2791925 -0.47545317 -0.2501724 0.25581515 -0.55347306 -0.27127102 0.07579673 -0.15373367 -0.41745806 -0.12090094 0.13142836 0.46234873 0.086408995 0.22048442 0.23812759 0.41508353 0.48719934 -0.011154103 -0.6247595 0.085317716 -0.31423467 -0.65292263 0.47881785 -0.68854254 -0.50662243 -0.49060524 0.24963853 -0.3881388 0.65016526 -0.6445912 0.07946124 0.020453235 0.26843634 -0.021471942 -0.17424576 0.4290959 -0.0208481 0.08920909 -0.007960378 0.21846057 -0.27522126 -0.2336886 0.031526577 -0.054094803 0.19064108 -0.40549168 0.70526505 -0.5591771 0.07899523 0.02300761 -0.48343277 -0.20916133 0.2835984 -0.09405573 0.21719237 0.08215263 -0.18041547 0.1188368 -0.30057243 -0.364547 -0.052357234 0.04382061 0.36463243 -0.31127745 0.16705243 -0.015630394 -0.3552668 -0.2450076 -0.09085155 -0.852261 -0.25133556 -0.39782175 0.81930757 0.05260472 -0.028158324 -0.1555885 0.08100237 -0.17394559 -0.2928005 -0.14084539 0.13784553 0.26479653 0.5180476 -0.18937115 0.03233378 -0.006424534 0.29907846 -0.17754897 0.40617666 0.15538599 -0.09638561 0.13423964 0.09118682 0.04094745 0.43869737 -0.3440773 -0.19154511 0.18504962 -0.42722833 -0.1710175 0.023399288 0.34836364 -0.3159425 0.115081534 -0.41044936 -0.29540122
28595 -0.037026487 -0.11939377 -0.052586723 0.45755836 0.2018622 -0.20780353 -0.14394766 0.16476673 -0.28695908 0.15539561 0.4631895 -0.18183617 0.04224084 0.19203769 0.19423397 -0.05163995 -0.2891745 0.2729669 -0.2128231 0.34755516 -0.0030268657 -0.49017897 0.4620588 -0.21651538 -0.06153751 0.30908808 0.023328334 -0.0022478905 0.07169966 -0.8580546 -0.16059963 0.11228264 0.20423308 0.10426594 0.12069233 -0.13117534 0.44241902 -0.10272071 -0.13982655 0.27429724 -0.4912382 0.15712963 -0.14306457 0.15423296 0.5154239 0.055945624 -0.4680539 0.3821956 0.087779626 0.119897656 0.39578128 0.14264636 -0.09394339 -0.1581868 -0.60694635 0.0017861174 0.342382 0.29888803 0.2000173 0.0984741 -0.33067834 -0.26290974 -0.21768259 -0.46071467 0.6181572 -0.07900111 -0.15015195 -0.11442107 0.19554678 0.29390195 0.26272678 -0.37307015 -0.5306731 -0.12872805 0.0794843 -0.29448023 0.017650666 -0.3426619 0.35362467 0.32956216 -0.3191394 -0.8857328 0.08970168 0.013142279 0.7796999 0.12336051 0.36677915 -0.6948632 -0.04062392 -0.11347679 -0.153321 0.115858115 -0.115676455 0.12928566 -0.044373598 0.7738656 -0.6090661 -0.11703978 0.49854606 0.06347679 -1.1741596 -0.3643793 0.22751471 0.06165458 0.17288968 -0.33978978 0.14927043 -0.53831345 0.22380802 -0.18491827 0.057839446 -0.039358903 0.019697951 0.056667298 -0.031603348 0.31813043 -0.038238157 0.07755161 -0.2068169 0.21024013 -0.008694802 -0.4677634 0.13331127 0.09659707 -0.27541313 0.34527436 -0.14635184 0.36077943
1762 -0.2114553 0.024798863 0.08076689 -0.25737023 -0.111141145 -0.048715536 0.100302696 -0.0003582491 0.28105378 0.38715714 0.38945335 0.3860551 0.16191599 0.1129485 0.20822541 0.3195344 0.51357424 -0.19947805 -0.34565094 0.14319122 0.19037984 0.22463593 0.11398663 -0.10701436 -0.35364026 0.39571726 -0.25676194 -0.54672134 -0.21424249 -0.21643293 -0.49702677 -0.19879124 0.22070213 -0.2701306 0.1113994 -0.016804231 0.15018474 -0.15961175 0.38860297 0.34770507 -0.20874327 0.3801248 -0.36606362 -0.32260123 0.14684567 -0.09459464 4.1717314e-05 0.36614627 -0.28452668 -0.07151816 0.10748863 0.06961719 0.10368385 0.13675953 0.059429366 -0.32634667 0.25268632 0.30753332 0.008051636 0.28599077 -0.35975313 -0.33691266 0.30263183 0.0048365938 0.46768102 -0.18893842 -0.20239735 -0.16631918 0.291472 -0.21626318 -0.08960656 0.013335246 -0.50594074 -0.18309084 -0.23692144 -0.5630064 0.26454672 0.21053582 -0.35410145 0.8278411 -0.11979766 -0.6094742 0.1183829 -0.095859654 0.062473163 -0.40553427 0.06848069 0.12599139 0.41402876 -0.0502038 0.2715886 -0.6046776 -0.6147745 -0.5651307 -0.1515768 -0.15848486 -0.04722139 -0.10026954 -0.26718116 -0.08691938 -0.124910355 -0.47785896 -0.18503422 0.594721 -0.14840247 -0.17118551 -0.29872715 0.3262648 0.13392147 -0.24260853 0.105005585 -0.24294119 -0.15013811 0.15815818 -0.45301896 -0.16343786 -0.36057198 -0.059937477 0.07544424 -0.19183844 -0.13771397 -0.5975111 -0.40739214 0.30099294 -0.064131334 0.29087183 0.028695174 0.088475555
28337 -0.12413774 0.018089036 0.10417324 0.9105649 0.38819328 -0.02773401 0.31273207 -0.45666617 -0.16122645 0.15889268 0.52346116 0.10928454 0.1669261 0.026663212 0.7517597 0.25962973 -0.065119945 -0.100484364 -0.42556468 0.03319926 0.17672679 -0.1543783 0.13474469 -0.73583126 -0.30141836 0.24323729 0.11689079 -0.22975981 0.20754983 -0.7009579 -0.44966447 -0.12441696 0.05656931 -0.15024713 0.24601638 0.14141999 0.13804051 -0.37397167 -0.6433058 0.41625756 -0.23952647 -0.09956897 -0.19561741 -0.43745732 0.46055305 0.19219275 -0.41746822 0.082579546 -0.06115153 0.15278773 0.5674448 0.12270668 0.06767451 -0.1613128 -0.28120074 -0.08915515 0.64853317 0.25439072 -0.3532353 0.17653862 -0.5307961 0.057181157 -0.25808555 -0.8186363 0.43781134 -0.4420741 -0.008493052 -0.05339209 -0.20148534 0.025760593 0.041261382 -0.00919565 -0.114362426 0.026138661 0.09546844 -0.15671536 -0.4077487 -0.19581257 0.25187308 0.16131766 -0.11590532 -0.48146382 0.27885634 0.25035664 0.6226798 0.15364668 0.015992288 -0.5837915 0.03688381 -0.23459211 -0.047095504 -0.42249453 -0.12277664 0.09801212 -0.18485764 0.5247623 -0.32739508 0.21060242 0.1668156 0.13510185 -0.60824156 -0.06317614 0.27603468 0.23825397 0.21218376 -0.008365786 -0.014420192 -0.44998565 0.034620147 -0.54278594 0.29085818 -0.10406008 -0.5701314 -0.08953439 0.06660482 0.1525711 -0.09198936 -0.4771398 -0.112074286 0.2587447 -0.104485065 -0.33609048 0.50965554 0.41271558 -0.13703439 0.53006804 -0.14206007 0.28450117
19358 -0.02848742 -0.39396873 -0.12801296 0.46458763 0.046986893 -0.40037966 -0.12610406 0.04744132 -0.15232332 0.20401129 0.12574928 -0.20518474 0.06151253 0.45886505 0.34114993 0.13048913 -0.02722896 -0.1830202 -1.0225674 0.28976285 -0.08810524 0.10682005 -0.17166756 -0.8031834 -0.12932049 -0.21899003 -0.35397497 0.13227156 0.10443474 0.23356093 -0.25029272 0.59437585 -0.15920581 0.31684205 0.4594868 0.40308672 -0.041181833 0.042749852 0.14011744 0.4991845 -0.16255435 0.55985355 0.72148883 -0.1549804 -0.33877465 0.055435892 -0.037110288 -0.20329708 -0.47714967 0.43850306 0.53373957 0.010189555 0.7661677 0.4087053 0.62572306 -0.3968224 0.49347964 -0.03002681 -0.3349496 -0.09052277 -0.10189139 -0.56739986 -0.26124558 -0.5798741 0.45999607 0.14164835 0.32090777 0.24120283 0.2543746 0.18468522 0.022869498 -0.6482694 -0.36342937 0.045663945 0.64918804 -0.20146294 -0.25676537 -0.12804434 -0.21396978 0.14821902 -0.72380507 -0.16377868 -0.16229889 0.6840523 0.14180192 0.591644 0.036444224 -0.16617 0.08919339 0.11570055 0.46615764 -0.43869153 -0.09145075 0.20658079 0.017867874 0.23397556 -0.49241763 -0.60187656 0.18302548 -0.48470482 -0.98034143 -0.39838243 -0.096096694 -0.11518627 0.02934457 0.43773368 0.072753035 -0.32274452 0.32391575 0.1026242 -0.2941684 -0.4652909 0.0238329 0.20237158 -0.08783458 0.037688904 0.10909924 0.004925415 -0.11162064 0.3013339 0.50552166 -0.053609993 -0.2088191 0.17455366 -0.08934915 -0.08353582 -0.0738317 0.49725375
4757 -0.019102637 -0.36831927 0.012398567 0.735192 0.19636253 0.09840908 -0.15868504 -0.18266922 0.15661436 0.0931512 -0.061241023 -0.05227443 -0.2523206 -0.28054675 0.3077269 0.45057297 -0.21912509 0.19170892 -0.27057174 0.13774002 -0.26628038 -0.06863261 -0.18419157 0.03602918 -0.53280145 0.3688448 -0.19068721 0.33985007 -0.0062802974 -0.33983374 -0.59461445 0.28764993 0.046262875 -0.12854236 -0.14858519 -0.087648794 0.25295973 -0.22931759 0.041130673 0.12893109 -0.18654385 0.010035792 0.5190048 -0.3824951 -0.529099 -0.09625447 0.031987585 -0.12125698 0.4200972 -0.48143926 0.18929468 -0.05133903 0.11000685 0.3298158 0.027921632 -0.19922185 0.5798496 -0.09115076 -0.24176641 -0.13932078 0.07752316 -0.88587683 0.41814166 -0.13176255 0.2061353 -0.02234565 0.20343338 0.11377262 0.2161443 0.035504296 0.109103724 -0.23793572 -1.0112312 -0.16659145 0.13180943 0.14753088 0.13467966 0.27567065 0.30140442 0.16193399 -0.16562733 -0.22072047 -0.101982705 -0.16361293 0.43949553 0.0032457358 0.1746702 -0.2200644 0.45261437 0.44932508 -0.31264552 -0.41325864 -0.16273502 -0.10864817 0.160077 0.19178131 -0.012394942 -0.046839632 0.26073995 -0.33142814 -0.18650271 -0.1161286 0.19554563 0.17500344 0.28013137 0.45322955 0.076707 0.14311957 0.64622635 -0.003679642 0.11184378 -0.40916088 -0.18225016 -0.10458232 0.11265531 -0.10144302 -0.2811892 -0.1756377 0.34003142 0.22582446 0.14665577 -0.47199962 0.10982397 0.4058923 -0.23874035 -0.6046227 -0.4796938 0.072655015
14063 -0.195061 -0.26143184 0.5488558 -0.13310577 -0.12680107 -0.09229295 -0.1843493 -0.39708725 0.22227794 0.30058396 0.13835886 0.097106054 0.09479803 -0.030167028 0.26113352 0.3841451 0.0765726 -0.20750017 -1.0159731 -0.2244701 -0.22316739 0.39903134 0.3306077 -0.06847873 -0.3764244 0.31123793 -0.14379245 0.6827535 0.3306077 0.13832372 -0.25416556 -0.28558406 -0.090262756 0.42021984 0.08957123 0.2879602 -0.01011736 0.07968817 0.6099292 0.17845337 -0.87556213 -0.035863467 -0.14124684 -0.33305848 -0.15227477 -0.31782585 0.22640923 -0.3035484 0.26051506 -0.044740014 0.5301091 -0.349577 0.13998143 -0.16022584 -0.16078009 0.12048182 0.34787348 0.31751516 0.28447074 -0.35554555 -0.11636215 0.21369317 0.19726186 -0.53622323 0.004317884 0.26744387 0.29335997 -0.38032332 0.5422642 -0.1985988 0.04351695 0.17747296 -0.22518915 0.03334299 0.41864973 -0.537477 0.35358655 0.22833203 -0.20375201 0.37384346 -0.41744226 -0.46808776 0.19464214 -0.09097719 -0.041154243 -0.22371526 -0.095149174 -0.12656792 -0.04127828 0.2599959 0.14608288 -0.5433815 -0.20651236 -0.20649417 0.84256697 0.26520517 -0.70524645 -0.17485915 -0.18295807 -0.30549532 -0.20469299 -0.33718735 -0.3196741 0.14348099 0.45048642 0.25964412 -0.16526967 0.062425237 -0.071300805 0.19665502 0.33156618 0.32968518 -0.23532254 -0.041873217 -0.059632003 -0.40565047 0.42770472 -0.4384511 -0.11263339 -0.27067822 -0.37917104 -0.015438061 -0.4766389 0.49601012 0.05130065 0.37397233 -0.3956075 0.2798784
159 0.30891624 -0.2667639 -0.5273902 0.32223707 -0.0164231 -0.0685426 0.027927743 -0.43740833 -0.3159783 -0.3274892 0.14377402 -0.16634804 -0.13881055 0.11686325 0.06626868 0.09886706 -0.15013103 -0.21615751 -0.71355915 0.117590636 -0.26388586 0.17490591 -0.22658587 -0.15090333 -0.37232715 0.14431402 -0.4717424 -0.3993055 -0.44600475 -0.04928311 -0.47799587 0.3106952 0.09650679 -0.3769948 0.2130652 -0.022805957 -0.23086473 -0.45367122 -0.5148563 0.1814712 -0.19082129 0.3498212 0.09328417 -0.6421602 -0.07094 0.040168107 -0.023616124 -0.35188642 -0.36406562 0.4857794 0.66407025 0.06593883 0.17427658 -0.20414981 0.012432458 -0.61268646 0.16713393 -0.13108549 -0.4872309 0.2142177 -0.25513902 -0.5554469 -0.064629875 -0.40245718 0.2484885 0.23463088 -0.29521826 -0.014032163 0.6137617 -0.43369898 -0.020621026 -0.3039104 -0.5117555 -0.2602603 0.079137996 -0.3200512 -0.20958051 -0.23924893 -0.09970809 -0.6407385 -0.074922994 -0.36039698 0.38313943 0.28229088 0.41904524 0.20019068 -0.19905348 -0.40079874 0.08733058 -0.2850137 0.40550587 -0.33267626 -0.046068463 -0.02436207 0.2286414 0.25167167 0.22605246 -0.727713 -0.03582977 -0.64086634 -0.074213445 -0.114198335 0.36076018 0.5040199 0.2988619 -0.17907837 -0.14530605 -0.31012964 0.50492936 0.03231679 -0.030676557 -0.3838624 -0.15118884 0.08958299 -0.14062966 0.32851785 -0.006615609 -0.5441072 -0.38786346 0.6543922 0.06163018 -0.59616894 0.06642445 0.3197971 -0.38022977 0.15362787 -0.41437185 0.39420584
25576 -0.16483524 -0.31492 0.022222796 0.1755472 0.17908962 0.24778694 -0.009162189 -0.25562906 0.612642 0.4104819 -0.036828365 0.014957159 -0.29062006 -0.061011374 0.49362502 0.5286905 -0.17007266 -0.32160136 -0.35676342 0.21983409 0.55166775 0.49972323 0.023061436 -0.122147836 -0.83637047 0.2614511 -0.15064806 -0.5834222 -0.00479473 -0.25397515 -0.5110235 -0.2812479 0.80229366 0.024700938 0.06793764 0.21107379 0.024907064 -0.44952247 0.43090478 0.54761654 -0.31429446 0.730621 -0.3017176 -0.41458458 -0.090399 0.09592539 0.28118414 0.23062427 0.10022921 -0.2961914 -0.24965478 0.18344533 -0.1905745 0.55865943 0.14756256 -0.6593295 0.14450794 0.3736164 0.22612217 -0.12441997 0.0230317 -0.05129893 0.75745016 0.23683879 1.1012574 -0.24536428 -0.14132965 0.17660134 0.46913898 -0.0639581 -0.2536281 -0.17354318 -0.9473201 0.054002654 -0.25457472 -0.13130869 -0.011530433 -0.1428269 -0.55858344 0.8988549 -0.43213576 -0.43067518 0.15254566 0.0941797 0.40724745 -0.41029543 -0.043872584 -0.17465247 0.57068646 -0.60134465 0.27774093 -0.27098748 -0.17371047 -0.42097732 -0.23257515 -0.1837366 -0.5701466 -0.21407126 -0.08781596 -0.41116315 -0.31299394 -0.20646302 -0.2234957 0.27730674 -0.48271886 -0.34078962 0.019770771 0.32636815 0.09817184 0.08149227 -0.115840524 -0.8154081 -0.0051851617 0.3667214 -0.61718434 -0.2532197 0.08617172 -0.46550772 0.30292338 0.38844228 -0.1322589 -0.41153282 -0.20883945 0.076663174 -0.47820693 0.7598648 0.01998159 0.05177475
10397 -0.2912422 0.056893524 -0.21984555 0.10455913 0.3367059 0.32614523 0.12048849 -0.24537861 -0.36923566 0.76155907 0.2607034 0.21372694 0.032963872 -0.20280892 -0.20571123 0.11077709 -0.28570434 0.22072802 -0.5431818 0.71686125 -0.3482412 0.18394515 0.29332155 -0.54323775 -0.072377555 0.4061921 -0.28570276 0.022680584 0.09220301 -0.7876144 -0.101476595 -0.031259082 -0.1728153 0.33027413 -0.049135275 -0.15434842 0.4388466 -0.050673112 -0.4026009 -0.0040566153 -0.005192097 0.3310162 0.11852597 -0.78357047 0.2908049 0.24471907 -0.415475 -0.06719646 -0.25904694 -0.56114805 0.18135163 0.19022003 -0.21110013 0.1586716 0.27346107 0.028112318 0.18660784 0.30555367 0.24750955 0.035589036 -0.16096225 -0.11896061 0.17560045 0.603293 0.19835892 -0.50321424 0.05402531 -0.38069084 -0.07030152 -0.3417203 0.4175808 -0.3787788 -0.47028592 0.32137066 0.19814539 -0.48271638 0.4406908 -0.060668975 0.12855364 0.5002386 0.087130725 -0.46434245 0.24682379 0.23737185 0.5819144 -0.010719316 0.034935508 -0.124835625 0.008318744 0.0880123 0.10390415 -0.020778546 0.034907963 -0.3987035 0.2215626 0.17127487 -0.50152993 -0.6173011 0.5900773 -0.48998284 -0.40096956 -0.0077956324 -0.18941878 0.021675346 0.38651058 0.6162437 -0.33492267 0.121164225 0.2925739 0.3643744 0.54039794 -0.20220126 0.08440672 0.6931245 -0.12779276 -0.2614436 0.43639746 0.07516984 0.2502956 0.09929122 0.24693292 -0.3121663 -0.05789667 -0.0901182 -0.5009647 -0.31162584 -0.043360006 -0.009477956
15901 -0.069719516 -0.18955608 -0.042022325 0.45453522 0.027347285 0.105314575 0.2516899 -0.46646857 -0.32319817 0.31789178 0.0601615 -0.23645587 -0.071657255 -0.0073081004 0.41106704 0.9819314 -0.19016904 0.25006324 -0.2134453 0.18033983 0.026967017 0.45284256 -0.09545195 -0.38845557 -0.3758512 0.17434847 -0.49736446 -0.40499356 -0.078298934 -0.13111894 -0.13179183 -0.019920977 0.22059578 -0.01784363 -0.47399974 0.17357662 0.20337273 0.25706047 -0.20253223 0.051855598 -0.3419625 -0.35192463 -0.039737657 -0.2668828 0.15037373 -0.0938734 -0.3173287 -0.19211932 -0.31767467 -0.24625757 0.13545184 0.03940374 -0.2555539 0.119221725 -0.0592635 0.005181511 0.315398 0.18840118 0.142297 -0.039116047 0.0028763083 -0.34234792 0.6099445 -0.09312547 0.28535628 -0.23886324 -0.09267328 -0.20822755 0.2542602 -0.43237302 -0.17835209 -0.15602887 -0.35886005 0.06985805 -0.16147496 -0.19567104 -0.0635427 0.5923622 -0.3297339 -0.055017114 0.09072101 0.19653754 0.092761956 -0.016358394 0.4643455 0.7253687 0.056396186 0.19022189 0.2101992 -0.62274915 0.072271526 -0.13633579 -0.5188458 0.033205323 0.6117408 0.43265492 -0.1817717 -0.1298825 0.606075 -0.32081777 -0.08349376 -0.08453837 0.018046495 0.38346115 -0.09618245 0.40053272 0.16894348 0.06261599 0.059853364 -0.30881718 0.36797553 -0.09990032 -0.28174272 -0.29825145 -0.19259943 -0.1573254 0.103822015 -0.3377935 0.19679177 0.047112335 -0.112807795 -0.1025677 -0.32945564 0.6526473 -0.36845997 -0.008825912 -0.5052272 0.44224602
32961 -0.005829096 -0.042386755 0.15413396 0.17048469 -0.19856636 -0.39955416 0.21699496 -0.5019668 0.0024284357 0.4221143 0.20998512 0.25845414 -0.073848456 0.42648038 0.06504972 0.3940453 0.2576241 0.3956215 -1.1578078 0.15714632 -0.13928512 0.43882814 0.09463877 0.19023764 -0.3954217 0.9516421 0.088784635 0.56000936 0.038254548 -0.9382763 -0.3406093 0.17668542 0.6206663 0.20522416 -0.3422178 0.198816 0.22487475 -0.20744717 0.1718652 0.1722162 -0.36810976 0.07425149 0.27978536 -0.22987148 -0.5104214 0.27750042 -0.44326678 -0.108977325 -0.2973245 0.0814404 0.45994872 -0.18016918 0.24363911 0.46467203 -0.5601514 0.16562963 0.15963148 -0.018046651 0.0927842 -0.20463671 -0.13884617 -0.037274335 0.4531624 0.057410434 0.46186662 0.0948143 0.49698675 -0.5173339 0.11321763 0.022805866 0.17560641 0.27281654 -0.28110075 0.02235902 0.32131848 -0.011300093 0.07213424 -0.06652806 -0.08381636 0.19114147 -0.08603402 -0.36423165 -0.20110276 -0.40161148 0.5073176 0.039026663 0.23748425 -0.1579926 -0.2688114 0.31706485 0.16996482 -0.19680692 -0.044290904 -0.42444775 0.08891686 0.4904718 -0.18216899 -0.5745188 0.3395219 0.08467313 -0.69369054 -0.3744159 0.84201926 -0.11907073 -0.0025544662 -0.29268974 0.6862676 0.27233496 -0.045026526 0.57663476 -0.24654922 -0.25091648 0.05021788 -0.26346293 -0.34701103 -0.2741782 -0.2453501 0.50160503 0.11013172 -0.01085859 0.47449797 -0.12917899 -0.050878517 0.06991453 -0.16374253 -0.3263565 -0.041415066 0.13263951
36959 0.48967585 -0.10012166 -0.3061021 0.43837407 -0.34050056 0.36305326 -0.18998699 -0.050666373 -0.28292868 -0.036208708 0.1260455 0.16199788 -0.5215102 -0.17349419 0.0240897 0.017015556 -0.11135275 0.1512166 -0.37229785 0.32545468 -0.2583103 0.37164477 0.030001495 -0.3674086 -0.3738665 0.4919488 -0.5916831 -0.12070696 0.04801473 -0.61991423 -0.07485056 0.29017928 0.38105378 -0.0451265 0.03141854 0.15178972 0.17752062 -0.031516243 -0.4652189 0.1094668 -0.29178703 0.6452116 0.019863032 -0.28535843 0.08351887 -0.6244575 -0.114005364 0.10098662 0.4607435 -0.42683554 0.0017064395 -0.51520586 -0.44713897 0.21160853 -0.26205894 0.4169414 -0.033166293 0.13663611 0.011523648 0.06471728 -0.37554443 0.15519938 -0.04441229 0.38870144 0.6260923 -0.15981206 0.42282236 0.14178322 -0.2276792 0.11531644 0.30585763 -0.2810389 -0.7731148 -0.14632936 0.111134954 0.6140487 0.111540005 -0.1024726 -0.0381954 0.07892021 0.32016712 -0.30595723 0.2844129 0.4449999 -0.47602907 0.2852599 0.13161872 -0.032233838 -0.22900379 -0.06102655 0.27128872 -0.3971762 0.092087284 -0.32861724 0.3855875 0.37222847 -0.2927395 -0.5304986 0.15223312 -0.36345974 -0.78615314 -0.6065239 -0.18921335 0.35305917 0.42100593 0.23910616 0.028052725 -0.06992231 0.03226575 -0.180465 -0.16565889 -0.16898061 -0.11250481 0.5108717 -0.52756935 -0.3462556 0.16749053 -0.10192808 0.12376472 0.35888267 0.028971687 -0.079452045 -0.5292075 0.08261828 -0.093414865 0.43998793 -0.65249646 -0.1804127
25469 -0.10324556 -0.05182462 -0.37990424 0.15731215 -0.63107985 0.21516217 0.03446022 0.11437023 -0.15136263 0.80117655 0.58931184 -0.06012897 0.17753859 0.07891362 0.441823 0.024398612 0.47464952 0.48597658 -0.4260478 -0.47881946 -0.42777523 0.29884768 -0.24219084 0.25656137 -0.44557637 -0.11294529 0.18983378 0.46942225 -0.047687545 -0.27587682 -0.5606128 -0.008392035 0.041781303 -0.13009806 0.026500838 0.13862047 0.4094705 -0.18429518 0.45764756 0.39173374 0.010181189 -0.087388806 -0.30675042 -0.05356586 -0.20088804 0.052789904 -0.04600789 -0.12084419 0.2195433 0.19015451 0.477495 -0.3560611 0.20782772 0.022050826 -0.45982978 -0.026112175 0.08768138 0.45879054 -0.06019027 0.61301166 -0.12401303 0.03657016 -0.0022830435 -0.0044341534 0.32438943 -0.43266964 -0.13999274 -0.3231296 0.34980386 -0.30812895 0.106253475 -0.3594281 -0.59333706 -0.27308768 0.30179808 -0.4556304 0.4733232 -0.31213897 -0.07434362 0.5912771 0.28071564 -0.54376024 0.27592742 0.1080971 0.012675064 -0.020328367 0.17758968 -0.46905145 0.49201322 0.114589006 0.029616712 -0.44380972 0.10871799 0.17970516 0.2315173 -0.07267438 -0.4283177 -0.09901623 0.09952247 -0.11627759 -0.237344 -0.36692682 -0.39314207 0.34560913 -0.3312721 0.13870357 0.21941394 -0.0070024007 0.08600963 0.3012172 -0.14957288 -0.5480665 0.09346118 0.044982366 -0.43624914 0.0039132396 0.10582425 -0.06403298 0.006203548 -0.20449214 0.05410767 -0.12404991 -0.35795516 0.3970309 -0.097105004 0.052935958 0.19379526 0.11946173
14131 -0.33736584 -0.16364779 0.07046061 -0.05091137 -0.027170526 0.300216 -0.00551553 -0.07428823 0.046004035 0.5374442 0.2378446 0.124147296 0.039271805 0.5488636 0.0126542635 0.35379526 0.2175446 0.022656213 -0.5490627 -0.46143845 -0.18651722 0.74618727 -0.08604309 0.18522595 -0.6457943 0.22251539 -0.12623738 0.01837331 -0.08050647 -0.48610175 -0.15629265 -0.37419865 0.21498965 -0.23916674 0.12465217 0.36413333 0.25048724 0.07971816 0.24486144 0.28674635 -0.23447186 -0.30821472 -0.4583787 -0.5104552 0.08200352 -0.20816454 -0.2605772 -0.16693144 -0.22363284 -0.05186361 -0.08551487 -0.13558131 -0.024739377 -0.38488126 -0.49347103 0.0007544114 0.2938078 0.42800996 -0.4196098 0.3771139 -0.53797543 -0.42577055 0.43270722 0.1512687 0.6842389 0.3982758 0.21117337 -0.3742329 0.23936938 -0.20639622 0.36593106 0.21328291 -0.6368854 -0.12444464 -0.010126465 -0.29354322 0.012259137 -0.19797015 0.044213735 0.35004324 0.3320302 0.009693682 -0.18173473 -0.021169038 0.25537473 0.24036093 -0.41235352 -0.30423367 -0.3746159 0.0038340043 0.27151722 -0.25125343 0.042501062 -0.22520377 0.36030608 -0.25151265 -0.2844118 0.035807498 0.561457 -0.0112073915 -0.27551562 -0.05712287 -0.50461864 0.4531645 -0.029811673 -0.60948384 0.29744917 -0.0611045 0.5777548 -0.28660905 -0.24134697 -0.15829924 -0.14927268 0.14740722 0.03205941 -0.12706782 -0.05283912 0.29710674 -0.06987349 0.35415646 -0.14954357 -0.49392137 -0.15728977 0.29997835 0.15354887 0.42369485 -0.28572693 0.10239104
15669 0.30166513 0.03522759 -0.20107663 0.032820124 -0.44017088 -0.18345189 -0.013032347 -0.046261527 0.06031599 -0.090299584 0.03436129 0.03593005 0.023818472 0.0009193657 -0.2608469 0.3212245 -0.2848019 0.03928102 -0.49881807 0.36681303 -0.0355881 -0.43566722 0.061235655 -0.22582316 -0.32615677 0.29689217 -0.3633124 -0.18301745 -0.4309742 -0.040311903 -0.22790274 0.37665513 0.70334256 -0.027569426 0.05029637 -0.031140124 0.43600512 0.100086845 -0.005220055 0.15420495 -0.15521105 0.25194365 0.27105895 -0.6149847 0.20238099 0.008461774 -0.22785413 -0.58246857 -0.22669984 0.4078648 0.34103465 0.37706956 0.15277971 -0.03615734 -0.29035786 -0.5010666 0.5458698 0.19154666 -0.09649418 -0.14379756 -0.274392 -0.6614202 0.166377 0.015190162 0.09760924 0.12966873 0.38016513 -0.06447501 0.38731995 -0.1878556 -0.067076094 -0.066215865 -0.5671627 -0.33007172 -0.14543448 0.036980636 0.054083806 -0.017986856 -0.0024197763 -0.36406735 0.010478566 -0.30555552 -0.052012235 0.1723595 0.6770403 0.1157688 0.12104085 -0.21149461 0.13629338 -0.025753602 0.23280758 0.14053777 -0.043629125 -0.19051437 0.14268824 0.124831066 0.050321966 -0.48982888 0.3561493 -0.31445482 -0.534499 0.053204566 0.2734314 0.37554744 0.14140898 -0.023028031 -0.2540677 -0.28057766 0.4618134 0.05973133 -0.12845409 -0.3948614 -0.11468964 -0.20439778 -0.20571603 0.20736489 -0.040890146 -0.5376031 -0.10587377 0.47106028 0.23260725 -0.42811084 0.076095 -0.25572568 -0.35138184 -0.25237343 -0.16984795 0.13621388
5315 -0.41930437 0.31719556 0.05251164 0.6469411 0.13281183 0.07453235 -0.07618027 0.1919722 0.4153234 0.22330353 0.45223573 -0.42059264 -0.21164142 0.06676585 0.01243488 0.1653953 0.43018645 0.55549484 -0.4530092 0.23330037 0.08737126 0.6677113 -0.8170437 0.06355782 -0.39446855 -0.07842743 -0.61274076 0.6121946 -0.042095073 -0.69410604 -0.6444911 -0.21191618 0.2913992 0.039142188 0.26428902 0.12509811 0.7843065 -0.56509197 0.07140043 0.074939154 0.030630205 0.48184496 -0.14780144 -0.51296324 -0.06736824 -0.028144866 -0.5397206 -0.021244163 -0.18912216 0.4724708 0.4478177 -0.38038367 0.07372378 0.13848399 -0.62249213 0.024714613 0.19106832 0.45179665 -0.45296472 0.21565932 -0.010224328 -0.027962264 0.47245738 0.092477866 0.3480071 -0.5647106 0.26634628 0.051875923 -0.6910578 -0.46765685 -0.41032967 -0.007912392 -0.8287104 -0.46051258 0.27181435 -0.5452724 0.38731444 -0.12723629 -0.40302697 0.09700508 0.017867027 -0.59983516 -0.03010839 -0.06406241 0.39609253 0.58669513 0.43181875 -0.111467525 0.4895786 0.75411433 0.055056464 -0.6386689 -0.6029045 -0.03548588 -0.22243959 -0.3399148 -0.23896272 -0.90836173 -0.18579678 0.41348672 0.07872251 -0.3498462 0.023200417 0.03247004 0.061305992 0.023661545 0.25899068 -0.01072735 -0.093168825 0.33287743 -0.0589843 -0.32754195 -0.17459439 -0.3868718 -0.29236788 0.033440176 -0.46550894 0.081472136 0.3613911 -0.6189891 -0.48673192 -0.7717819 -0.10436315 -0.09242551 0.22590053 0.13294633 -0.07602486 0.26128903
15115 -0.5759754 -0.25963077 0.42091474 0.28753677 -0.22468138 0.034703933 -0.23669122 -0.33283162 0.28774828 -0.04370884 -0.099676006 -0.43526584 -0.10737418 0.42828506 0.10322335 0.10012692 0.099542096 -0.11504563 -0.5615729 0.55322266 -0.05622894 0.44163278 -0.059463944 0.2971338 -0.47535363 -0.36594358 0.17970276 0.29763788 -0.14243372 -0.81082636 0.093130045 0.10811339 -0.20254435 -0.061756443 0.53850275 0.31702766 0.18510827 -0.094212696 -0.1275334 -0.15179554 -0.85789216 0.4654486 -0.3254113 -0.23034056 -0.1552254 0.40071318 0.1372775 -0.051117394 0.14727527 0.2797173 0.74480706 -0.8914498 0.42868483 -0.13585915 -0.64888555 -0.0294181 0.0809676 0.24931462 -0.29803857 -0.010693965 0.1728437 -0.70511025 0.7800981 -0.030065924 0.63472307 -0.12641339 0.22973336 -0.44678307 -0.1527229 -0.12452276 -0.23130578 -0.30694637 -0.7744608 -0.078668505 0.29001603 -0.32905757 -0.15903859 -0.42994416 -0.57324696 -0.173849 0.3048812 -0.7229436 0.29214665 0.51065767 0.4922861 0.42347857 0.21124779 -0.821436 0.27264002 0.27208832 0.5106575 -0.1958287 -0.32774034 -0.11015216 0.18134698 0.17350419 -0.9156766 -0.5001972 0.2331665 0.2826338 -0.4451799 -0.16626292 -0.1623483 -0.24289341 -0.26059684 -0.61356974 0.24873829 0.3009868 0.22258428 -0.21098284 -0.30295223 -0.6930306 0.036314562 -0.17820522 0.2154691 -0.46577865 -0.037796877 0.37518167 -0.27251098 0.61211747 0.40981933 -0.38533437 -0.124494545 -0.28718153 0.5411463 -0.061892726 -0.10467909 -0.21258475
19845 -0.059527457 -0.5299245 -0.07234399 -0.24642484 0.08993625 0.49086738 -0.084997274 -0.1842681 -0.29700655 0.7044503 -0.006732541 0.18663618 0.04561481 0.061734144 0.39427853 0.27398306 -0.34800684 0.13631883 -0.6123222 -0.07971334 0.08155849 0.36336377 -0.30736476 -0.46386144 0.16046728 0.18118289 -0.034920454 0.50649637 0.03613669 -0.08926664 -0.14570893 0.2907303 0.24385445 0.34349287 0.28669706 -0.35112077 0.44323188 -0.04591964 0.26759833 0.46578032 -0.07387033 -0.04384477 -0.17190987 -0.736862 0.3988475 -0.07753896 0.03227065 0.25110695 -0.43967438 0.36471105 -0.050563756 -0.053725194 0.21848087 0.29401118 0.31432256 0.038435195 0.73711777 0.5362834 -0.56299925 -0.08307402 -0.045621127 -0.31226242 0.2257314 -0.019007266 0.48828343 -0.28350273 0.24162926 0.34280315 -0.09398748 -0.8248897 0.03558719 -0.5664572 -0.1543521 -0.23367049 0.28013957 -0.1477734 0.092121005 -0.44224063 0.313245 0.22425617 -0.2033877 -0.21693346 -0.46186212 0.69950974 0.1676814 0.78147435 -0.13822319 -0.37477952 -0.23535253 -0.053055655 -0.10212923 0.076838635 0.2690909 -0.2359995 0.18899186 0.5190763 -0.3346596 -0.21925887 0.78369683 -0.35143575 -0.4206432 0.018903427 -0.54077315 -0.19809905 -0.39849678 0.112973124 -0.2951025 -0.12161461 0.0018407003 -0.3469593 0.29223984 -0.23844796 0.004971221 0.2696951 0.27567148 -0.44955713 0.07832025 -0.70563555 -0.089469016 -0.14796244 0.25711215 -0.13485892 -0.15864834 0.2538736 0.09426361 0.44709662 -0.24928525 0.1655844
13632 0.00677742 -0.025170567 0.08101711 0.35492015 0.35339546 0.07086149 0.5526305 -0.6734213 -0.24026635 0.30345544 -0.10436603 0.20792842 -0.6592279 -0.12615697 0.35686958 0.055905305 -0.3776656 -0.13783215 -0.72422975 0.24404886 0.27458322 -0.21260633 -0.36688852 0.1418986 -0.15300263 0.50895774 0.024980864 0.34943387 0.23200639 -0.60083574 -0.3276647 0.039822314 0.2117607 0.13041015 -0.120947994 -0.49242675 -0.1823669 0.022641577 -0.0858218 0.584106 -0.514169 0.068198055 -0.10289441 0.17465352 -0.42134175 -0.27137062 0.0870324 -0.0057547004 -0.11277549 -0.22643295 0.3063371 -0.37389088 -0.32913345 -0.4212157 0.026494402 0.23401192 0.18173675 -0.3380239 -0.08540421 -0.43723843 -0.24664566 -0.235162 0.7645156 0.5141173 0.7587398 -0.26472145 -0.056100354 -0.28130728 0.010824338 0.20052668 -0.0340142 0.41512784 -0.13500349 0.086897515 0.11494125 -0.2551184 -0.048052944 0.06425201 -0.24162707 -0.10098832 -0.16172941 -0.42804757 0.2613386 0.3128869 -0.39032048 0.31743717 0.20101258 -0.41597283 0.1092409 -0.12514456 0.3268175 0.165341 -0.06261574 -0.6859303 0.35135794 0.4990214 -0.44764888 -0.37451366 0.2530832 -0.55074555 -0.24498844 -0.45631543 -0.44153917 0.07699373 -0.1812565 -0.09713348 -0.35087895 -0.23612599 -0.028204579 0.08976739 0.24712142 -0.31103814 0.022166017 0.52048194 0.40600345 -0.42165813 0.07528324 -0.8929254 0.5309395 0.62808317 0.3326806 -0.13015427 0.4546353 0.20011576 -0.11327671 0.31702414 -0.2792181 -0.032059014
28322 -0.579219 -0.20146574 -0.4464918 0.40315762 0.21621351 0.5650803 -0.014159338 -0.21656792 -0.54189706 0.12964433 0.020327402 0.09608164 -0.17178932 0.5401859 0.663602 0.61438113 0.37360564 -0.050710935 -0.74492884 0.48436207 -0.21783853 -0.2952314 -0.1383146 -0.96790254 -0.26191467 0.22476791 -0.25127366 0.0229833 0.25876048 0.2092752 -0.31310645 0.04832512 0.074498154 0.21047904 -0.19444317 -0.13961144 -0.23852082 -0.05484273 -0.3239296 0.3103586 -0.07065261 -0.23112652 0.18831626 -0.27910575 0.7345046 0.4348763 -0.4043902 0.2100164 -0.34247246 0.2859259 0.6367374 -0.27693233 0.15300986 0.2678095 0.5351722 -0.5563135 0.77267414 0.22056308 -0.38363266 0.20337659 -0.40155303 -0.031822696 -0.07262976 -0.6619717 1.0337179 -0.6676225 0.10314095 0.10734574 -0.31243122 0.14195555 0.2202762 -0.5433806 0.4684488 0.15895216 0.6681639 -0.16571063 -0.230847 0.2784799 -0.6497439 0.44443008 -0.54344743 -0.0066311257 -0.102895424 0.8165972 0.3993699 0.72505754 0.32975122 -0.20208614 0.25712582 -0.39512348 -0.15779017 -0.3338254 -0.15519497 0.32064724 0.05761912 0.35761032 0.0041018617 -0.3422869 0.36789352 -0.6717863 -0.80526084 0.19623794 0.062166102 0.28511482 -0.3617992 0.75010115 -0.08502205 -0.23784482 0.17745517 -0.08224723 -0.1190737 -0.52971375 -0.63303286 0.2534066 -0.3205985 -0.0089527555 0.16337635 -0.46519426 0.27198374 0.029509416 0.3741006 -0.122231916 -0.04491201 0.39124736 -0.3764338 -0.017966064 0.05688529 0.4471623
15646 0.17224315 -0.017731318 -0.19433263 0.3223718 -0.2156809 0.040514532 -0.11096641 -0.2809417 0.117941454 0.41843072 0.052219722 -0.35991615 0.2529814 0.20875025 0.46774387 0.6635053 -0.4245997 -0.11810581 -0.9209097 0.33847234 0.1677006 0.102995805 0.07832374 -0.20202427 -0.088420436 0.5533519 -0.08468464 0.45795122 -0.26803106 -0.20479183 -0.5684965 0.21663503 -0.15970726 -0.28451577 0.35165918 -0.07658569 0.034458037 0.15118109 0.05136347 0.20791265 -0.26952565 0.51426685 -0.015830757 0.39135802 -0.08962431 0.1437963 -0.34310144 -0.20799755 0.19204697 -0.23735721 0.6626541 -0.5367694 0.42264864 0.17666835 -0.31129476 0.26531187 0.5387254 0.2342466 -0.14921288 0.0134108495 0.011746056 -0.10671943 0.06461319 -0.561238 0.33708382 0.017101448 0.14861858 -0.3299769 -0.0056457315 -0.18868542 -0.14241277 -0.24685676 -0.12994796 -0.3252347 0.59808344 0.036001313 -0.14022385 -0.0738005 -0.2286596 0.6201299 0.016998513 -0.3034931 -0.09214687 -0.24000348 0.08807733 0.14851277 0.12713748 0.25483167 0.12826614 0.011793398 0.023352852 -0.5076996 0.16758496 0.117542624 0.71646136 0.4610021 -0.100448094 -0.07718583 0.3426138 -0.24019143 -0.57767504 0.23860185 0.18338108 0.24354506 -0.08309359 0.13772054 0.30093226 0.37118882 -0.17864339 0.12585749 0.13014011 -0.24263872 0.036023155 -0.31056783 -0.087160796 -0.060203515 0.25715318 -0.09480313 -0.12225046 -0.2307093 0.0030457226 0.20706095 -0.3163055 0.32197845 0.25555047 -0.03586162 -0.536039 -0.06242558
14352 0.15757912 0.27133366 0.3040337 -0.20092562 -0.18568864 0.095995955 0.079908125 -0.21643491 0.14427872 0.18823652 0.17410518 0.11371619 -0.017063845 0.14887492 -0.14832431 -0.18179604 -0.12150934 -0.048075892 -0.109108984 0.13098127 -0.17433248 0.030224051 0.017080082 -0.17469698 -0.8699064 0.23608781 -0.2928476 -0.21483737 -0.20723313 -0.010990949 -0.24551152 -0.05083272 0.23197569 -0.027508391 0.07982155 0.066751435 -0.009158952 0.22241606 -0.30827913 0.165025 -0.56674933 0.28567755 -0.36083943 -0.009793355 0.00038505314 -0.26464266 -0.059209384 0.11387664 0.3084104 -0.11703104 -0.029612264 -0.21018508 0.0321223 0.41490313 -0.36140686 0.6532108 0.0080052065 0.51189697 -0.19677077 0.5272957 -0.29915807 0.53035474 0.19627364 -0.26733133 0.529172 -0.075601175 0.078426346 -0.47351995 -0.112897575 0.22712405 0.46278936 -0.3304214 -0.47795397 -0.6291615 -0.16750866 -0.06446237 0.4054076 0.26551816 -0.16972356 0.48807064 0.23077402 -0.12368264 0.40217644 0.20685127 0.11518237 0.15843558 -0.049480677 -0.40139008 -0.40195665 0.3726044 0.03417059 -0.520336 0.28024128 -0.0048923944 0.19026229 -0.015432066 -0.4666538 -0.37776703 -0.07734141 -0.3547213 -0.82561004 -0.57090783 0.21675034 0.061539475 0.06343648 0.20591258 -0.4378345 -0.31473103 -0.20247766 -0.06243259 -0.36411124 -0.19532423 -0.20333055 0.14072664 -0.31279734 -0.28575447 -0.0443154 -0.35157707 0.015905261 0.29683298 0.07722246 -0.64586794 -0.25429422 0.317632 0.11912313 0.07389659 -0.06352542 -0.45168316
26034 -0.19225757 -0.020472609 -0.44982904 0.024322925 -0.07431954 0.34897998 0.41176558 -0.39960557 -0.30858105 0.3989792 0.5139449 0.28627467 0.14171979 -0.7180817 -0.15210308 0.31683603 -0.07710438 0.14243096 -0.5100995 -0.102516614 -0.3149436 0.21716826 -0.04735375 -0.3513319 0.038706094 0.18638903 -0.5277457 0.049165796 -0.052969508 -0.5956109 -0.06583028 0.037941296 -0.41252443 -0.21091752 0.28737196 0.21076548 0.26352236 0.24541146 -0.1051057 -0.06557798 -0.06339051 0.58271027 0.06637136 -0.011121944 0.32345858 0.23652026 -0.10526136 -0.3578213 0.19667485 -0.1252646 0.23838016 -0.032681167 -0.24707033 0.75993276 0.099988855 -0.09078429 0.246738 0.054909926 -0.18093267 0.0034353237 -0.1776924 -0.2416658 0.39611053 0.42388567 0.4712763 -0.22353625 -0.21432635 -0.122792654 -0.19053456 -0.5621616 -0.0125186015 -0.16826864 -0.4403588 0.49537465 0.010632982 -0.21695542 0.18437147 -0.21586087 0.089837894 0.6371676 -0.044669375 -0.52254623 0.44123313 0.44895315 0.32564074 0.4775963 0.08365396 -0.33096674 0.20174867 0.22238436 0.20981029 -0.32496354 -0.066027045 0.09677769 0.16911763 -0.38831282 -0.5176773 -0.5244017 0.2622814 -0.40370217 -0.4642529 0.08406835 -0.021093715 -0.09418036 0.36481482 -0.2151809 -0.09056666 -0.12659591 0.06604533 0.28902435 0.50028664 -0.49707595 0.56380105 0.24014406 -0.049291834 -0.51383704 -0.19280283 0.1947097 0.25926214 -0.0017000162 -0.16534519 -0.030785458 -0.12555903 -0.087347396 -0.29216722 0.032187816 -0.002083661 -0.11415314
20095 -0.017891333 0.046366107 -0.23504119 -0.063781016 -0.51677257 0.11429972 -0.3413744 -0.22842976 0.019082233 0.22509912 0.36965063 -0.3900684 -0.13907479 -0.14182147 -0.050253294 0.52403957 -0.30716062 -0.12321385 -0.3052751 0.15339261 -0.3802468 0.10602614 0.24435791 0.244643 0.23031518 -0.026158104 0.24855381 -0.22062925 0.14938952 -0.30672225 -0.42207515 -0.1915051 -0.05732727 -0.19283468 0.35827702 0.34757027 0.29130226 -0.10606625 -0.009049352 -0.13967328 -0.364869 -0.070617415 -0.48563114 -0.5514102 0.41261128 0.06298458 -0.22418869 -0.061310988 0.08970867 0.10716168 0.4084937 -0.61305743 0.26631123 -0.23210216 -0.3457411 -0.09773703 0.10436117 0.33402887 -0.28276104 0.18351917 0.29631326 -0.7423365 0.40758848 0.21723306 0.34719607 -0.3233366 0.23055778 -0.1877032 -0.25085145 -0.12300005 0.12466034 -0.29000482 -0.6477833 0.08575826 0.027151305 -0.42440876 -0.18043727 -0.0032330942 -0.2749803 0.013567502 -0.113914885 -0.8957814 0.29681832 0.73780155 0.47761616 -0.044744723 0.1654222 -0.5556328 0.8648749 -0.10618454 -0.09399692 -0.011104521 -0.25229788 0.08945568 0.16681187 0.22366792 -0.51926315 -0.09225687 0.06632901 -0.07637003 -0.2830392 0.006510647 -0.6024292 0.36665437 -0.03969791 -0.22901697 0.04002374 0.2397801 0.24486129 -0.28244334 -0.033076957 -0.5308457 -0.2839718 0.13774842 0.22966225 -0.16808273 0.2174934 -0.09030252 -0.44956082 0.5821019 0.44435638 -0.50682265 -0.7661274 0.08004872 0.060756657 -0.06402955 -0.6147487 0.049393333
