960 128
27803 -0.12198995 -0.056644198 -0.09395513 0.33549592 -0.22804008 0.060819488 0.24545303 0.19936487 -0.17677681 0.0359412 -0.036594786 -0.13453743 -0.05901405 0.051034458 0.08962062 0.004565569 -0.06459337 -0.13281845 -0.039396156 -0.24836837 0.033014607 0.2597798 0.14949778 -0.0814135 0.23173161 -0.0781882 0.015410117 0.08981644 -0.17453855 -0.4487138 0.03646959 -0.34531677 0.19241594 -0.09194529 -0.18287694 -0.23695274 0.04199433 -0.08075946 0.42302632 -0.061002843 -0.16050072 0.48572698 -0.14917056 0.062266823 -0.19801447 -0.07672566 0.0005516846 0.33327657 0.23455796 0.14872286 -0.03357883 0.107931264 0.18289638 0.4011202 0.46959743 0.105500005 0.361724 -0.12595025 -0.21338534 0.054865807 -0.04088039 -0.109545834 -0.21720484 0.042269845 -0.022238543 0.2003849 0.14951485 0.099385634 0.15728956 0.083548956 0.13321958 0.31392124 0.025227131 -0.117991656 -0.005869418 0.029402336 -0.03056886 0.15683886 0.2732327 0.17287369 0.34185013 -0.0147840865 -0.16445209 0.021583654 -0.08508743 -0.1890261 0.03846004 -0.18294854 0.07604835 0.27185887 0.3131476 -0.13130344 -0.03424641 0.18648733 0.0022202046 -0.16257203 -0.2618364 -0.49801382 0.08224407 0.13084608 -0.11610153 0.1859015 -0.26702857 0.18547268 0.037313797 0.2510992 -0.05558383 0.016114581 0.11998341 -0.36400962 0.109776914 -0.35385966 -0.4205669 -0.04366473 0.10994768 -0.19712077 0.47969052 0.014311843 0.038646992 -0.13696042 -0.042168614 -0.1646314 0.25147983 -0.037293646 -0.114480816 -0.077169076 -0.08248074 -0.03445106
35008 0.117857784 0.21573748 0.31776047 -0.02882271 -0.056808975 -0.16535811 0.6082677 -0.0688951 -0.09800737 0.38835615 0.49205086 0.54131806 0.058608584 -0.40969652 -0.24434254 -0.18389799 -0.5473007 0.19845559 -0.3452875 0.10521497 -0.120720245 0.2281015 0.28600433 -0.42997372 -0.27802598 -0.33092874 0.092572376 0.16889186 -0.10166937 -0.039298944 0.18682726 0.18449135 -0.53964156 0.17947675 -0.40406784 -0.15382396 0.22801729 0.3519209 0.7197874 0.08160413 0.26147553 0.26363352 0.27674878 -0.5774785 0.12575828 0.12168358 0.16776206 0.07095652 0.02612746 -0.3163416 0.21623893 -0.15899636 -0.30407795 0.2894004 0.24300663 0.15940489 0.5222311 -0.038882744 -0.24977574 -0.033887114 -0.11405846 -0.057195704 0.015104083 -0.36410204 0.2568288 -0.30415452 -0.115827784 -0.26184097 0.3784308 -0.41188216 0.005779942 0.02869971 -0.09498805 -0.11655403 -0.5138783 -0.13630235 0.21581566 -0.10494781 -0.1909358 0.63551253 0.056318127 0.44089139 0.08558301 0.13216183 -0.08308716 0.37136355 0.35711074 -0.09936572 0.64975554 0.519323 0.59205866 -0.35840574 -0.12808467 0.063000455 -0.04271277 -0.17677192 -0.2919343 -0.090168715 0.2947686 0.1293659 -0.63950056 0.35559306 -0.18782556 -0.02562321 -0.043520372 0.12872636 -0.028954962 -0.17683898 -0.12625231 0.109440714 0.035028234 0.11726949 -0.29515138 0.054155942 0.009189552 -0.15538438 0.54511493 -0.020448493 -0.17792 -0.15773697 -0.33278012 -0.40751097 0.21910025 0.055792037 -0.20102155 -0.39284432 -0.21164118 -0.18380141
10830 0.14172894 -0.041773997 -0.057119723 0.17032145 0.081540644 -0.13256015 0.34777892 0.073868714 -0.32163188 0.18353866 0.06911375 0.06369474 -0.124559164 -0.28204727 -0.00075867394 -0.10207018 -0.3890897 -0.20002997 -0.32398623 0.12026295 0.43777007 0.14123304 -0.097484596 -0.42550316 0.035645798 -0.19609575 -0.51408154 0.07766033 -0.21358526 -0.1352748 -0.13891602 -0.4275254 -0.0041650156 -0.056419943 0.2983292 -0.011154525 0.17802739 -0.23026352 0.15547067 0.111943305 0.24852729 0.4780372 0.2784959 -0.15439259 0.07072929 0.10045595 -0.12996873 -0.23770486 0.106997065 -0.3496996 0.5109009 0.23159255 -0.011599442 -0.051811438 0.29418415 0.14841323 0.42305037 -0.10938019 0.0840993 0.233817 0.02142784 -0.30518588 0.28644654 -0.016873261 -0.04902781 -0.21060066 0.1602394 -0.1437233 -0.08737032 0.1899987 0.43743163 0.062738314 -0.27446133 -0.015894536 -0.14640504 -0.35143042 -0.26662406 -0.2060707 0.6140969 0.70644075 0.41005686 0.07575302 0.28921834 0.3564736 0.0198955 0.46541393 0.15643649 0.10378518 0.3956735 0.42735836 0.39805424 -0.05368978 0.15781383 -0.39411765 0.5401784 0.11225334 -0.4201155 -0.55016685 -0.36442864 0.18749169 -0.18312043 0.39255774 -0.036680352 -0.28617314 0.23984472 -0.008906653 0.44437853 -0.16246036 0.10030534 -0.010206322 0.012066001 0.5058904 -0.06759221 -0.19872056 -0.23061779 -0.49043283 0.48615584 0.56902885 -0.3231889 -0.6465012 -0.34285235 -0.23520277 -0.042998116 0.23069505 -0.32209587 0.15726677 0.33285996 -0.14204383
27302 -0.08121954 -0.23164128 0.3347821 0.30019796 -0.15093066 -0.336506 0.15120882 0.16024609 -0.29029235 -0.24235433 0.37883088 0.06719354 0.0833672 -0.29422823 0.15296195 0.0068722772 -0.2496458 -0.0071597775 -0.21851502 -0.085883126 0.37339836 0.3862781 -0.051327955 -0.1865311 -0.29927272 -0.075680465 -0.4787461 0.11325991 -0.40236 -0.08784465 0.018454578 -0.17254224 -0.15594889 0.3296249 0.1335912 -0.15390216 0.13591559 -0.3685814 0.4695589 0.15049727 0.0398766 0.38668224 0.22265558 0.06404045 -0.44715598 -0.081604466 0.42742202 -0.0728631 0.07561997 -0.23814192 0.5786513 -0.2453532 0.19523138 0.10864529 0.24973826 0.32569528 0.33612648 -0.45337135 -0.22113135 0.3970052 0.12595057 -0.1428533 0.5403499 0.24050435 0.33016792 -0.2766851 0.29605478 0.38819426 0.7051022 -0.27777252 0.09436211 -0.19861057 -0.36811748 -0.34056005 -0.12884447 -0.36574847 0.020096533 -0.38813937 0.10364917 0.48737746 0.19841719 -0.22077686 0.34398097 0.4176612 -0.15424877 0.3166638 -0.054046802 0.20114012 0.22426464 0.1496892 0.22378463 0.19906634 -0.12977664 0.36222228 0.26876697 -0.17977114 -0.56314325 -0.2575267 0.2589841 -0.35586274 -0.6314256 -0.10031137 0.010990837 0.15700997 -0.6803587 0.0785632 0.48061183 -0.08521707 -0.20522648 -0.2178323 0.3084547 -0.010258283 -0.0855609 0.28941303 -0.06989661 -0.38309717 -0.05944245 -0.15656425 -0.10015408 -0.3363117 -0.72431123 -0.06442588 0.4412091 -0.09419709 -0.14420944 -0.03010532 -0.021010658 -0.13829544
33643 -0.3529161 -0.3613899 -0.27948618 0.14271395 0.14531352 -0.16668673 0.26835293 0.033163834 -0.05437646 0.257686 0.092886314 0.14137119 0.052462507 -0.28834543 0.1761063 -0.44346738 -0.2812376 -0.051888034 -0.31194255 -0.10443169 -0.33724508 0.015050148 0.23063263 -0.087225474 0.13721932 -0.019185968 -0.35198742 -0.26492 -0.13952558 -0.6118808 -0.3880489 -0.049067613 -0.1742413 -0.21232584 -0.10507838 0.2839628 0.026285915 -0.07024593 0.39007643 -0.048095565 0.13327329 0.6442152 0.06842381 -0.1398294 0.1415224 0.064166546 -0.071629606 -0.18184453 0.10329454 -0.2114154 0.45312288 0.11209283 0.366824 0.055110894 0.41472858 -0.005101634 0.30772507 0.017530944 0.18830016 0.27004355 -0.09263077 0.0137338145 0.18402854 0.24506484 -0.40446377 0.06657526 -0.07969884 0.035110563 0.20043267 -0.6315185 0.05931501 -0.11449736 -0.44830856 -0.33170173 -0.2504261 0.43216437 -0.09353656 -0.04754817 0.16360343 0.7693856 0.120725356 -0.07196541 0.5772093 0.12888826 -0.2706358 0.088761255 0.29456607 0.056771077 0.4149429 0.0961946 0.26990235 -0.32720506 -0.12299065 -0.026978293 0.096276164 0.25538033 -0.2977038 0.2051747 0.2908507 0.0054429043 -0.34690818 0.11311633 -0.53040993 -0.09442705 0.27436653 0.0722481 0.12829532 0.25371072 0.43827283 -0.0660242 0.026264153 0.20955917 0.20510128 -0.0106033385 -0.23277073 -0.7999564 0.8028011 0.2643472 -0.019800011 0.15198298 -0.17610587 0.021624945 -0.06269919 0.30932122 0.034418847 -0.13720399 0.071688816 -0.08232657
37289 0.35501048 -0.40266326 -0.026790803 0.30791458 0.009783825 0.20910443 0.11308331 -0.12751564 -0.69588774 0.30561566 0.26748115 -0.23356771 -0.26314974 0.10538959 0.07579817 -0.40342137 -0.3764045 -0.44458693 0.0364296 -0.17051671 0.10584441 -0.00060692336 0.39738262 -0.30130935 -0.31064007 0.12702715 -0.18820468 0.23032658 -0.612932 -0.23108758 0.06369904 -0.25954914 0.15927224 0.20931765 0.2531259 -0.5811393 0.05122112 -0.018297398 0.08161143 0.26075578 -0.22923262 0.35568178 -0.2544312 -0.4849345 0.06980959 -0.45364094 0.49849442 -0.004663187 0.08819315 0.07919029 0.4788746 0.12359228 -0.22046158 -0.4818508 0.57510495 0.33441487 0.517076 0.049001515 -0.3424813 0.2249716 0.00012402187 0.24150023 0.21421194 0.1961537 0.07173682 0.0392747 0.39374468 0.077794254 0.2991645 -0.7651003 0.101675995 -0.0039738654 -0.10019096 -0.5675462 -0.16251278 -0.09867249 -0.13915725 -0.040111285 -0.1945813 0.47227705 0.1638411 0.41231307 0.14133964 0.015314134 0.12651296 0.07563197 0.35088658 0.017192475 0.091909334 0.54180294 0.08684481 -0.16958034 0.18746313 0.23584208 -0.036621835 0.43552577 -0.40480348 -0.32163933 -0.10249085 -0.2032106 -0.15576254 0.15747035 -0.3681246 0.064650744 0.33904696 0.20686303 -0.104658626 0.22810099 0.50202835 -0.007504341 -0.54793715 0.2221865 0.06386583 -0.29303506 -0.3735821 0.28026223 0.4968085 0.06721717 0.27165902 0.31597987 -0.16468799 -0.14226094 -0.23848934 0.18307191 0.040186983 0.07093428 -0.26910302 0.25800335
34606 0.16832863 -0.42730233 0.09513047 -0.12779574 0.22423041 -0.097299084 0.050573375 0.5829427 0.103651434 -0.2027175 -0.14617485 -0.36845857 -0.590097 -0.19544601 -0.0008617169 0.17559147 -0.07137812 -0.20656456 0.069298714 0.07810318 0.40298033 -0.003100219 0.046225455 -0.7292502 -0.37795597 -0.116594665 0.20752658 -0.038925353 -0.38330877 -0.38285524 0.18686971 -0.28903958 -0.39615834 0.3876745 -0.51013345 0.18926919 0.18851352 -0.09569762 0.44993606 -0.13319129 -0.12904768 0.13900149 0.24214707 -0.35278344 0.1305011 -0.42984486 0.12766656 -0.09114651 0.004704703 0.093778364 0.17111863 -0.34439108 0.020471742 0.007910347 0.004620343 -0.1997091 0.16463484 -0.10238907 -0.28765994 -0.28278723 0.05197995 0.23187646 0.25416553 -0.08842869 0.6103515 0.2808208 0.03680881 0.09519237 -0.030452115 -0.17640997 -0.06386634 0.040001098 -0.0835278 -0.18269742 0.05563961 -0.12753539 -0.36970255 0.04859856 0.56903535 0.59115607 -0.009528512 0.21130651 -0.25225276 0.5351546 0.013709502 0.13418652 0.4830592 -0.19126162 0.6218985 0.1619523 0.16186532 -0.2988265 -0.3335906 -0.47889096 0.45893484 -0.13459122 -0.32069603 -0.37335044 -0.004034214 0.1838051 -0.60334146 -0.013941554 -0.3636642 0.001407631 -0.021378582 0.43494326 -0.13143818 -0.18680002 -0.024999334 -0.34093913 -0.6353231 0.04979494 -0.017211126 0.1760481 0.047805253 -0.25846004 0.721073 0.0969547 -0.22845359 -0.25099263 -0.3448674 0.149461 0.25076976 -0.18121135 -0.104084164 0.26955566 0.72136706 0.09479235
6301 -0.039711118 0.111067876 0.0987424 0.20741208 -0.058947753 -0.14823544 0.049197756 0.22307402 -0.0765022 -0.2420556 0.06021089 0.26619148 -0.14151807 -0.047136333 0.53456396 -0.06665085 -0.24679637 -0.022846464 -0.38555792 0.17958373 -0.07324974 0.03288731 0.38169858 -0.41283208 -0.07381909 0.20123793 -0.11349958 0.49969056 0.11994823 -0.45972466 -0.15076387 0.07052721 -0.19251888 -0.08260028 -0.0542224 -0.48590943 0.36182418 0.3404164 0.34660706 0.3095089 -0.445998 0.27907223 0.2637264 -0.042051908 -0.15599944 0.24101196 -0.14399825 0.39460233 0.22169858 0.53146964 0.065168835 0.24929886 0.10405832 0.12477415 -0.21018296 0.92513883 0.27163732 0.23333299 -0.32419544 -0.15022208 -0.22293925 -0.077327535 0.10955884 -0.43475783 -0.043109387 0.0811905 0.35872215 -0.12672287 -0.24451225 -0.57598567 0.21531706 -0.15039515 -0.14287128 -0.42688733 -0.05153989 0.2477842 -0.57430387 -0.11020326 0.011114269 0.2045521 0.21138343 -0.07438493 0.25156888 0.3189247 -0.36909437 0.20393012 0.0013941624 0.06635673 0.41005328 0.33620182 0.048243828 -0.18264537 0.31988084 0.32258338 0.105536185 0.11676444 -0.17726818 -0.13910964 0.449451 -0.49583882 -0.74197114 0.2948174 -0.39154598 -0.066685215 0.22611226 -0.04255011 0.34696555 0.06406512 -0.119283415 -0.2042076 0.13028386 0.14212427 -0.2570011 -0.17540546 -0.09664905 -0.46571726 0.16777737 0.05160094 0.1434608 -0.12382992 -0.14351997 -0.14889425 0.14589243 0.07795223 -0.18533194 0.05945459 -0.16875638 -0.39881918
25630 0.035051927 -0.14869583 0.11083243 -0.054556288 0.32567587 -0.2139105 -0.06666816 0.23936503 0.17560527 -0.05753992 -0.07711101 0.23765604 -0.07837078 -0.14860725 0.5323822 -0.046025164 -0.13560116 0.0916472 -0.40024403 0.38011697 -0.1470331 -0.23417746 0.14165336 -0.41041344 -0.48283944 -0.08876187 -0.12267432 0.0588419 -0.093870044 -0.31749386 0.07061355 -0.3247127 -0.3990305 -0.037149258 -0.13369788 0.17411323 -0.11053513 0.04611231 0.13540298 -0.15462932 -0.30985504 0.34050515 0.09179521 -0.1236852 -0.023992596 0.01643223 0.08105319 0.0838953 -0.04979782 0.34486917 0.24116486 0.017180528 0.3501668 -0.18704784 -0.19110595 0.7570898 0.1964151 0.23788664 0.03792676 0.037616547 -0.43560407 0.2767905 0.21556453 -0.18921374 0.12005656 -0.22271444 0.2728876 -0.21295878 0.103648156 -0.44363174 0.20886746 0.25668478 -0.23608097 -0.74042296 0.10816451 -0.073278986 -0.5735344 0.15194604 0.24453531 0.25343493 0.102775425 0.2923207 0.3719855 0.67820174 -0.21476968 0.1482433 0.17192164 0.03760381 0.26977354 0.011098679 0.28263476 -0.31200755 -0.06741014 0.23707123 -0.0022512292 0.21413955 -0.2573375 -0.030708708 0.323019 -0.8404346 -0.9050521 0.10154788 -0.4531509 0.053891607 0.27638257 0.32431757 0.529054 0.1760561 0.2580622 -0.17768285 -0.0016703734 0.27129984 -0.10279498 0.08103744 -0.29443815 -0.99909455 0.23108847 0.06159727 0.032175474 -0.08542097 -0.10555619 -0.11589296 0.16002622 -0.095989905 -0.21089177 0.2946287 -0.17901956 -0.09242488
4333 0.07711191 0.2320668 -0.42504653 0.19017914 0.25584632 0.223411 0.0043915687 0.089601144 -0.041998114 -0.28919074 0.27141818 0.05339655 -0.17263085 0.13694936 0.54869527 0.36338 -0.44900903 0.003908708 -0.4752689 0.35670444 0.023549102 0.07523767 0.36731446 -0.0907176 -0.30587488 0.2574868 -0.09147518 -0.015705168 -0.04543311 -0.1041197 -0.17289393 -0.27771723 0.14690444 0.12249723 -0.17985699 -0.5300052 0.3567382 0.44638067 0.5585258 0.33605322 -0.59396523 0.61682045 0.41667914 -0.013675123 -0.46841165 -0.11879784 -0.25796217 0.16159296 0.10316352 -0.013703974 0.19974212 0.20521064 0.13284704 0.4160981 -0.26612198 1.0395324 0.38846347 0.34903848 -0.6595356 -0.38540107 -0.17437047 0.18187597 0.09705113 -0.4096882 0.22433545 0.46862474 0.3575058 -0.22088467 -0.19382171 -0.4450335 0.00055511063 -0.16808929 -0.28489447 -0.17063786 -0.45773295 0.46623528 -0.34751335 0.05135367 -0.24847378 0.6315538 0.3581443 0.14814897 0.02781695 -0.04587212 -0.21363354 -0.09851902 0.111201435 -0.07017094 0.105938084 0.4774033 0.018550806 -0.38722315 0.1710178 0.21224165 0.56154233 -0.058896072 -0.55865365 -0.07933889 0.28544328 -0.4667216 -0.2929683 -0.14710326 -0.343346 -0.274463 -0.24284431 0.13743314 0.34905824 0.4830127 -0.5919508 -0.5076963 0.18600789 0.3334338 -0.26560688 -0.08131921 0.065544 -0.16988438 0.036000725 0.08735081 0.2844782 0.12743595 -0.22488032 -0.601216 0.134381 0.17466144 0.12862445 -0.19857292 -0.09268742 -0.12340844
31170 0.036873806 -0.07897692 0.2182302 0.1542401 0.3288628 -0.37610847 0.52144295 -0.2299559 0.20836101 0.14694755 -0.054871 0.27439615 0.25417995 -0.44188 0.44307125 -0.1432801 -0.19538665 0.112347044 -0.10927499 0.17515293 -0.1890116 0.5995178 -0.117699996 -0.21295899 -0.3220054 -0.11843624 -0.24620646 -0.2787737 0.10710182 -0.17640753 -0.050223425 -0.08510744 -0.26368144 0.057577755 0.12340973 0.344103 -0.13404544 0.18844502 0.2653716 -0.25786498 0.16062813 0.6962224 0.35327402 0.0337717 0.37276453 0.19149458 0.15030533 -0.19501142 -0.0993986 -0.24919592 0.47179097 -0.0075381156 0.13657515 0.15721463 0.13525124 0.24165304 0.084372245 0.2531312 0.13922846 0.08046927 -0.2943262 0.037389956 0.2530617 0.044343438 0.30239764 -0.44629735 0.03378125 -0.01101378 0.602871 -0.2636294 0.2040844 0.31143862 -0.3996597 -0.18211332 -0.22743079 -0.11914557 -0.17135781 -0.34599623 -0.20575157 0.40368485 0.350039 0.12038217 0.26345628 0.58680433 -0.113658026 -0.052794393 0.4359562 0.010535351 0.08694277 0.05810362 0.20645918 -0.4087278 -0.040495533 0.08609782 0.30811137 0.06880718 -0.4720202 -0.010688896 0.33307144 -0.37410837 -0.6323082 0.00018562346 0.20830083 0.24744219 -0.22389543 0.30275387 0.6374174 0.052642327 0.05907069 -0.26314306 0.24625814 0.023407586 -0.08768027 0.22320184 -0.22849575 -0.83838004 0.64623946 -0.15989107 -0.359217 -0.014690917 -0.14723547 -0.14599605 0.08203393 -0.13997029 0.14041556 -0.19943573 -0.056579933 0.34351432
17675 0.44775227 -0.34431016 -0.0005491341 0.08164875 -0.11280323 -0.1760581 0.18251662 0.34019566 -0.37521648 0.2826142 0.21106285 -0.0796975 0.022331726 -0.08909295 0.05905515 0.119524404 -0.6405953 -0.20055553 -0.24857336 0.20667836 0.29847595 -0.030301193 -0.18924177 -0.17034785 -0.02689206 -0.28297356 -0.41162935 -0.1425388 0.042473953 0.0941402 0.086014345 0.05450148 0.17849481 -0.0006392719 0.1921487 -0.0820499 0.40698767 -0.113481976 0.2736287 0.35004473 -0.0025692014 0.5736676 0.12424255 0.16342378 -0.112354316 0.008468137 -0.3838619 -0.23170528 0.5716378 -0.14525305 0.038175743 0.39155543 0.03891424 -0.12483127 0.41890836 0.45458803 0.545258 0.005352793 -0.2490584 0.11639435 0.13910948 -0.21300182 -0.1524598 0.09574375 0.63618916 -0.20340748 0.008716771 0.1766429 0.45671412 0.07914298 0.074354105 0.026765388 -0.2654546 -0.21045758 -0.04700923 -0.44389623 -0.057434335 -0.27820742 0.32783353 0.5633955 0.27498132 -0.16705334 0.24209379 0.54240835 0.1292215 0.49153128 0.15008923 0.13240561 0.27143094 0.20264187 0.09001327 0.30837572 -0.24475512 -0.057836495 0.16848953 0.2940992 -0.7359165 -0.7199144 -0.21660437 0.034427885 -0.6161107 0.31069714 0.0615112 -0.11139865 -0.32799655 0.3790584 0.29493484 -0.2966542 0.049167432 -0.14625911 -0.026932549 0.29568094 -0.2718985 -0.017189344 -0.038430918 -0.3872348 0.24784456 0.21015535 -0.14880303 -0.15518293 -0.3691385 -0.25311905 0.18860227 0.0068537346 -0.40087909 0.12687978 0.060652293 0.037673783
21376 0.1673272 -0.42738026 -0.060195018 0.27040118 0.45732713 -0.2344502 0.18165024 0.35161754 0.25262767 -0.06992902 -0.10183307 -0.10256577 0.10043936 -0.37889412 0.35792863 -0.27986458 -0.07745956 -0.30024576 -0.49209785 0.21463643 0.20956536 -0.17835854 0.1017976 -0.4511726 -0.36114523 -0.023105023 -0.14188617 -0.18722199 0.106899224 -0.65899277 -0.3131098 -0.16983448 -0.18765111 0.0072264215 -0.34513715 0.17262757 -0.29469514 -0.070811994 0.110113576 -0.052428305 -0.2356989 0.39867646 0.049628194 0.051975876 0.0005581611 -0.022576958 0.039009087 0.2888807 -0.24121068 0.18609644 -0.19584347 -0.03701209 0.5673488 0.37531352 -0.021354262 0.22767705 0.36988655 -0.13766654 -0.1522978 0.18016884 0.10664724 0.11335566 0.06172155 -0.037388083 -0.17738177 -0.46768373 -0.31317335 0.14556563 0.012994893 -0.4265095 0.23570476 0.06177533 -0.46455213 -0.5248442 0.122997195 0.15532757 -0.55541044 0.109109074 0.12056809 0.43737116 -0.11016546 0.029624306 0.606459 0.3790236 -0.0712423 0.14412603 0.09344632 0.03106685 0.4143848 0.02353265 0.15785038 -0.28931412 -0.2748144 -0.052699663 0.26420853 -0.021343436 0.0023643463 -0.24964379 0.45951793 -0.32368132 -0.45679155 -0.10568068 -0.52347165 -0.46308747 0.02885643 -0.09860551 0.1278137 0.20951 0.56182307 -0.07512186 -0.039175976 0.07476119 0.20677438 -0.08327241 -0.32838032 -0.5025679 0.41977453 0.0668927 0.029759731 -0.046807773 -0.37068927 -0.20595238 0.19149801 0.16698258 -0.18371572 0.19818987 0.08873046 -0.05980083
33069 -0.08388472 0.01412631 -0.39661166 0.23791777 0.26174477 0.12297146 0.3404356 0.14424866 -0.10305936 -0.11461974 0.5818075 -0.040040668 -0.046059616 -0.4558414 0.4532031 -0.23914905 -0.11778429 -0.18249792 -0.26075184 -0.39870492 -0.37255538 0.59969604 -0.059767935 -0.24922976 -0.3876502 -0.3305599 0.43580788 0.53627765 0.034568556 -0.064113274 0.17048328 0.06952639 -0.11022232 -0.23589805 -0.4301207 0.33359194 0.2567993 0.3549832 0.2219724 0.25070995 0.24150418 0.45356146 -0.06705001 -0.09645962 -0.16720773 0.019104822 -0.2163894 -0.004621961 0.601889 0.032614257 0.2774352 0.24936698 -0.04611762 0.25968555 0.16994393 -0.34250474 0.14040703 -0.04821371 -0.36395574 0.14243716 0.17738977 -0.06677639 0.15528275 -0.36628002 0.3156349 0.21775077 -0.20796256 -0.21478826 -0.11135378 -0.46049517 0.58405054 -0.22436607 -0.38983026 -0.3730855 -0.016931703 0.014616775 0.051766884 0.026873529 0.19472425 0.50770515 0.14595541 -0.030717105 0.059605565 0.23904413 -0.08224282 0.0744351 -0.16383204 -0.26859346 0.2949045 0.5425491 0.60994524 -0.3046069 0.4143113 0.04389711 0.4577922 0.21028373 -0.55061066 -0.29965714 -0.24598597 -0.2984035 0.21122876 0.011067806 -0.01402741 -0.01687193 0.17891605 -0.19288713 0.04167006 -0.025998686 0.22836983 0.045965172 0.035650626 0.28814313 0.21820404 0.24361387 0.10193301 0.009363685 0.34818769 0.08839835 -0.20180765 0.24215896 -0.14561328 -0.30656058 0.26158205 -0.01662122 0.09294106 -0.062118094 0.2809869 -0.087379314
31367 0.27370086 -0.070723765 0.21680005 0.39136383 -0.025080385 -0.045880537 0.28884283 -0.38517463 0.34570345 -0.38959107 -0.33239913 0.14869864 0.12685692 -0.3395286 0.23501606 0.097166695 -0.3305408 -0.4166822 -0.22840126 0.09091191 -0.117999725 0.25040266 0.028577602 -0.6258653 -0.11366251 0.10325147 0.39223224 -0.09059741 0.028489085 -0.32705107 -0.027757835 -0.42056057 0.19718096 -0.15621197 -0.17466393 0.2943146 0.041246418 0.07282703 0.09082276 -0.24810214 0.03212707 0.6240176 0.11984209 -0.24773449 -0.02499654 -0.11356572 0.17497604 -0.22522177 -0.005460618 -0.30896017 0.31949243 0.23327786 0.2303436 0.13014482 -0.09871446 0.31808552 0.61876816 -0.13386816 -0.2069394 -0.24238332 -0.056095865 0.002294464 0.35208496 -0.15179133 -0.26047993 0.09681951 0.64904225 0.05505493 0.34603074 -0.078955576 0.71615046 0.4248996 -0.13476297 -0.014173392 0.18923329 0.16924772 -0.3213215 0.081466824 0.31332204 0.38915738 0.21738729 -0.08717458 0.3361267 0.33004683 -0.24545638 0.10869227 0.16856979 -0.029818013 0.030324042 -0.08648883 -0.04735151 0.13181171 0.44456515 0.18121432 0.17849599 0.12708867 -0.2611828 -0.4644819 0.16713524 -0.09187819 -0.12473652 0.3394669 -0.2590632 0.18208458 0.21148339 0.007087427 0.63393426 0.017642615 0.55293494 -0.072257146 0.33085346 -0.08529728 -0.21005143 0.25690773 -0.065244265 -0.4330528 0.64794654 -0.31381252 -0.22840326 0.052030474 -0.08676305 0.07374962 0.26138958 -0.08145574 0.3401625 -0.17285213 0.08576139 0.0010658561
22715 -0.08992224 -0.021794535 0.021929476 0.08317343 -0.17292607 0.33365604 0.254108 -0.10014096 -0.4710591 0.63360614 0.46214807 -0.5180658 0.14408198 -0.21744654 -0.2360731 0.69867307 -0.91242796 -0.17262006 0.16894117 -0.5845399 0.08585292 0.34782806 0.05906835 -0.23233297 -0.09378513 -0.13184115 0.37451583 -0.031499587 0.19525522 -0.356422 -0.16221876 -0.42162347 -0.47480962 -0.60353696 -0.0143792685 0.01768215 0.23154986 0.15202306 0.25955376 -0.15687408 -0.4821424 0.14923239 0.035299506 -0.20424932 0.12215894 -0.019023212 0.13850984 -0.19089293 -0.2905772 -0.37644133 -0.1964114 0.33853185 -0.008618092 -0.08449589 0.30888247 0.08944517 0.6588719 0.28475457 -0.39638036 0.038917366 -0.26442385 0.33365646 0.24608448 0.068331346 0.56807965 0.09985047 0.18155658 -0.24948573 0.1465961 -0.649932 0.17070645 0.0042705964 -0.68319803 -0.23296611 -0.027045572 -0.18887837 -0.42697176 0.21547116 0.19100983 0.57597995 0.24440461 0.29759803 -0.23295029 0.30549037 0.32308075 0.21827655 -0.25361055 -0.15650898 0.5336438 0.23166706 0.13992375 0.22919671 0.23951179 -0.16042393 0.04355978 -0.03343122 -0.70126635 -0.12328355 -0.40928188 -0.06990026 -0.37818238 -0.03147935 -0.2553775 0.3499359 0.054177407 -0.0029692617 0.42035848 0.3638063 -0.088378176 -0.3391293 -0.34175664 -0.20352757 -0.20591237 -0.056546763 0.12498078 0.058140855 0.52647257 0.22709483 0.117938 0.37355083 0.091500774 -0.16999815 -0.3875973 0.305196 -0.4004648 -0.7496672 -0.044634614 -0.58862346
28961 0.42487574 -0.027641095 -0.04952177 0.33556426 0.2116848 -0.26760596 0.39044535 0.07037921 -0.3030697 0.23449352 0.07082068 -0.14966273 0.366555 -0.05255108 0.3055022 0.03564337 -0.6499886 -0.10025372 -0.23297301 0.30491745 0.01074256 0.17321767 0.07495043 -0.38999486 -0.2698222 -0.26698592 -0.4216808 0.013738443 0.11895071 -0.12125828 -0.036541283 -0.122980185 0.20437671 -0.118788496 0.24231604 -0.089918025 0.1636088 -0.007116043 -0.040403407 0.12673043 -0.029117517 0.5397209 0.32232007 0.05991503 0.4001957 0.39643726 -0.14889263 -0.35966483 0.23513035 -0.11879639 0.035827097 0.29612508 0.015430571 -0.08471307 0.55695647 0.3241106 0.38319933 0.08596746 0.20731752 0.32437697 -0.3633016 0.06812573 0.06481829 0.03410308 0.31148225 -0.27003655 0.05466679 -0.090023585 0.2946692 0.11174907 0.20839927 0.092959665 -0.42382282 -0.21286276 0.087110184 -0.07753592 -0.019213712 -0.46016788 0.08405065 0.6165573 0.67257077 0.0017424397 0.23797879 0.5060109 0.22331782 0.09922414 0.4864529 0.21161939 0.084043875 0.10441911 -0.08710393 -0.3743201 -0.050963596 -0.45152232 0.4600844 0.24227059 -0.653053 -0.5720094 -0.2014843 -0.02272613 -0.28254798 0.25759497 0.48772022 0.06027005 -0.31960076 0.34659585 0.5366068 0.030453615 -0.15287142 -0.0016018086 -0.06655784 0.16454183 0.09377224 0.040852487 -0.032559 -0.3424008 0.47898775 0.28347 -0.1809254 -0.3750069 -0.3498096 0.012015227 0.11671393 -0.056074366 -0.088280775 -0.07166823 0.195142 -0.11659432
25576 -0.058868293 0.39426568 0.0361777 0.5899983 -0.30029094 -0.2993431 0.3262568 0.32386258 -0.21451727 -0.12088037 -0.08955372 -0.110475115 -0.40258136 -0.12772699 0.53062737 -0.32572123 -0.35070762 -0.13789377 -0.4631646 -0.14363468 0.057856377 0.23754388 0.21908589 -0.22092602 -0.21317643 0.32213286 0.19579922 0.655127 -0.14309438 -0.70152485 -0.031308442 0.021547578 -0.5149408 -0.07706205 -0.2949367 -0.26172024 0.2903444 0.56326383 0.43532372 0.29816294 -0.63532686 0.5257466 0.18374014 0.017073285 -0.14835447 -0.042115357 0.017940475 0.19288713 0.29709655 0.445704 -0.432355 0.4405572 0.1318354 0.019080851 -0.26476657 0.5682959 0.03721342 0.10837209 -0.31132546 0.01825906 0.29848313 -0.06741744 -0.06625112 0.098371804 0.21617365 -0.1407459 -0.08477783 -0.32223278 -0.11638276 -0.6224004 0.34947598 -0.054553796 -0.17090559 -0.49107507 0.2756138 -0.10976741 -0.4574865 0.017907366 0.24908677 0.35888594 -0.016111737 -0.28317046 0.18122315 0.22553861 -0.45971173 0.236275 -0.06182542 0.13909875 0.23326725 0.35258597 -0.09554792 -0.08804372 0.18018644 0.6459908 -0.119345374 0.3324444 -0.08239191 -0.31895512 -0.08707114 -0.18389633 -0.6257774 0.31707028 -0.27678463 0.083498776 -0.037688136 0.1315956 0.35522777 -0.1425478 -0.24684842 -0.3392279 0.23665792 0.006840844 0.13058405 -0.28678697 0.18082619 -0.35474733 0.30178103 -0.17642213 0.16863802 -0.39218 -0.022357682 -0.3035107 -0.14075707 0.34334654 -0.2154962 -0.1424749 0.1846876 -0.24225473
26604 -0.06524693 0.026759932 -0.43876588 0.38378125 0.37128514 0.04642198 0.37832022 0.24754876 -0.39351135 -0.16477779 0.7702648 -0.1262836 0.26235598 -0.62547594 0.5141496 -0.26995602 -0.14925936 -0.054775674 -0.40463245 -0.18054636 -0.36939958 0.64516026 -0.041159283 -0.52435666 -0.41132966 -0.5532349 0.48251808 0.3912665 -0.1378793 -0.20667414 0.22588915 -0.13974348 0.048902918 -0.11253742 -0.6902717 0.19507898 0.35907418 0.4882242 0.2646032 0.12756617 0.17733604 0.298132 0.05146737 -0.040418502 -0.41355073 -0.0019181044 -0.06461002 0.058211274 0.60895234 0.19729535 0.53382033 0.4507866 0.08918724 0.40975735 0.34118718 -0.0051641744 0.5732785 -0.38438445 -0.42857665 0.014565742 0.401966 -0.018676732 0.0049229735 -0.5454216 0.24017742 0.40100443 0.013956385 0.06586242 -0.22490014 -0.6935281 0.44239408 -0.09240743 -0.13329133 -0.039074298 0.03884559 0.010812891 -0.10288023 -0.06506755 -0.09202485 0.37726188 -0.007262035 -0.20804945 0.039388448 0.41117844 -0.35936177 0.33848378 -0.08959647 -0.2513976 0.37954426 0.34359184 0.34926623 -0.0069274246 0.40305194 0.16020529 0.37726852 0.54442185 -0.73934686 -0.5227748 -0.17362614 -0.38835856 -0.13011982 0.023021644 -0.05783159 0.07557883 -0.094741344 -0.18264529 -0.023407126 0.031714175 0.00021745941 0.032944247 0.18568651 0.37076122 0.13859113 0.5015622 0.017665908 0.16003552 0.39697826 0.32520843 0.11608304 0.4618056 -0.28328672 -0.30761293 0.5918043 -0.006253226 0.028471366 -0.32143202 0.19790071 -0.034210604
26130 0.25010598 -0.3487721 0.34547973 -0.07172554 0.2468522 -0.27938163 0.6307776 0.2639366 -0.2981291 0.08615836 0.28646827 0.35207704 -0.15241641 -0.09893376 0.4411453 0.07909362 -0.039929412 -0.31198126 -0.3335848 0.0042491513 0.09353169 0.18761405 0.090361804 -0.17394586 0.05619771 -0.07271377 -0.018722799 0.38527787 0.10886952 -0.092592515 0.07383688 -0.058828253 -0.111832805 0.39548615 -0.47987038 0.069266096 -0.0015562987 0.20584376 0.29678166 -0.4464771 0.09104721 0.14903218 0.058869854 -0.18763931 0.3331592 -0.13869087 0.1285023 0.008110926 0.19475907 0.036364354 -0.10121023 0.120199405 0.16715956 0.53840286 0.254676 0.026483592 0.7352778 0.17189689 -0.1945682 -0.09014357 -0.22814469 0.24602637 -0.21269986 -0.257267 0.23987065 -0.4746694 -0.07595737 -0.36800373 0.3091952 0.08234214 0.20054908 0.023946349 -0.24151696 -0.1933838 -0.3544145 0.060147688 -0.102912575 -0.24914137 -0.2762916 0.70023686 0.25915834 0.2317093 0.25440747 0.52382183 0.052117806 0.18610398 -0.04689126 -0.6184165 0.23310007 0.6010964 -0.097562104 -0.18748423 -0.18309912 0.31578332 0.0060866857 -0.19845334 -0.17934288 -0.011742019 0.27011707 -0.12460578 -0.34493276 -0.46633178 -0.23754439 0.030988054 0.1854504 0.30518982 0.17506117 0.1276287 0.11387872 -0.062237646 -0.28695038 0.19014403 0.019053899 0.1491197 0.12025865 -0.44523826 0.20531826 -0.25511682 -0.006104643 -0.0400772 -0.16285574 -0.03894863 -0.012003387 -0.095165245 -0.5279112 -0.58441323 0.06825641 -0.23784283
14648 0.07313122 -0.30635008 0.21873264 0.4715313 0.08064683 0.23218465 0.44173238 -0.16798986 -0.051841795 -0.6157505 -0.47554958 -0.054393325 -0.3909746 -0.4655086 0.2919867 0.3142376 -0.72863114 0.22062702 -0.0012727134 0.2301548 0.25910845 0.6843182 -0.35449648 -0.30511206 -0.44313017 -0.26513028 -0.10440389 0.46687245 -0.14547546 -0.50118816 -0.39398053 -0.14017792 0.07969973 0.11577553 -0.17629448 -0.15474284 -0.18997277 0.17958431 0.6564945 0.4397883 0.08942866 0.31681982 -0.29525602 0.17383905 0.05563375 0.33807024 0.38136098 -0.21181199 -0.07580368 -0.09639805 0.10552738 0.1424272 -0.030444266 0.13030414 0.026384473 0.28024906 0.77131796 -0.23290113 -0.5042808 -0.45441175 0.5120678 -0.13787568 0.57813084 -0.3536787 -0.22741732 -0.29021192 0.35351074 0.16742922 0.18417455 -0.32646808 0.5325446 -0.0077220425 -0.17520355 -0.22492263 0.0484682 0.24590947 -0.6786675 -0.07669477 0.15190451 0.3143396 0.6946009 0.10960896 0.27235425 0.076666445 -0.44250855 0.22490452 -0.08417374 -0.21479554 0.7440807 0.55613095 0.08850484 -0.02455512 -0.33880672 -0.048210002 0.11753173 -0.20423603 -0.14971328 -0.2315428 -0.0036371697 -0.10403369 -0.1271551 0.06342506 -0.48898572 -0.26325923 -0.18750331 0.19101201 0.45221493 0.1472964 0.3111627 0.12897477 0.034363512 -0.1297816 -0.12500212 0.035643704 -0.2704639 -0.48736078 0.5398406 0.006316383 -0.20031917 0.3024211 -0.12111827 0.031234333 0.25945488 0.45817754 -0.14210026 -0.049943727 -0.16695663 -0.09292668
6218 0.14179975 -0.42015603 -0.180035 0.39723626 -0.20904592 -0.019240852 0.36133325 0.029624354 -0.64274186 0.26372883 0.3001188 -0.25074267 0.0069097397 0.06495256 0.35232985 0.08185016 -0.2619402 -0.22201234 0.2547543 -0.18824776 0.08711408 0.25450015 0.32334992 -0.28702408 -0.13183483 0.27240622 -0.054776017 0.15512681 -0.25510183 -0.5562881 0.08744158 -0.48174715 -0.011699231 0.29833332 -0.012041774 -0.3169433 0.27713996 -0.051405262 0.1423029 0.14765424 -0.38979545 0.28675544 -0.028593259 -0.3011566 -0.024363073 -0.31587085 0.33167413 0.008973511 0.06809934 0.2022498 0.8689611 0.09473509 -0.19518505 -0.3280851 0.523245 0.031684462 0.55886954 -0.04665443 -0.65194637 -0.2524365 0.07834469 0.117431946 0.13935499 -0.1782977 0.108887546 -0.054204658 0.5331378 -0.19556871 0.36445758 -0.4080877 0.19295311 0.2486651 -0.18986183 -0.41145542 -0.07551784 -0.3393196 -0.23373692 0.17986846 -0.058661427 0.58245075 -0.09251312 0.08162532 0.16100757 0.18595542 0.3120325 -0.26525512 0.09408073 -0.25429785 -0.04518936 0.5171253 0.12063201 -0.3345009 0.22130136 0.35191667 0.43360415 0.20811622 -0.19895265 -0.6451043 -0.1414191 -0.29604447 0.062371664 0.0831167 -0.25851825 0.3279193 0.06250962 -0.049794387 -0.24391007 0.32905307 0.19917095 -0.056888815 -0.19920598 0.2272954 0.10391743 0.04067721 -0.12338816 0.3013624 0.62162095 0.055656757 0.24328353 0.13427532 -0.2478915 0.048789546 -0.3253044 -0.04631349 0.103302255 0.17754744 -0.44762543 0.214068
9870 0.529139 -0.5968123 0.24592726 0.038465954 0.60346866 -0.36915866 0.7317627 0.4494136 -0.043263875 -0.21834639 0.1929162 0.16056158 -0.13742974 -0.17400163 0.68420243 -0.053296365 -0.19294204 -0.5612044 -0.686999 -0.1196612 0.6020014 0.084857605 0.20441286 -0.64891225 -0.43440756 0.14035334 -0.27964935 0.30692542 -0.049809545 -0.3111713 -0.045426507 -0.18234345 -0.025063287 0.54448986 -0.39178395 -0.032386817 -0.31840658 -0.018667357 0.18825181 -0.57239044 -0.19257402 0.4016247 -0.1186694 0.04672215 0.3756211 -0.3541951 0.25793985 0.2654297 -0.009999097 -0.057065103 -0.22657157 0.11045109 0.5039238 0.81303006 0.010996197 0.12589863 0.8212885 0.15002759 -0.30420083 -0.0268561 -0.24087855 0.49272022 -0.14361608 -0.14754453 0.14974448 -0.716047 -0.41372573 -0.17446671 -0.009345919 -0.45961043 0.25881693 -0.2792673 -0.5505868 -0.66713095 -0.3387831 0.2466199 -0.60094243 -0.17251848 -0.015862828 0.60709727 -0.11563441 0.1318935 0.74385923 0.73135585 -0.079334274 0.03040442 0.033167258 -0.4169385 0.5911169 0.60472244 -0.20164254 -0.3268192 -0.1999084 0.19884707 0.43589848 -0.026160609 -0.15671615 -0.067545235 0.71655375 -0.38662028 -0.31592625 -0.60614324 -0.69287395 -0.57493746 0.116735786 0.055757027 0.2314138 0.470968 0.52299935 0.16214038 -0.4300763 0.4372602 -0.04469763 0.015337523 -0.20461647 -0.21121866 0.21697718 -0.03902224 0.31877172 -0.04694139 -0.4770985 -0.30053422 0.21066186 0.20289324 -0.79043365 -0.49420807 0.26199213 -0.2159801
28595 0.17519428 0.03345635 0.14892489 0.5338018 0.086673945 -0.10285239 0.20900117 0.08807772 -0.771018 0.20545858 0.114496075 -0.4119245 0.123926155 0.13854666 0.42800048 -0.25489804 -0.28456673 -0.11861482 0.18440668 -0.03636512 0.13313352 0.028378077 0.23619954 -0.09709881 -0.57257324 -0.19060144 0.01797898 0.5393728 -0.54115987 -0.1963148 -0.1599687 -0.5379692 0.26046184 0.28685418 0.06202996 -0.19691421 5.8481997e-05 -0.13800249 0.09527919 -0.010442617 -0.5664852 0.3283161 -0.15834959 -0.2417497 -0.16522017 -0.23728646 0.65994513 0.25418323 0.062219243 0.07116136 0.26255706 0.15010488 0.15221542 -0.31866512 0.37207586 0.123133734 0.36429757 0.15620501 -0.14464083 0.033861138 -0.0066987206 0.22687553 0.085925184 -0.1748201 0.102060005 0.15725522 0.12706588 -0.09868215 0.37932384 -0.38446242 -0.059030157 -0.02850986 -0.21114749 -0.4203654 0.17524117 -0.031289488 -0.08819523 -0.3925578 -0.072089344 0.4171221 0.43968236 0.26923603 0.20161632 0.0106976675 0.028506892 -0.17001337 0.5497546 -0.21886739 0.07483649 0.27453732 0.023564683 -0.30145952 0.49490368 0.38119727 -0.07004867 0.13948588 -0.611058 -0.27993238 0.17312129 -0.23589289 -0.24905933 -0.15059832 -0.014572553 0.013708578 0.024978697 0.4290079 -0.01769399 0.4470768 0.229809 -0.08455534 -0.48781824 0.094974816 0.23733263 -0.42639965 0.024654992 0.22326128 0.58070564 0.004853731 0.056734752 -0.11363569 -0.3517034 -0.0029027914 -0.054014634 0.0075483774 -0.23962934 0.005220603 -0.08473489 0.14293545
33303 -0.13230923 -0.21517523 0.27078146 -0.15362535 -0.011263152 -0.35189834 0.3063307 0.47441104 -0.19901106 -0.071227506 -0.038868878 0.031512823 -0.5973097 -0.16221805 -0.107808046 0.046037465 -0.22807129 -0.15304182 -0.19972967 -0.17112213 0.5473174 0.10805216 0.23705654 -0.48430544 0.12080048 -0.0813038 -0.40618226 0.113389 -0.44649026 -0.5056455 0.091712244 -0.2355136 -0.36614415 0.421006 -0.29357412 0.048883002 0.2862515 -0.18927795 0.44754425 -0.034439173 0.15138285 0.14249024 0.32731277 -0.22881629 -0.081678964 -0.19424663 0.07400007 -0.27685294 0.22495875 -0.0287848 0.24983317 -0.17319717 0.094735466 0.28859347 0.03738734 -0.114542 0.37651363 -0.18042652 -0.26301858 0.14706543 0.06155281 -0.14698203 0.25412625 0.19806066 0.30647266 -0.124787495 0.20172244 -0.0035600075 0.18032531 -0.040921967 0.14515807 0.02304769 -0.07040527 -0.04428992 -0.24316956 -0.18687397 0.024965072 -0.37144005 0.19937475 0.48246706 0.34742758 0.039460585 -0.07019142 0.3386643 -0.38660267 0.5153608 0.22979705 0.12633058 0.30366486 0.35787898 0.2692439 0.047659818 -0.21086703 -0.41993892 0.28637764 -0.384432 -0.16818827 -0.080122724 -0.18422025 0.29152673 -0.45962906 -0.16825642 0.010973331 -0.042861566 -0.06398733 0.2942297 0.24267036 0.09106426 -0.08941936 -0.20243351 -0.23096208 0.21695672 -0.1183787 0.40531522 0.1853773 -0.4116344 0.26623756 0.38143975 -0.13332504 -0.48949283 -0.43984205 -0.18408345 0.11961794 -0.04174466 -0.47857907 -0.1190697 0.2535261 -0.17327826
159 0.44405642 -0.6885601 -0.3126225 -0.03484645 0.015097961 -0.002033037 0.1508016 0.5417049 -0.001213379 0.13970019 0.43130907 0.08530789 -0.46496952 -0.07555752 0.4731951 0.0497045 -0.7628187 -0.13208969 0.052484408 -0.35110757 0.07655291 0.14998972 0.43804023 -0.44842154 0.1698188 -0.06685907 0.0004146867 0.4614401 -0.39834642 0.022454314 0.17435047 -0.25014752 0.38727966 -0.24427748 -0.11646972 -0.25267184 0.21868417 -0.35273758 0.12555413 0.10181918 0.14934117 0.034084257 -0.15224211 -0.3928004 0.029434575 0.047123287 -0.035736497 0.20551577 0.21021457 0.27035314 0.45645636 0.16660908 0.09737157 0.10943331 0.58606553 0.4317194 0.4883938 0.012968301 -0.56639063 -0.06825589 -0.3696924 0.37193802 0.11764268 0.036459994 0.18850195 -0.09726962 0.5922176 0.27689722 -0.3644012 -0.20113124 0.38130853 0.027376268 0.18735823 -0.33884323 -0.07674677 -0.10280567 -0.32516968 -0.22482271 0.03272243 0.15963565 -0.16368651 -0.0038488782 -0.12885784 0.49124438 0.26081684 -0.1178724 0.24759589 0.06816505 0.12785323 0.33310896 -0.23771383 -0.29620394 0.32525286 -0.059041757 0.29435614 0.14136894 0.18257152 -0.20943162 0.1926437 -0.20669512 0.17614016 0.44246635 -0.33428392 0.17396383 0.21120434 0.26065946 0.2119968 0.76129615 0.1066704 -0.2983151 -0.09139391 0.16430011 -0.52404857 0.62271875 -0.094966196 -0.18939628 0.24139804 -0.1705344 0.31165653 0.33632505 -0.45477775 -0.038584605 0.39585203 -0.13092004 0.17304021 -0.20363984 -0.05530546 -0.06613589
23879 -0.24430425 0.08900463 0.30669832 0.08851907 0.046242774 0.081300646 0.2632535 0.34209466 -0.55366534 0.1305 0.38806117 -0.028620318 -0.28607744 -0.017228955 0.025562543 -0.01834754 -0.15922888 0.10834106 -0.02041655 -0.083401136 -0.22229132 -0.27960068 -0.018328981 -0.054270465 -0.36459377 -0.5771393 0.10908445 0.03524464 -0.6827092 -0.63251084 0.01672408 -0.4356718 0.030486537 -0.26235223 -0.07835874 0.34692878 0.31915978 0.06352669 0.1711972 -0.08839205 -0.07961721 0.38113424 -0.017112462 -0.37436208 -0.39014694 -0.095840864 0.29975924 -0.18411528 0.27244374 0.06462611 0.3764512 0.20148778 0.5567767 -0.15761143 0.2710921 0.0033595043 0.38349313 0.075251535 -0.25987434 0.16044524 0.23913765 0.2245994 -0.12449808 -0.13567938 0.075690456 -0.00421372 -0.17247118 0.18421318 -0.027870221 -0.039880466 0.43348825 0.14743586 -0.20417501 -0.4071956 -0.1752875 -0.05419193 -0.47594875 -0.26620683 -0.013420074 0.77034974 0.35183552 -0.00019024953 0.3181803 0.07627135 0.1820123 0.29734036 0.011878694 -0.30606386 0.0075333235 0.24374996 0.0763495 -0.021132715 0.5956152 0.46831122 -0.25696555 0.26929197 -0.26262248 -0.05708154 0.21413022 -0.39217043 -0.23743269 0.15318426 -0.6143082 -0.38969135 0.2103015 0.079168245 0.047843523 0.51641333 0.18699698 -0.6106131 0.20851748 -0.07471325 0.3493056 -0.4557584 0.4294438 -0.636283 0.7997057 0.21173291 -0.28872296 0.01942352 0.054095186 -0.15515822 0.11445076 -0.37858528 -0.03404643 0.15185516 0.24212195 -0.05276166
36959 -0.09221719 -0.2996259 0.10775334 -0.050012253 -0.09569851 -0.17849381 0.74457335 0.28583476 -0.2744736 0.2880978 -0.0055010766 0.25369912 -0.06823422 0.014628012 0.48020092 -0.058523092 -0.07507385 0.057321556 0.0016021624 0.018656142 0.14068012 0.517054 -0.08321717 0.18794824 -0.3193908 -0.15185907 -0.15525001 -0.044558443 0.1558279 -0.8169494 0.016202884 -0.120612204 0.045911524 -0.024237882 -0.24023764 0.1481142 -0.0022253878 0.04156174 0.00876743 0.14332776 -0.17040397 0.48315138 -0.157588 0.2390054 -0.0795692 -0.1452583 0.48235527 0.13938199 -0.025864754 -0.20650104 0.45191276 0.0061780578 0.02346359 0.23573032 0.76855737 0.4288439 0.5717519 0.2632376 -0.055157643 -0.29599884 -0.043159425 0.13766941 -0.003552968 0.6767898 0.6021284 0.09572828 -0.11497314 0.024337124 0.0020830703 -0.14346738 0.44838765 0.39690557 -0.6728875 -0.14310642 0.34908485 -0.17791094 -0.24053082 -0.15439524 0.22076507 0.12097967 0.32519478 0.15792106 -0.32984447 0.08366473 -0.2764681 0.14388403 -0.4597457 -0.18583915 0.08472437 0.24244459 0.18087517 0.056732465 0.5819044 -0.2084087 0.4326393 0.440548 -0.41177133 -0.23982793 0.1918107 0.36114785 -0.29709512 0.37164366 0.032852072 -0.3897404 -0.2964494 0.6621835 -0.1345377 0.45251834 -0.26222166 -0.55426896 0.20844297 0.08144221 -0.16531914 0.039630372 -0.022143785 -0.18831202 0.5541492 -0.12007572 -0.04921293 0.13671547 0.11523667 -0.22265373 -0.11936901 -0.0045047277 -0.25758147 0.20335525 0.038011175 0.30393377
20506 0.13046286 -0.19622909 -0.4160513 -0.073722586 -0.004448739 0.010070157 0.14969526 0.3817288 -0.48211098 0.08467905 0.24851057 0.20149353 -0.3737432 -0.17571539 0.25408176 -0.41628355 -0.06675463 0.029181916 -0.10619224 -0.18169819 -0.28528768 0.58692765 0.4031162 -0.26785833 -0.31234467 -0.44185635 0.49019316 0.1813086 -0.18022962 -0.062100135 0.31647065 -0.050809763 -0.29617897 0.13191135 -0.29841056 0.25294188 0.117751665 0.36366916 -0.046294224 0.028288852 0.0039157774 0.54894054 -0.15977004 -0.14012483 -0.22068864 -0.5292882 -0.23204401 -0.0574746 0.8006246 -0.06396654 0.40861723 0.3078166 -0.20288034 0.13969219 0.3911519 0.075807124 0.5504886 -0.04214618 0.040009085 0.21993996 0.27723968 0.019546114 -0.030148223 -0.0020497306 0.43179584 0.2190763 -0.12815204 -0.1406846 0.15781914 -0.25344914 0.40571883 0.079739645 0.07183625 -0.33577797 0.0020833812 -0.03144286 0.038190983 0.20258197 -0.03573905 0.842827 0.2702181 0.08550838 -0.07010756 0.23112497 -0.19179139 0.06005217 -0.020720894 -0.4178295 -0.07955079 0.58779895 0.2854521 -0.3925697 0.2096765 -0.009118411 0.2497402 0.35113582 -0.6307165 -0.4388358 -0.30948126 -0.4006417 -0.03247856 -0.15698971 0.104989655 0.27056587 0.21868075 -0.10968708 0.11095283 -0.17133208 0.11339237 0.047290407 -0.075537026 0.3150374 0.21595597 0.4740484 -0.018407365 0.0989338 0.710152 0.25923416 0.28404948 0.20343642 -0.11469926 0.021481562 0.11149565 -0.046720967 0.07467555 -0.14979374 0.11230074 0.0058666826
33138 -0.2589493 -0.07352187 0.47828782 0.3640002 0.09637351 -0.0012022393 0.31211868 0.24012247 -0.74675834 -0.026725085 0.64054585 -0.26378724 -0.04658141 0.2248713 0.12542725 -0.014412314 -0.4067336 0.3699224 0.022012996 -0.20318791 0.37419856 -0.14146554 -0.09496491 0.017287683 -0.6602403 -0.6299883 -0.1691797 0.34605116 -0.4652038 -0.47308213 0.123357356 -0.2298117 0.34520096 -0.1329114 0.0987669 -0.14475967 0.12716438 0.219125 0.22286126 -0.1593674 -0.3262081 0.4543802 0.024429541 -0.40628517 -0.5928088 -0.10203374 0.53514403 -0.19218074 0.22938749 -0.044417776 0.39789063 0.10526471 0.28137794 0.19436407 -0.12448046 -0.008662912 0.08149556 -0.1128332 -0.44319803 0.36779857 0.49874073 0.21560906 0.017719967 0.05647188 0.15305611 0.0600554 -0.3498128 0.43291464 0.04512824 -0.11019261 0.16955724 0.031043818 -0.2540464 -0.3618145 0.056958813 -0.27271256 -0.4958952 -0.423709 -0.015818952 0.48105127 0.2899856 -0.106145605 0.4363314 0.19108884 0.25622147 0.41844124 -0.0981232 -0.47792158 -0.007406833 0.22644426 -0.021774927 0.10462006 0.7437966 0.78509283 0.055906918 -0.028169502 -0.29160708 -0.1912303 0.26341432 -0.3203612 -0.6632166 0.15037109 -0.3562089 -0.5086522 -0.30331856 0.44716093 0.21395344 0.5062046 0.2120553 -0.74618465 0.19571593 0.15366821 0.29402056 -0.38970587 0.59588313 -0.44769338 0.8296492 0.15700775 -0.2662912 0.01767109 -0.13764663 -0.30165154 0.22939944 -0.38135728 -0.19452268 0.1384307 0.08836104 0.020843381
24350 0.10020518 -0.1163914 0.08532536 -0.38022825 0.07460877 -0.04091963 -0.01236708 0.038540315 -0.12695993 -0.0028040383 0.519474 0.5889072 -0.3181478 -0.25601193 0.2669449 -0.25014386 -0.5808737 0.25291458 -0.39482412 0.18023089 -0.08469542 -0.006806204 0.4248429 -0.58674634 -0.44880986 -0.61171925 0.097873345 0.37961608 -0.24233918 0.16601747 0.43304113 -0.010112361 -0.20628764 0.03723583 -0.2937204 0.08376786 0.31244218 0.07639419 0.68887585 0.31385848 0.0892358 0.010315252 0.38348863 -0.34266484 0.20746785 0.029830864 0.2301049 -0.12393143 0.16185014 0.35966498 0.045937624 -0.057840813 -0.10901313 0.4404068 -0.32983497 0.24352273 0.5603715 -0.44594246 -0.13433886 0.5004881 -0.27602276 0.48050478 -0.2139764 -0.8227863 0.5837238 -0.29334405 -0.32826486 -0.2253388 0.058201693 -0.25767052 0.5747742 0.11425727 0.06134054 -0.56480473 -0.037204176 -0.3824636 -0.30959132 -0.15946934 0.38351703 0.96472555 0.5600668 0.7700117 0.5668152 0.40902674 0.09169179 0.48086798 0.006558721 -0.55123 0.51168007 0.21569124 0.26921237 -0.5054 0.14480965 0.37866396 -0.013378953 -0.14082532 -0.29966965 0.11385213 -0.06973332 -0.6337905 -0.77386975 0.17239235 -0.31757167 -0.027491191 0.2183909 0.29431427 0.52146876 -0.036357533 0.14017782 -0.2776702 -0.18286638 0.3051192 0.1930441 0.80270576 0.24899642 -0.8392547 0.66737455 -0.38715434 0.12441618 -0.38161483 -0.14460933 -0.29350334 -0.27892587 0.2994192 -0.44590935 -0.24938615 -0.40807396 -0.22489488
5315 0.01863907 0.26233473 -0.18208675 0.2956858 0.20829684 0.22290367 0.31338382 0.36140287 -0.3153336 0.13876842 0.10165938 -0.3441584 -0.15412845 -0.29490688 0.16785358 -0.03940631 -0.22128369 -0.20041268 -0.35746756 -0.0067206263 0.083287895 -0.29874408 0.36308214 -0.39945734 -0.47226107 -0.18073949 0.027139874 -0.37139112 -0.31410846 -0.55544734 -0.07944454 -0.10879235 -0.03967052 -0.18598841 0.033654723 -0.1791801 0.08394995 -0.28414026 -0.044792525 0.15387163 0.09179385 0.21001866 -0.1856806 0.08316079 0.048384894 -0.0863627 0.010633858 -0.16980338 -0.10138077 -0.32077453 0.05625254 0.4362732 0.58143187 0.5218929 -0.08809454 0.29574612 0.7433054 -0.04159985 0.05444674 0.45766634 -0.0924017 0.2284089 0.48432255 0.045247465 -0.051516775 -0.5764066 -0.3350753 -0.15486634 -0.32540935 -0.2430049 0.26546654 -0.37139964 -0.43517047 -0.25264218 -0.20645542 -0.3085492 -0.278969 0.19906129 0.07119046 0.6571653 -0.24820842 0.14602064 0.485645 -0.008873398 0.0028496122 0.11882776 0.43695658 0.2003274 0.34085625 0.2964807 -0.02536731 -0.5383991 -0.25309166 -0.11755661 0.31457067 -0.14351644 -0.06569031 -0.21261643 -0.26890618 0.33610502 -0.29034472 0.70410895 -0.5956685 -0.16630383 0.19023728 -0.074494265 0.040138923 -0.20962831 -0.34657094 -0.08770063 0.34536496 -0.051893003 -0.3111607 -0.39869136 -0.16851841 0.015048354 0.6019795 -0.17358413 0.16978718 -0.25237986 -0.62533396 -0.7363591 0.36956125 0.12079074 0.03211121 -0.39797848 0.21122248 -0.0038292056
11536 -0.11688646 -0.41748556 -0.61123294 -0.06277873 -0.10877683 0.49779347 0.48723638 0.03379439 0.24587551 -0.3897135 0.41717303 -0.26444006 0.11273167 -0.42999408 0.46902362 -0.08002966 0.2320393 -0.2629188 -0.103981644 -0.6076565 0.0060895686 0.23843087 -0.08054082 -0.29127464 -0.30146754 0.22591719 -0.39378223 0.05624705 0.20767371 -0.6830118 0.19935721 -0.041761313 0.017390244 -0.037534747 -0.016367203 -0.111137554 0.047547184 -0.4155035 -0.12942138 0.24792562 -0.07334751 0.8364048 -0.09491881 -0.23519023 0.0009984283 -0.3066399 0.10496973 -0.39007157 -0.27643907 -0.34790558 0.10656643 0.100706175 0.007083701 0.2751707 0.10755577 0.43076134 0.3322694 -0.3714069 -0.3076803 0.09877049 0.29910794 0.49290392 0.07262297 0.15954787 0.24175107 -0.031232588 0.5723147 -0.23997052 -0.35352242 -0.73590404 -0.041522592 -0.68393034 -0.5747578 -0.008324058 0.5383547 -0.07259161 -0.22919959 0.12746915 0.059411284 0.2860708 0.3326523 0.39255762 0.09481967 0.28155684 0.097063765 0.32411203 -0.19653118 -0.22744276 0.0898991 0.4176982 -0.28457573 -0.10379345 -0.32459003 0.13571206 0.70215976 0.15727411 -0.26283294 -0.59625494 -0.54476035 -0.18599206 -0.60665333 -0.104617395 0.22023219 0.015063523 -0.031673305 0.05102126 0.20868747 0.014805111 0.18762647 -0.83669525 0.1578138 0.14311534 0.04771218 0.21431741 0.4684561 -0.07309189 0.030334888 -0.5204342 -0.07790485 0.104265414 0.026299035 0.09805251 -0.04929972 0.09558855 -0.1891664 -0.7130822 0.19347858 -0.67983043
10827 0.10346346 -0.27754417 0.2631015 0.122792155 0.27668712 -0.35076985 0.43756872 -0.038628027 0.07824984 0.5023127 0.29363814 -0.07946918 -0.35708496 -0.59619474 0.7181829 -0.056328148 -0.19966565 0.26350027 0.0997502 -0.22965954 -0.18885487 0.29246002 -0.2597245 0.23066938 -0.027173353 0.29754865 -0.026079962 0.28580275 -0.14200133 -0.29535425 -0.35333776 -0.004217037 -0.035423953 0.09425019 -0.22354609 0.1765909 0.19636297 -0.18279809 0.4967167 -0.12580746 -0.12803638 0.34816557 0.15467057 -0.33670256 -0.39443585 -0.189416 -0.34201488 -0.044505067 0.092388555 0.07894682 0.4846494 0.022544835 0.21339576 -0.10740006 -0.015603092 0.14362442 0.08248233 0.4459819 -0.35677388 0.3288888 -0.13905 0.075582765 0.21511562 -0.233758 0.12847401 -0.022533972 0.081000075 -0.23601183 -0.03641486 -0.6601247 -0.0666051 -0.048901476 -0.31374353 -0.5716183 -0.016027497 -0.15681869 -0.3355593 -0.17359939 -0.16865584 -0.063279726 0.3154062 -0.33643845 -0.0817689 0.4467043 0.04783138 0.07071206 0.60376406 0.06446506 0.4499936 0.5644881 0.27529374 0.024048576 0.26339096 0.28067324 0.20785324 -0.17558517 -0.30832812 -0.25480235 0.069207996 -0.27262238 -0.92457664 -0.11997287 -0.18275863 0.06987396 0.2878443 0.10113155 0.019610683 0.30701756 0.4212827 -0.30405447 0.045977816 -0.22177632 -0.08503624 -0.2591135 -0.38183764 -0.37943962 0.47289336 0.2691648 -0.58786047 0.14831898 0.087381475 -0.060760316 0.054200437 0.07983318 -0.14557202 -0.2833681 0.35371995 -0.19322808
14905 0.16765562 -0.34205067 -0.22566427 -0.20738436 -0.12539685 -0.107666 0.17292936 0.62581295 -0.5364213 -0.062862664 0.02070658 -0.068312235 -0.5800195 -0.21570964 0.5054037 0.021517288 0.10269344 -0.08667569 0.011389395 -0.31378448 -0.087464415 0.60816544 0.17773196 -0.6153819 -0.23095986 -0.54180306 0.27580643 -0.083457015 -0.38970375 -0.18416134 0.42657727 -0.3582706 -0.21344092 0.36225376 -0.4714255 0.3826532 0.25093895 0.13872798 0.08243104 0.06929266 -0.14204714 0.32651564 -0.06753981 0.054624174 -0.45460543 -0.47824153 -0.22832824 0.117547885 0.48452157 -0.039764408 0.42869744 0.34083802 0.08516386 0.1393046 0.18763591 0.4873855 0.69165444 -0.06504081 0.17270157 -0.019748185 0.23124847 0.07022318 0.015397726 0.09318462 0.5158526 0.28556567 0.036357746 0.21345991 0.23298302 -0.2672993 0.14957891 0.00305995 0.24153195 -0.22170405 0.16698079 -0.08542318 -0.027494213 0.22009213 -0.035920497 0.6967169 -0.18364362 -0.038847398 -0.16790527 0.23929127 -0.17097247 -0.056606773 0.035717223 -0.36239654 0.11510122 0.071341366 -0.082195416 -0.11692282 0.057562377 0.13540684 0.52976674 0.32446137 -0.50425506 -0.28183296 -0.13012464 -0.37586284 -0.32937482 -0.055479046 -0.34022754 0.23582351 -0.204081 -0.11593661 0.08504153 0.15251559 0.018675968 -0.21708807 0.17504472 0.12221033 -0.23809107 0.5384558 -0.13354924 -0.022439105 0.8214909 0.18543573 0.499822 0.22266485 -0.11586996 0.2762877 0.26391238 -0.25991672 0.05173405 0.07988503 0.40122715 0.12025883
17429 -0.01924353 -0.1599601 -0.026824929 -0.012932077 -0.012384368 -0.22039297 0.19367246 -0.036267918 0.1274551 0.25473154 0.23852775 0.2311573 -0.099145755 -0.26623067 0.30165693 -0.09363071 -0.25001612 0.24004625 -0.25735372 0.078056 -0.34490857 0.04658974 0.20056646 -0.18032601 0.0048375954 0.05872232 -0.1392287 0.17158037 0.10231678 -0.23324539 -0.05723385 -0.027716434 -0.38227153 -0.14812888 -0.062539816 -0.053922154 0.25403938 0.058956213 0.49177203 -0.12078787 -0.1995809 0.28171209 0.17667077 -0.3323771 -0.13721304 -0.10145073 -0.22052 0.10438295 0.18648924 0.28598508 0.19342962 -0.17043173 0.29880574 -0.14473242 0.13604262 0.45164406 0.16638269 0.24900946 -0.2790981 0.32153854 -0.43276858 0.010120234 0.13159244 -0.12818532 -0.21917325 0.15319239 0.053663913 -0.12075783 -0.09105886 -0.74217117 -0.18927129 0.12147126 -0.2225047 -0.42435792 -0.30650568 0.093282044 -0.038741276 0.17098638 -0.011407078 0.17910753 0.30534264 -0.20680021 0.15257683 0.53824526 -0.1147329 0.22558221 0.46606526 0.10547238 0.34110972 0.3593567 0.47433943 -0.08189838 0.04367532 0.13327569 -0.05407023 0.16243741 -0.31729445 -0.049298827 0.23710209 -0.439438 -0.70849645 0.116331555 -0.50219876 0.0017099058 0.46861142 0.0022000321 0.17126675 0.08292524 0.31571367 -0.12109023 0.09455276 -0.0923041 -0.09322076 0.017589137 -0.34520918 -0.6471072 0.26975468 0.058791336 -0.30512258 -0.037838757 -0.05233412 0.019578582 0.15609042 0.05717193 0.0048601585 -0.079374894 0.0645321 -0.25452057
1762 0.16414793 0.15079841 0.038728464 0.3751384 -0.040735643 -0.34956837 0.38393715 0.17499028 0.11304209 -0.06717963 -0.008499765 0.041711323 -0.12248994 -0.13055514 0.2829515 -0.2968773 -0.27488476 -0.18033202 -0.59218943 -0.0516912 0.14656511 -0.036375362 0.37109303 -0.54034305 -0.319612 0.0178483 0.15792526 0.24064393 0.091448195 -0.4737755 0.06602457 -0.06997604 -0.29408616 0.14143933 -0.32469118 -0.16458997 -0.06218336 0.43401277 0.43061036 -0.025495207 -0.3922956 0.4699614 0.014334749 -0.058334317 0.2220468 0.056024853 0.2563218 0.50607425 -0.15915401 0.26044512 -0.6170933 0.03198432 0.24383047 0.3939769 -0.3565874 0.4100317 0.28761643 0.1149107 -0.3271028 -0.080201566 0.193776 -0.0696694 -0.10142097 0.028598346 0.14317085 -0.41260213 -0.31418493 -0.22109646 -0.24677502 -0.7496957 0.2228059 -0.16198315 -0.15682384 -0.27243 -0.10159576 -0.057215948 -0.505312 -0.13796331 0.09167431 0.4735929 -0.07891987 -0.072943576 0.4372758 0.38102317 -0.28990692 0.3418126 0.03300372 -0.037829813 0.3118823 0.13410708 0.08752823 -0.18993326 0.0030743997 0.25590146 0.13371265 -0.15352759 0.13920037 -0.11276166 0.34698504 -0.3042616 -0.47118112 0.1831828 -0.4271569 -0.46565032 -0.10225523 -0.11033739 0.12829685 -0.081562355 0.0060197366 -0.10727068 0.17588271 0.11501255 0.04180423 -0.26533931 0.034920003 -0.15396573 0.1331705 -0.34194392 0.1745695 -0.27556887 -0.3837387 -0.43715104 -0.027398366 0.31389278 -0.29467967 -0.079226784 0.10051572 -0.21361873
12854 0.017713077 -0.35488415 -0.24459067 -0.6044019 -0.011941568 -0.21558893 -0.07466518 0.8591287 -0.25670075 0.015974352 -0.18744427 -0.105285555 -1.0723917 -0.32958078 0.34133363 -0.020892428 -0.3222545 0.13138655 0.046046894 -0.31824768 0.34659195 0.2926032 0.31890512 -0.8416143 -0.26668835 -0.4214553 0.4382976 -0.14140816 -0.46301097 -0.38164985 0.49753243 -0.5659549 -0.5286159 0.18794306 -0.6170306 0.20673065 0.14889742 -0.07303915 0.17467272 -0.28617975 0.03516354 0.16915385 0.07336371 -0.2228236 -0.2720499 -0.6131008 -0.33778054 -0.11237286 0.27838644 0.05984002 0.42552158 0.21958686 0.09686318 -0.13375337 -0.21236669 0.58033615 0.36519897 0.09390557 0.20600976 -0.21919261 -0.10652524 0.4819663 0.33048204 0.092774265 0.77638006 0.34839034 0.1600924 0.18146893 -0.086887926 -0.6237181 -0.08404255 0.06776539 0.23804894 -0.42121428 -0.17066987 0.11946572 -0.33803847 0.5423712 0.58221954 0.7930289 -0.10428504 0.4445364 -0.3410382 0.20001397 -0.058204845 0.013669881 0.28069666 -0.28986084 0.28160533 -0.011386344 -0.15020545 -0.105297804 -0.1738681 -0.21139276 0.3226463 0.37858978 -0.2179224 -0.054945465 -0.010892643 -0.61203146 -0.55187786 0.252592 -0.60074186 -0.052671336 -0.04781085 0.25639102 0.13095291 0.08807499 -0.006639302 -0.41646895 -0.0805276 0.42939788 -0.49087542 0.66341704 -0.078062706 -0.5800785 0.8672066 0.25283062 0.49563703 -0.027667958 -0.27119347 0.13138935 0.14430238 -0.4216881 0.07313118 0.22478163 0.60469586 -0.042541713
23881 0.40301207 -0.32321244 -0.11770519 -0.082806155 -0.026406726 0.086915046 -0.0034144418 0.40691948 -0.16420946 0.029207934 -0.15312633 0.08232666 -0.6084009 -0.2642644 -0.2220575 -0.051026534 -0.31247976 -0.26834404 0.046368327 0.031513475 0.40537593 -0.005954794 -0.0157174 -0.4966957 -0.17101304 -0.19641696 0.13629611 -0.20258975 -0.37091243 -0.14985964 0.2938199 -0.18693364 -0.1948747 0.0022736026 -0.050875537 -0.16816679 0.23326497 -0.24834439 0.14836249 -0.07274742 0.07467685 0.2979935 0.16143827 -0.033082806 -0.039119758 -0.3703315 -0.23775503 -0.07757152 0.0026238095 -0.20902006 0.31548426 -0.013859958 -0.18813772 -0.2682326 0.072316736 0.2953632 0.13422735 -0.21848154 -0.0810125 -0.1490009 -0.028361036 0.15379982 0.0972548 0.067864075 0.61758655 -0.053129397 0.06589414 0.17687935 -0.15529305 -0.057922147 0.09418445 -0.04003756 -0.01958973 -0.2605655 -0.23128566 -0.24135986 -0.43306807 0.10020671 0.7873502 0.75400394 0.32454133 0.29441622 -0.1338536 0.3152071 0.2389078 0.34511048 0.2908399 -0.16418506 0.44619527 0.1844635 0.06268971 0.0012075113 0.015485459 -0.568864 0.3390383 0.096751384 -0.22524033 -0.5263812 -0.028163033 -0.10556737 -0.31423718 0.20770375 -0.3027036 -0.26799068 0.08650719 0.15691508 0.25197732 -0.3814208 -0.008150087 -0.30362594 -0.23735195 0.36895075 -0.012480029 -0.023104656 0.107806794 -0.34089363 0.67754954 0.18270907 -0.3413036 -0.4568701 -0.2597292 0.056551237 0.15500349 -0.06467599 -0.14013486 0.25655964 0.7442336 -0.20998704
28767 -0.018903064 -0.22757666 0.030313503 0.22517455 -0.07978112 0.12942441 0.000779441 0.08757612 -0.15175419 -0.48028606 -0.19802316 0.024067646 -0.36061755 -0.36708716 0.49562055 0.11822795 -0.69420093 0.14967328 0.049911734 0.11909292 0.13888451 0.5123474 -0.26086926 -0.45479783 -0.40071082 -0.2725915 -0.11727816 0.43926904 0.05230101 -0.48750103 -0.24733476 0.14092219 0.037123892 -0.078243844 -0.15906039 -0.4620236 0.21900111 0.14477777 0.45935127 0.5960507 0.08103635 -0.028261216 0.013308175 0.07412039 -0.027210608 0.40234783 0.20412014 0.1336626 0.18061282 0.508468 -0.092691064 0.21724187 0.023619466 0.049654778 -0.01345878 0.565896 0.5914497 -0.18406092 -0.38913223 -0.34494364 0.2052913 -0.0011675346 0.3734266 -0.5267414 0.1602105 -0.084187746 0.21088487 0.14853276 -0.15074506 -0.8608195 0.570968 -0.19593853 -0.10001238 -0.5236684 0.1957924 0.19426231 -0.96960175 -0.2330912 0.2870001 0.18592346 0.43527982 0.06018367 0.25663707 0.05796644 -0.20938672 0.25013718 -0.116936 -0.16217062 0.84575546 0.43532827 -0.031023832 -0.33442184 -0.12531641 0.07842959 0.0898989 0.096667044 0.019653386 0.0020564685 0.35590175 -0.443713 -0.20373134 0.3112575 -0.5849647 -0.43230546 -0.057516012 0.0076624127 0.2564459 0.047452737 0.31433657 0.0856125 -0.041336022 0.09335104 -0.06504693 0.103591844 -0.2781061 -0.2247503 0.23416528 -0.2991244 0.0611959 0.14967884 -0.10081157 -0.023305126 0.30964625 0.45661193 -0.29558462 0.22933316 -0.19602253 -0.33965206
24839 0.3852217 -0.04330881 -0.2364811 0.39913237 -0.050593603 -0.20001143 0.2921462 -0.124072894 -0.35641107 0.5559833 -0.09935262 -0.5507574 0.4824732 -0.19787437 0.29845452 0.2704496 -0.8428012 0.049243633 0.06945288 -0.048612807 -0.06625622 0.16268148 0.10541026 -0.08731822 -0.46203837 -0.34218666 0.12573972 0.283693 -0.06164848 -0.10696556 -0.15183969 -0.18681273 0.023037497 -0.11170922 -0.056379024 0.05584397 0.13666792 0.06539719 0.20993139 -0.23156181 -0.17961273 0.69235706 -0.10088359 0.0592163 0.13050008 0.24194805 0.20883751 -0.1286332 0.30581403 -0.105312444 -0.057573393 0.2105368 -0.007921561 -0.12505306 0.62901396 -0.07281187 0.41175985 0.46065038 0.25022787 0.33417916 -0.4174975 0.19071968 -0.016243905 0.17254119 0.26361877 0.23022144 0.0064931 -0.43729755 0.36881068 -0.20679109 -0.05042067 -0.12488942 -0.44729733 -0.39232248 0.26220843 -0.020828325 0.020322714 -0.48123395 0.082319066 0.6583045 0.87444633 0.20577353 -0.120448716 0.35965446 0.17760648 0.12045641 0.4282984 -0.14684083 0.122259706 0.20685568 -0.078060396 -0.33871028 0.3204295 -0.39936808 0.20070988 0.17746261 -0.7993734 -0.3540191 -0.30925938 -0.15916048 0.014435105 0.025189308 0.55302787 0.31618625 -0.09367013 0.43753675 0.30173457 0.13725154 0.03780594 0.00245016 -0.43671218 0.03425247 0.20574954 -0.12527192 0.045590267 0.062038913 0.44086143 0.06932377 0.05495249 -0.2810358 -0.34577566 -0.020855518 0.088402584 0.19154768 -0.19671887 -0.4037336 0.18151832 -0.4136945
24711 0.2643273 -0.14019041 0.2292782 0.15547104 -0.42890704 -0.20639187 0.7521252 -0.40161103 0.25053445 -0.010627927 0.35228872 0.48888615 -0.22086845 -0.38307273 -0.33173028 -0.024354864 -0.7978029 0.088700555 -0.38342386 0.096786745 0.030837154 0.4248087 0.1437669 -0.6481088 -0.18050209 -0.0963938 -0.21312714 0.14127144 0.2679561 -0.020337164 0.37359974 -0.061429713 -0.26246896 0.08520666 -0.17547837 -0.27130866 0.03892834 0.19087657 0.2615204 -0.09309777 -0.007334004 0.5620624 0.21976179 -0.5222108 0.10905413 -0.1827771 0.24342746 -0.07562869 -0.14005683 -0.12983906 0.10486897 -0.41348082 -0.18887232 0.08993826 0.08717027 0.7511141 0.51262796 -0.23761179 -0.42411593 0.106358916 -0.26292884 0.40448317 0.03682091 -0.23999643 -0.41733566 0.01680264 0.34393418 0.08169379 0.14363556 -0.39863276 0.042405754 0.21094546 -0.44730565 -0.06720583 -0.30030248 -0.29257116 0.34824857 0.026772434 -0.09931447 0.48940128 0.33582863 0.030440869 0.20916614 0.6835698 0.34982288 0.5325992 0.20089503 -0.146353 0.29574206 0.4894283 0.51206344 -0.025760863 0.61191803 0.1827381 0.4244128 0.1509124 -0.103426486 -0.10973377 -0.049448356 0.16888995 -0.26177517 0.18638285 -0.56049174 -0.17604098 0.20310889 -0.055522546 0.1808614 0.2637977 -0.013457324 -0.29566127 0.5613011 -0.10562426 -0.13180225 0.597084 0.06607715 -0.3795658 0.41468248 -0.72893965 -0.3771424 -0.16940822 -0.284289 -0.24977013 -0.12165451 -0.047399603 0.20738474 -0.44591534 -0.03971453 -0.37052482
31205 0.20982897 -0.2114418 -0.43012992 0.0354136 0.19901106 0.060615383 0.093033135 0.4945486 -0.5025286 -0.16897213 0.37140325 -0.18995607 -0.15507948 -0.32965133 0.42073366 -0.1593679 0.014481293 -0.07293767 -0.24980511 0.046247657 -0.22386594 0.4084652 0.076081045 -0.5277595 -0.3731973 -0.54752284 0.31632555 -0.09644383 -0.25833133 -0.20752822 0.2537029 -0.19487312 -0.009787514 0.18824428 -0.4813268 0.2781619 0.34992075 0.2787064 0.12505822 0.194898 -0.034547832 0.34490898 0.03309577 0.10508307 -0.42506486 -0.32747665 -0.21622825 -0.022934943 0.5721853 0.046393506 0.43860418 0.44012117 0.030143859 0.091164365 0.32993847 0.30590826 0.7342061 -0.25299412 -0.06633496 -0.06858645 0.39801246 -0.110936016 -0.08175897 -0.16651724 0.47968793 0.35483745 -0.058593363 0.1443161 0.08845643 -0.35841858 0.2845124 -0.002851229 0.0513928 -0.12354196 0.24061766 -0.12946968 -0.08646775 0.08138326 0.030381674 0.60000193 -0.15208592 -0.23154677 0.0040984857 0.32913187 -0.3174626 0.25926208 -0.040420953 -0.23714036 0.2580524 0.16235882 0.09107347 -0.058017895 0.041370682 0.056972325 0.45885783 0.5986706 -0.74785376 -0.56583065 -0.26289994 -0.16844729 -0.34256104 -0.039918847 -0.24271967 0.14593944 -0.22534952 -0.13493794 0.016813103 -0.12459663 -0.11032855 -0.07332899 -0.035160314 0.43524024 0.04411326 0.40734684 -0.09049016 0.17836176 0.7369688 0.5248095 0.43015632 0.30778295 -0.2026798 0.09807753 0.29949656 0.05808907 -0.06674145 0.06627142 0.28187704 0.19755116
29543 0.2449246 -0.55329037 -0.28349382 0.10709454 -0.11068361 -0.029528214 0.17026806 0.13582961 -0.6103054 0.1388897 0.36751008 -0.21975464 -0.4304244 0.11904029 0.20713873 -0.16014643 -0.05085519 -0.30779913 0.12897845 -0.2899019 0.02223584 0.5154689 0.43044293 -0.6743193 -0.3657035 -0.22016397 0.21225698 0.14853325 -0.58445704 -0.23776282 0.4578433 -0.29876047 -0.1952988 0.67251647 -0.15480383 -0.1544283 0.275572 0.20731299 0.05676334 0.27439347 -0.32417208 0.45247725 -0.27694276 -0.34033903 -0.05004593 -0.7763864 0.23228583 0.033652045 0.4082977 -0.04093283 0.6619823 0.05363355 -0.37971264 -0.10342941 0.49864757 0.16497251 0.7789064 -0.15666446 -0.32541558 -0.005879795 0.37313253 0.2684241 0.20965086 -0.039535653 0.29413444 0.2436345 0.28089902 -0.06777926 0.4558667 -0.5368629 0.32792583 0.07569288 0.084958136 -0.45803082 0.08395037 -0.16399862 0.021356609 0.28097808 -0.109281205 0.71911037 -0.21343209 0.13691165 -0.061383847 0.20539454 -0.046148945 -0.106192395 0.12399908 -0.30323723 -0.04260973 0.54208976 0.2788015 -0.50850505 0.11877059 0.09881895 0.5070912 0.30299214 -0.46670806 -0.5200131 -0.3509773 -0.07966584 -0.09684393 -0.18070363 -0.21870059 0.43432662 0.25461403 -0.105786525 -0.18649834 0.060688853 0.28124323 -0.0037514798 -0.4428741 0.18924488 -0.021274729 0.3716486 -0.1513272 0.58011645 0.9138175 0.3080363 0.44264552 0.36651087 -0.26542923 0.08858416 -0.21004587 -0.038163148 0.09715808 0.101584956 -0.17123795 0.3184659
15115 0.11570969 -0.47616518 -0.06599283 0.32979748 0.32029483 -0.25480676 0.18549263 0.40828475 -0.14661175 0.13211358 0.17419699 -0.38706684 0.27431437 -0.33314526 0.28290355 -0.17015767 -0.40425402 -0.7590424 -0.43032688 0.0687643 0.5638551 -0.06265451 0.1444672 -0.86386085 0.033875477 0.07905774 -0.67329764 0.40361613 0.034227148 -0.5223414 -0.3270776 -0.3728254 0.14233842 -0.24561393 0.27385208 -0.436192 -0.07721817 -0.3782246 -0.2953085 0.10369902 -0.41599396 0.4045331 0.25876302 -0.0027194163 0.06628659 0.3327614 -0.21496312 0.31189853 -0.11121497 0.29758638 0.30505064 0.44365382 0.045268454 0.39757645 -0.09309679 0.37467554 0.33559707 -0.24665849 -0.18959248 0.33965334 -0.06853253 0.041469563 0.22669427 -0.26324973 -0.26695976 -0.3313027 -0.020394495 0.22663735 -0.37881967 0.13502726 0.5080426 -0.15670659 -0.67575955 -0.35299727 0.13706207 -0.07667961 -0.74623734 -0.41377673 0.555862 0.23940644 -0.054670423 0.059521973 0.6074071 0.7448609 0.014918743 0.48077565 -0.10734068 0.24786538 0.4227505 0.20771974 0.104305 -0.07193352 0.3449379 -0.3457994 0.85731155 0.4616806 -0.11742828 -0.5620571 0.13108897 -0.0030400672 -0.53694254 0.14956026 -0.16738728 -0.6463603 0.32400337 -0.24146871 0.4731142 0.28526542 0.40972507 -0.13083935 -0.032283995 0.5311918 -0.081411816 -0.19035277 -0.35341775 -0.6065167 0.54580593 0.53359425 -0.08804742 -0.4925882 -0.29502904 -0.2056791 0.15279387 0.25388202 -0.6583896 0.06434087 0.12574929 -0.5103499
14921 -0.03056761 -0.31804088 -0.46272588 0.07187417 -0.05293859 0.2816435 0.4497775 0.6138758 -0.022567801 -0.12755162 0.26690224 0.21237622 0.15416174 -0.15197793 0.67337185 0.1799519 -0.20535715 -0.7731936 -0.085793965 -0.17655277 -0.013836635 0.21762438 -0.09869371 -0.20913582 0.20746022 0.3257905 0.05894397 -0.03536749 -0.43660766 -0.36156127 0.023299478 -0.27235654 -0.12495854 -0.071607605 0.07466955 0.2967908 0.32814333 -0.3188552 0.48749352 0.4019038 0.12391283 0.683611 -0.4823511 0.11791718 0.48326027 0.10501953 0.117525116 0.07678505 0.27447686 -0.1737485 0.1529194 0.2833029 -0.020452324 0.083804905 0.45177364 -0.08105548 0.37865105 0.3568769 -0.6295503 0.08650109 -0.5588879 -0.40464532 0.3703562 -0.105307825 0.20951615 -0.23834006 0.09866117 -0.50680417 0.38048756 -0.022845412 0.27712885 -0.40712407 -0.18965372 -0.39010078 -0.3589465 0.058720548 -0.15604411 0.07600193 0.24795622 1.042015 0.20456071 0.5228324 0.44824016 0.14692983 -0.16036986 -0.027692787 -0.333546 0.0019680168 0.4236753 0.37168196 0.12368041 -0.24634466 0.073757745 -0.0031182605 0.22615469 0.4623827 -0.45236176 -0.076791495 -0.23791538 -0.017959466 -0.21484298 0.4071824 -0.29304022 0.22545937 0.38802847 -0.2019494 -0.21496819 0.24759667 0.16960259 -0.39785 -0.2499255 0.18617482 -0.15452869 -0.39183727 -0.067840606 -0.7155194 0.05273895 -0.031145172 0.047081433 -0.28937373 -0.3186797 -0.17360413 -0.108985685 0.20285133 -0.13214727 0.10746834 0.04881044 -0.10302785
15054 0.06714786 0.12646541 0.2157807 0.39651173 0.19368182 0.16832325 0.23907115 0.2178888 -0.74644655 0.14793988 0.32996312 -0.3674262 -0.21782771 -0.08799047 0.33243656 -0.16047823 -0.10881841 0.04942686 0.08557852 -0.08529127 -0.031900473 -0.34934086 0.050667662 -0.12186024 -0.61560965 -0.44637927 0.21642675 0.281927 -0.7648352 -0.4780085 -0.11697412 -0.55304694 0.18980199 -0.038699917 0.0032553046 0.024267688 0.13616467 -0.17536351 -0.0037158506 0.030729415 -0.3662882 0.16236952 -0.07178474 -0.37789008 -0.2859802 -0.31399506 0.4324357 0.043762803 0.08804595 0.15924326 0.2520828 0.24565893 0.46863568 -0.3765649 0.2783147 0.14208746 0.43006402 0.088961974 -0.16435824 0.10873724 0.13591032 0.3493211 -0.057191562 -0.18638708 0.18307401 0.06707576 0.103594035 0.024160597 -0.12512214 -0.19341198 0.17410578 0.06865772 -0.14642562 -0.33444896 0.08421959 -0.08717347 -0.5023358 -0.30841008 0.07821938 0.56016564 0.416766 0.061222978 0.24862081 0.09661157 0.14176361 0.11960921 0.42316496 -0.19155544 0.098138936 0.2802887 0.0017636829 -0.21255891 0.48186895 0.37383485 -0.27468604 0.29707733 -0.45255607 -0.20306696 0.05014778 -0.24253334 -0.2340732 -0.049483385 -0.30337378 -0.29421273 0.12252207 0.28722596 -0.10554467 0.44977066 0.15879455 -0.43327495 -0.15068509 -0.08359077 0.2692194 -0.62603736 0.21785018 0.041652862 0.7249899 0.08433091 -0.17394237 0.03045119 -0.14289065 -0.0800088 0.14239001 -0.20888153 -0.071122184 0.16536032 0.2518813 0.012847795
2426 0.036765873 -0.30824164 0.1496076 -0.35243347 0.21598433 -0.07998697 0.29438293 0.23259418 -0.415078 -0.18524659 0.60136384 0.31072697 -0.37923008 -0.059128173 0.5508155 -0.00897794 -0.28369138 -0.24275045 -0.50066084 -0.07404612 -0.11034058 0.09614768 0.327407 -0.38461143 -0.24694702 -0.35260722 0.26020715 0.5419531 0.02878524 0.10652692 0.2520599 0.068165 -0.15622592 0.14216594 -0.4706027 0.29959503 -0.039493795 0.14956948 0.3063036 -0.022261297 0.14720698 0.12342363 0.20885342 -0.19494598 0.19593364 -0.23216031 0.08345516 -0.07025507 0.39866677 0.40533254 -0.020431181 0.22269188 -0.13574517 0.6414824 -0.13113932 -0.09995866 0.6357114 -0.33453465 -0.20980112 0.4170201 -0.2932164 0.8589585 -0.28851306 -0.8557709 0.56665605 -0.25345048 -0.36111203 -0.13554321 0.40170905 0.15772054 0.7862573 0.115562566 -0.23460981 -0.8113597 0.06861322 -0.17398222 -0.2330525 -0.05564765 0.06258207 0.92200714 0.33834383 0.6388062 0.4583231 0.34433663 0.14042726 0.08067899 -0.29418677 -0.8302494 0.18482883 0.6866592 0.06719259 -0.48003033 0.14318807 0.5210167 0.074417196 0.010928957 -0.30696812 0.068437584 -0.04974027 -0.5105597 -0.40843204 -0.37980685 -0.3228051 -0.0130214635 0.38164163 0.2894754 0.27204582 0.16963495 0.24273135 0.06397848 -0.2320091 0.18619068 0.32847363 0.56551343 0.30336404 -0.42866212 0.72679454 -0.39983073 0.3307616 -0.009261006 0.08710676 -0.15804891 -0.30571422 0.11787338 -0.65675735 -0.60911024 -0.31222856 -0.21021168
26003 0.11933817 0.3718097 -0.10526945 0.40635973 -0.008127864 0.03272318 0.2865618 0.11873531 -0.18053141 -0.06735409 -0.053036142 -0.16649646 -0.41761014 -0.32490748 0.63749623 0.18160458 -0.27524975 -0.040793076 -0.06758647 0.020671174 0.0058889566 0.009450588 0.19429715 -0.06674093 -0.5183033 0.13541688 0.27301544 -0.09672975 -0.38690877 -0.6597023 -0.095901154 -0.13479349 -0.295108 -0.29133075 -0.14711176 -0.013557452 0.2789348 0.071385965 -0.16692711 0.042566508 0.23316798 0.36532715 0.061981287 0.13857645 -0.18316205 -0.12517965 0.20364201 -0.26256248 0.097575866 -0.37038082 -0.30804166 0.5784012 0.67742735 0.35280135 0.06440993 0.412837 0.6525697 0.14749353 0.023142664 0.1582728 0.11831421 -0.010497219 0.3739983 0.32067278 0.32805791 -0.46808133 -0.003761015 -0.57869846 -0.38518113 -0.32685047 0.3994305 -0.20397903 -0.34621313 -0.36381534 0.07044086 -0.44262928 -0.30793923 0.4693028 0.24424231 0.53149515 -0.20451179 -0.08569562 0.03031717 -0.084681146 -0.10584948 0.03692164 0.43368208 0.3557103 0.14819771 0.38246235 -0.36591464 -0.41936928 0.23790422 0.5070713 0.10286377 -0.0074340305 0.07104037 -0.47363132 -0.50935197 0.5034932 -0.28844482 0.69765323 -0.45827568 -0.077778496 0.078601986 0.081613295 0.07597492 -0.041071255 -0.2381571 -0.44046435 0.40674382 -0.19985676 -0.24051312 -0.26209754 0.04567594 0.05821457 0.49407214 -0.32612675 0.28322038 -0.32236 -0.26439828 -0.6125704 0.120803624 0.1349265 0.014451061 -0.58980733 0.11013886 0.00665061
29391 -0.07454552 0.040466018 -0.20106475 0.50688404 -0.0077599185 -0.108501345 0.26712877 0.20999655 -0.44630656 -0.012341609 0.1038425 -0.5025898 0.33342808 -0.08534015 0.7881527 -0.18947001 -0.41994593 -0.37411764 0.14456426 -0.004044458 0.119730115 -0.013146904 0.28473714 0.15184721 -0.34511077 0.053264692 -0.0028306295 0.5197513 -0.20922218 -0.07126687 -0.31001088 -0.5608354 0.14748237 0.10168799 -0.20384917 -0.22215973 -0.24502526 -0.34149212 0.19514443 0.16759568 -0.58508164 0.21758977 -0.063523844 -0.13852516 -0.19926909 -0.20409666 0.6690042 0.122383356 -0.098272264 -0.03196366 0.2643676 0.10659924 -0.04666279 -0.5506 0.3922902 0.1635301 0.12095943 0.10886009 -0.31268382 -0.43354866 0.29771942 0.08912105 0.19523744 -0.37218305 0.10168647 0.21901247 0.21967109 -0.17502098 0.28588954 -0.70633376 0.01475961 -0.0405058 -0.3193462 -0.18869413 0.31017658 -0.31124657 0.0032494324 -0.050093282 0.07979168 0.4457811 -0.037322443 0.09697179 0.2590734 0.11757777 -0.052703764 -0.5059782 0.4696976 -0.21548563 0.36580724 0.32716513 -0.15820055 -0.06547442 0.14715709 0.46096426 0.4986837 0.0885245 -0.56104106 -0.23452213 -0.1448523 -0.101812474 -0.25722957 0.13642877 -0.1628891 -0.12782395 -0.27539355 0.42245093 -0.33032548 0.5824503 0.061877165 0.08836027 -0.36380497 0.3272934 0.17152572 -0.48421022 0.019499369 0.19633467 0.7882119 -0.24350457 -0.1719753 -0.32140675 -0.30263048 0.07048286 -0.20490298 -0.042913754 -0.11943816 -0.07416615 -0.15299532 0.23470618
14131 0.33692995 -0.5936581 -0.10829853 0.10597354 0.27100003 -0.21709147 -0.011532354 0.44178727 0.10265902 0.16741303 -0.056348868 -0.4136683 -0.36605462 -0.47966248 0.46667486 0.116629206 -0.07336276 -0.20346752 -0.20016247 0.17699449 0.46149126 0.070118494 -0.23404528 -0.45303467 -0.19331157 0.18523291 -0.05821135 -0.07982509 -0.0018757548 -0.20251182 -0.24748151 -0.1786956 -0.311068 0.04646107 -0.41316992 0.022857903 -0.117065296 -0.22905338 0.11338561 -0.1269762 -0.18468684 0.28668672 0.124693796 -0.256949 -0.24188691 -0.24098767 -0.114030965 0.23032163 -0.11439507 0.30306277 0.23441713 -0.14028984 0.30348316 0.18241575 -0.2738114 -0.012781935 0.19094384 0.109949626 -0.45367545 -0.03651697 0.12864088 0.15520462 0.11265019 -0.16184229 0.20929849 0.113148704 -0.14582215 0.27180895 -0.27378538 -0.41567448 -0.12366888 0.053302348 -0.33193117 -0.214302 0.109657325 -0.14836289 -0.70399594 0.22572999 0.4496437 0.051756058 -0.23180382 0.07298169 0.044079855 0.7550718 0.1298561 0.09534929 0.3855936 -0.097084194 0.56690115 0.17464659 0.3695902 -0.30582535 -0.13511702 -0.19289647 0.50500345 0.03448556 0.0224688 -0.66437733 0.23310997 -0.25123912 -0.66499406 -0.113395415 -0.41935095 -0.2887845 0.26067662 0.03568944 -0.14587429 -0.019094368 0.6616316 -0.405887 -0.30883375 -0.16573733 -0.14424285 0.055146072 -0.37326938 -0.20714524 0.48503184 0.07722843 -0.1720081 0.045602728 -0.2143982 -0.17732228 0.42512944 0.07674691 -0.25413594 0.29818335 0.34317458 0.09642373
4757 -0.13740875 -0.17920366 -0.42960846 0.1835866 0.06737035 -0.057314802 0.21914731 -0.23465131 0.149938 0.09726042 0.10159225 -0.017355444 -0.19999003 -0.3928493 0.5096746 -0.34278673 -0.21319951 -0.087585725 -0.10153007 0.03252286 -0.12481528 0.4839789 -0.055422172 -0.087023795 -0.35911837 -0.097835526 -0.1705462 -0.24316952 -0.1873623 -0.35603628 -0.011820907 -0.12974557 -0.028985417 0.04125247 0.049173474 0.29649806 -0.044762183 -0.08190686 0.31488267 0.062597066 0.166677 0.4025498 0.44228292 -0.09952297 0.29333153 0.03472505 0.3070182 0.20428947 -0.07799449 0.021147974 0.28978565 0.16426387 0.4149527 0.30475846 0.25195932 0.0033227983 0.43534276 -0.0786862 0.17775573 0.30630225 -0.28212953 -0.036737412 0.21019664 0.101649985 0.2109707 0.08897506 -0.028227849 0.25511262 0.29758582 -0.5009413 0.066945374 0.18074973 -0.06016114 -0.025120161 -0.28348875 0.08526433 -0.10740543 -0.34967056 0.05590533 0.5521914 0.14823548 -0.23878291 0.4460232 0.007959217 0.040973898 -0.034204267 0.28560543 -0.2623415 0.27134418 -0.15627234 0.06305572 -0.44503137 0.14647365 0.15169588 -0.02913976 0.08249561 -0.47273827 0.14812627 0.23423022 -0.1943737 -0.29610658 0.09023436 -0.27840137 0.18535955 -0.31216463 -0.04087461 0.29904538 0.079286516 0.00057477405 -0.3959072 0.02150548 0.02202128 0.23024777 0.4486028 -0.30133644 -0.9029982 0.76782686 -0.30399814 -0.05155768 -0.07182368 -0.37962523 -0.07178868 -0.19210143 0.09807338 0.1917285 -0.07940522 0.35960603 0.08744458
9995 -0.05311401 -0.24334925 -0.22449052 0.43946552 0.22871284 -0.27155748 0.3356855 0.048976723 -0.32520413 0.16624463 0.14603525 -0.1344628 0.04455198 -0.1068518 0.22374147 -0.0047798543 -0.4816483 -0.28639323 -0.30424368 0.032550547 -0.020586764 0.08849881 0.16104259 -0.21026954 0.110901244 -0.08586409 -0.43090627 0.07875792 -0.22938034 -0.32168046 -0.13246778 -0.13208418 0.21129075 0.10335186 -0.04856814 0.1066128 0.24157782 -0.1927638 0.17914434 -0.057991978 0.26116428 0.2401502 0.45998797 -0.1052221 0.3328967 0.1598952 -0.10524317 -0.14741594 0.19209345 -0.1601529 0.21297091 0.21473768 0.1873083 0.21694927 0.6452346 -0.055630643 0.538714 -0.15563111 0.18297127 0.55859864 -0.26965323 -0.12843665 0.17209572 0.09003156 -0.05793109 -0.08588099 0.23099922 -0.15866876 0.22346136 -0.11176112 0.007250507 -0.09473999 -0.23001459 -0.051158834 -0.07539312 0.13491917 0.15247016 -0.39256138 0.080822386 0.85997474 0.43526942 -0.20099565 0.47823465 0.21282603 0.02603916 0.12533033 0.32148233 0.112991266 0.44235012 0.20358108 -0.18562683 -0.1336634 -0.12304701 -0.2915356 0.24698833 -0.18133804 -0.40682012 -0.20644972 -0.11375748 0.20763676 -0.13136508 -0.0036864022 -0.074486345 -0.05758395 -0.16819382 0.2025055 0.2990513 0.14750016 0.060545143 0.040522866 -0.1972269 0.28753212 0.33275983 0.2085119 -0.18975453 -0.60696024 0.4809588 0.20474738 -0.15686159 -0.32746288 -0.48658916 0.20364648 0.01656154 0.10878936 -0.14321736 -0.2758695 0.38873482 -0.3188105
28426 0.24910316 -0.46601528 -0.10110061 0.053208742 0.1041479 -0.08415862 0.1450222 0.2853105 0.09270933 0.1617795 0.021099089 -0.042792246 -0.12405668 -0.34071574 0.4811643 0.12527896 -0.121061385 -0.0787383 -0.31875312 0.36375508 -0.005848896 -0.07908883 -0.15738644 -0.20149696 -0.24931304 0.035640184 -0.3909971 -0.14660288 0.16065304 -0.1756486 -0.055051044 -0.13937007 -0.34237072 -0.08551119 -0.22218522 0.00869351 -0.025729744 0.022926928 0.14464682 0.015236756 -0.18926148 0.37217924 0.12354153 -0.21177837 -0.20718908 0.014949804 -0.12854202 0.08452989 0.10269743 0.3632399 -0.057541806 -0.11036976 0.5568616 0.1268204 0.1824055 0.20027925 0.3206075 0.12843207 -0.44506395 0.057810858 -0.06241981 0.11341928 0.09203742 0.07224993 0.09627187 -0.09448433 -0.08689612 0.10787077 0.11660372 -0.44111735 -0.029472368 0.30696344 -0.40525797 -0.43470097 -0.11532658 -0.14542976 -0.4719512 0.16367075 0.14951006 0.018770935 0.029417766 -0.021511566 0.27878243 0.79814786 -0.011175589 0.10567396 0.34109437 0.13337156 0.30288884 0.17044373 0.4934868 -0.20155023 -0.38331625 0.121155865 0.18206806 0.16791221 -0.21527617 -0.533411 0.30558252 -0.34592468 -0.77618855 0.01539789 -0.34022745 -0.07613646 0.24858537 0.17400423 0.049957078 -0.08120554 0.70534015 -0.21465859 -0.09491216 -0.11505688 -0.15620546 0.040019576 -0.44816795 -0.5607738 0.205052 -0.08870163 -0.24370776 0.17536019 -0.18593076 -0.1970079 0.45289388 -0.056469098 -0.29278567 0.25649855 0.010952388 0.17610058
21425 0.18736047 -0.47754538 -0.38258716 0.47797593 -0.030974451 -0.20792007 -0.14428912 -0.07322506 -0.11080814 0.40161753 -0.039562903 -0.064987965 -0.0033152786 0.048167918 -0.12138442 0.5875267 -0.60963136 -0.079579465 -0.40662065 0.11209563 -0.21623154 -0.12219214 -0.08480728 -0.3103053 -0.1171245 -0.27730516 0.3448257 -0.0021018884 -0.3914698 -0.24604972 0.24935547 -0.26181394 0.33108163 0.38819927 -0.21100305 0.25085473 -0.27060816 -0.081320696 0.06764904 0.01703362 0.043579496 0.42849606 -0.2771307 -0.36528102 -0.20710276 0.13091338 -0.032280333 0.006272925 0.029075228 -0.27947506 0.27543515 0.10336055 0.21337317 0.2773511 0.57013977 0.6579964 0.53298414 -0.059664518 -0.12287473 -0.017300786 0.222077 0.412793 0.2803974 0.009284892 0.032157183 0.42773828 0.80686474 -0.43526053 0.36818814 -0.07926298 0.40898612 0.09659682 0.18813746 -0.73965734 0.3094906 -0.06724251 -0.6770759 0.044272903 0.37905043 0.60376453 -0.4942976 -0.028759843 -0.15979461 0.24003331 0.2777879 -0.33927736 0.06868284 0.25720403 0.3177447 0.42782778 0.20124339 0.25443557 -0.027893405 0.32252613 0.29072046 0.19526747 -0.33173123 0.004817146 -0.3950175 0.3527738 -0.6457938 0.15005654 -0.026809517 -0.029811407 -0.00805238 0.26174554 0.545178 0.45324606 0.09392138 0.2647524 -0.29241744 0.14369538 0.019645704 -0.13157189 -0.46266338 -0.47609183 0.23698078 0.043416724 -0.32095468 0.2033308 0.22881137 -0.40369138 0.45915985 -0.034413517 -0.085211806 -0.27474904 0.39443243 -0.21532734
4293 0.5006791 -0.34838012 -0.050849203 0.7873205 0.09163972 0.15464048 0.18006097 0.3408179 -0.55949557 0.15264572 0.23158985 -0.29835013 -0.5282768 -0.15490806 0.33358958 -0.35848168 -0.24889416 -0.004115122 0.21189316 -0.0844986 0.113890566 0.6868734 0.04207863 -0.4320172 -0.4680968 -0.07251891 -0.24294913 0.31280285 -0.7987145 -0.6024159 0.24661171 0.07856774 0.2004769 0.12739362 0.45924035 -0.76933926 0.46306664 0.104819834 -0.22197868 0.04431284 -0.50465405 0.51550734 -0.21651237 -0.79642546 -0.098024964 -0.73712546 0.5073694 0.26044017 0.13921018 -0.34793392 0.021879682 0.45238602 -0.41001147 -0.22642317 0.52878416 0.2856501 0.43292636 -0.0043093287 -0.31459022 -0.38782868 0.13600007 0.6315241 0.33717355 0.07132795 0.14585824 0.15776396 0.37189934 0.20277363 0.4811846 -0.7233587 -0.21658708 -0.24578932 -0.32027522 -0.63368535 0.08729951 0.34750056 0.031287525 -0.22247154 -0.00692001 -0.022763401 0.3837457 0.45221123 0.38067225 -0.37468678 0.15984315 0.09106593 0.72400194 0.19425337 -0.12771614 0.4411713 0.17751151 -0.4982066 0.48446685 0.31705076 -0.24185002 0.3343308 -0.15058783 -0.34296808 0.2572246 -0.3086168 -0.5283071 0.40213194 -0.20713419 0.030536013 0.3920557 0.7500688 0.16196677 0.4147103 0.41400415 -0.5628753 -0.4814558 0.12620774 0.005964714 -0.24755764 -0.27810606 -0.012271726 0.6699195 0.23310962 0.43028998 0.38473472 -0.2256042 0.03731139 -0.20426291 0.29799452 -0.4521464 0.063745715 -0.042149637 -0.057095613
25238 0.29332936 -0.418498 -0.21938047 -0.08389434 0.08697372 0.05137695 0.06833147 0.4833406 -0.37089708 -0.2748319 0.018433359 -0.31216297 -0.37979433 -0.06389417 0.31401625 0.0069797877 0.15056951 -0.22507703 -0.016568597 -0.042465393 0.053909812 0.21635537 0.2016318 -0.7833414 -0.2891486 -0.27118617 0.13456416 -0.103701256 -0.46032476 -0.32070655 0.3220316 -0.2934319 -0.11988916 0.50693786 -0.3407596 0.14085902 0.2832087 0.14081106 0.17044339 0.2078757 -0.16679886 0.23556441 0.012513778 0.0029202823 -0.13327108 -0.49416712 0.025946375 0.0046302173 0.33756635 0.10071186 0.3843792 0.0876886 0.014798098 0.05328643 0.17896748 0.12975071 0.60820484 -0.27725774 -0.13499749 -0.18197645 0.24841048 0.08013121 0.09105406 0.0063316463 0.40101245 0.19621995 0.12397304 0.20493296 0.17416461 -0.25517923 0.22961684 0.032908715 0.12372066 -0.19623052 0.29269373 -0.18608668 -0.107771225 0.11823046 0.121642336 0.53517 -0.23989819 -0.037148207 -0.13251513 0.42819035 -0.28879598 0.0433725 0.14190401 -0.23677483 0.21813013 0.14579774 0.022427447 -0.34816816 -0.11231635 -0.09046971 0.61686295 0.22744621 -0.4053025 -0.5044983 -0.14702283 0.07561687 -0.31478795 -0.08281787 -0.36257154 0.32820317 -0.08312169 0.036615927 -0.029699141 -0.112624206 -0.0020922984 -0.10250959 -0.2617651 0.10715576 -0.047447708 0.3613783 -0.16635285 0.27798048 0.85711354 0.39883107 0.39050558 0.14522141 -0.25639197 0.24694191 0.1858709 -0.011556996 -0.042367637 0.20440337 0.24109447 0.3905187
7123 -0.007525153 -0.08084777 -0.34793735 0.120029025 0.210694 0.39833757 0.2046678 0.37908775 0.10196403 -0.46767354 0.44690582 -0.1421653 -0.16240251 -0.19168349 0.47397146 0.06935312 -0.23453626 -0.46352896 0.07072006 -0.12820831 -0.18497494 0.40810055 -0.12126135 -0.36617857 -0.23003048 0.07768205 0.49007836 0.32699704 -0.24374048 -0.36773634 0.2916944 -0.39652556 0.05090056 -0.16547151 -0.20731795 0.3122549 0.37485477 0.29883388 0.4075718 0.49899688 0.15038623 0.59674174 -0.23213188 -0.105953455 0.11494311 0.15809555 -0.2707918 -0.08457047 0.36863634 0.067806765 -0.106864065 0.1848907 0.08327471 -0.16622925 0.17084058 -0.29200217 0.004318372 0.08977582 -0.6911025 -0.120870925 -0.043676067 -0.24826972 0.37798184 -0.07117471 0.3842397 0.28736305 -0.03286197 -0.44264242 0.12653957 -0.29319024 0.5981765 -0.14361642 -0.38888985 -0.558973 -0.123742744 0.037250474 -0.13138506 0.08566196 0.30337578 0.670028 0.023562428 0.2521224 -0.045400046 0.12951706 0.010194347 -0.08935432 -0.27202317 0.054207884 0.22431886 0.45151198 0.75020707 -0.38164043 0.37745473 0.06478634 0.6157168 0.10605402 -0.54531413 -0.34070247 -0.22948623 -0.15576306 0.29924387 0.29494512 -0.21303545 0.07198749 0.25299618 -0.28100753 0.012297898 -0.09791206 0.14835791 -0.21004076 -0.16612367 0.424095 0.085035525 0.03937808 -0.069623634 -0.25173858 0.09183664 0.059014764 -0.3144196 0.078506514 -0.27068081 -0.32794085 0.067693815 0.20638202 0.039378114 0.3910437 0.33321017 0.00974742
27596 0.24569774 0.0658144 0.24297358 0.39503404 0.5619559 -0.6375189 0.5577468 -0.47776094 -0.15120515 -0.11455062 0.6167997 -0.22121876 0.16949911 -0.1374208 0.5250457 0.6396895 -0.97855204 0.6109442 -0.14053981 0.025800975 0.37520716 0.5792636 0.08607267 -0.5565364 -0.7856762 -0.2511429 -0.015576545 0.62838984 -0.3208728 0.1866756 0.3413612 0.2786246 0.576208 0.20862067 -0.060214996 -0.5360629 -0.1018166 0.2595088 0.030814044 0.09560542 -0.14236982 0.502451 -0.04704031 -0.36327592 0.2874242 -0.33166808 0.516286 -0.45853618 0.26271424 -0.77584344 0.22964305 0.5276226 -0.71526414 0.25726107 -0.550542 0.49799317 0.5035794 -0.1357256 0.13489622 0.09266572 -0.21817729 1.1841853 0.29570982 -0.20616448 0.34794995 0.088735305 0.2521232 -0.5219147 0.28591853 -0.12683415 0.77984923 -0.15472774 -0.5622304 -0.8244757 0.45741355 -0.0420618 -0.0050306576 0.14330056 0.44829723 0.5472878 0.28581858 0.67877704 -0.10352259 0.1543655 0.12073082 0.28239685 -0.28420267 -0.37871343 0.6600291 0.72988266 -0.31876537 -0.44906974 0.68498164 0.49652413 0.7313251 0.19869502 -0.52638525 -0.25050387 -0.30626705 -0.26898238 -0.5102447 0.29520088 -0.07794584 -0.6929185 -0.2493537 0.9261188 0.16093847 0.78254414 -0.39239872 0.031377204 0.060793374 0.21952133 -0.25520292 -0.1647332 0.29778957 -0.1401749 1.2251314 -0.059338067 0.30219275 0.04263696 -0.063022286 -0.7217166 -0.34490597 -0.2843549 -0.20283185 -0.56445193 -0.19788149 -0.2747477
23430 0.33079073 -0.32218742 -0.04793721 0.545455 0.028026804 -0.028440595 0.119944 0.55108666 0.38896558 -0.23379351 0.16553059 -0.6777275 -0.7054728 0.16352166 0.3107872 0.11495677 -0.45891824 0.15910377 0.12146586 0.09825027 0.22733255 0.25423113 -0.28049004 -0.10713655 -0.1719759 -0.2029335 0.1330092 0.36136344 -0.60432065 -0.6389068 -0.25830597 -0.17470619 0.12584807 0.37677458 -0.37048405 0.09176705 0.530342 -0.3409848 0.21338591 -0.16010787 0.29023027 0.41105026 -0.16503474 -0.41063726 0.0385365 -0.15929936 -0.4371705 0.12545262 0.06306529 0.107200585 0.15028344 0.116069175 0.12632586 0.20881425 -0.047339942 0.35597867 0.33912367 0.2723971 -0.5228073 -0.2927309 -0.13904755 0.48664263 0.3144563 -0.11989618 0.123312004 0.53008026 0.2026335 -0.101459 -0.13483986 0.05636417 0.2915396 -0.025093552 -0.2655559 -0.7230497 0.23710543 -0.088809825 -0.020612776 -0.2696474 0.3745914 -0.033125814 -0.28734937 -0.0124772405 -0.16255444 0.06785731 0.18053757 0.06665435 0.3491182 0.06030351 0.24107496 0.5696196 -0.17698908 -0.14759757 0.0034340406 0.23687924 -0.019982724 0.09951071 -0.129293 -0.3181138 -0.5065943 0.65422374 -0.6598112 0.1158725 -0.049762506 0.39419508 0.2844755 0.44972807 0.13720824 0.16731513 -0.14606842 -0.6749936 -0.35880545 -0.24442191 -0.35383862 -0.18935214 -0.103431396 -0.4707989 0.6770478 0.17817761 -0.1649738 -0.50638115 -0.33007988 -0.32507038 0.034130752 -0.3450062 0.20358904 0.026752457 0.25428626 0.074129485
3947 0.082752496 -0.06471203 -0.3404937 0.14035791 0.3115103 -0.078832395 0.3555745 0.4808553 0.19813807 -0.08619361 0.44661763 -0.10452498 0.10762411 -0.18318173 0.053807773 -0.23755893 -0.4265234 0.009503129 -0.1391892 0.019820847 -0.08075522 0.3056805 0.041307576 -0.24945596 -0.54506296 -0.44491798 0.75323737 0.34404123 -0.1107552 -0.37414414 0.36551112 0.07841424 -0.18822064 -0.34763515 -0.46315563 0.19763805 0.036339514 0.1910469 -0.014178595 -0.19709261 0.028198387 0.32442144 -0.08524425 -0.40488943 -0.005134115 -0.1861832 -0.07717098 0.08036423 0.4742602 -0.035575412 0.04838442 0.06441441 -0.3133144 0.2834805 0.046015367 -0.4420922 -0.21293534 -0.14315301 -0.40334716 -0.17833161 -0.010309552 0.1985679 0.07099594 -0.09769818 0.32670298 0.46743545 -0.09093116 -0.095033735 -0.31252038 -0.17596431 0.1330949 -0.0059128213 -0.031412296 -0.095725864 -0.024276333 0.27305678 -0.073453546 0.022651259 0.42618415 0.39722365 0.20891608 -0.1776084 -0.14581262 0.40285182 0.05782286 0.09054232 -0.050184786 -0.23976935 0.49110454 0.4711302 0.58592266 -0.41745433 0.32789204 -0.31098688 0.17647256 0.37578005 -0.42851588 -0.2722857 -0.10144483 -0.088592954 -0.06968463 0.112680554 0.087574326 -0.19568361 0.15876897 -0.0014470525 -0.21696068 -0.024351766 0.02620998 -0.16703014 -0.14111087 0.16980454 0.21846515 0.021741772 0.36838904 0.061809227 0.6630675 0.048225153 -0.44548827 0.0051504667 -0.26581872 -0.17557205 0.46036154 -0.36029038 0.19295442 -0.14157878 0.5154542 -0.20041792
34046 0.29768845 -0.39488798 -0.12003491 -0.32148328 -0.002046149 -0.02443815 0.09078284 0.35279042 -0.10730232 0.29696622 0.30516124 0.31638223 -0.5971105 -0.039891835 0.1592341 -0.13477291 -0.83130765 0.3924592 0.0024115292 -0.19408152 -0.09197839 0.19170637 0.43985027 -0.50798535 -0.016339358 -0.37612522 -0.020833788 0.22433333 -0.35555992 -0.038387433 0.49295756 -0.13398217 -0.042168543 -0.18931037 -0.22783254 -0.27400607 0.37615073 -0.06492004 0.5068851 0.1692889 0.37825608 -0.009245303 0.22952767 -0.34086913 0.17544791 0.3256594 -0.11560667 0.3006982 0.037837945 0.17607005 0.38618737 -0.067670226 0.15668842 -0.05819999 0.2016858 0.7309504 0.32944238 0.042474527 -0.16174567 -0.059752468 -0.5838518 0.3399065 -0.010050266 -0.10799868 0.50571346 -0.31935224 0.3116286 0.17972074 -0.3435016 -0.5961502 0.09573638 0.011756068 0.24239926 -0.29374397 -0.4980781 -0.07468396 -0.2761112 -0.21005695 0.08533836 0.35419658 -0.12036264 0.42800212 -0.157892 0.4407881 0.22376253 0.08569787 0.39848614 -0.09333522 0.35626748 0.10570548 0.15512645 -0.44618022 0.22616853 0.116976246 0.12121997 0.043556165 0.048779484 0.1364301 0.2948015 -0.50852025 -0.09769248 0.6921112 -0.5632154 0.04206995 -0.019515963 0.28193378 0.25148588 0.4687251 -0.30677232 -0.39463258 0.26265147 0.16932614 -0.68119264 0.745558 0.09025109 -0.6835693 0.31856853 -0.21542615 0.21968746 0.044628546 -0.3844182 -0.30658692 0.25534043 -0.20106559 0.2567775 -0.05045 -0.12592918 -0.038509123
21471 -0.2944674 -0.19022399 -0.2895893 0.651101 -0.17199513 -0.056547083 0.43953115 -0.000809523 -0.4409464 0.08406869 0.2204771 -0.27145407 0.36850974 -0.28915995 0.42274544 0.06190341 -0.2197503 -0.4688136 0.07206431 -0.10371212 0.0552243 0.15835547 0.025172628 0.10196178 -0.029275957 0.18600725 -0.09947091 0.46015102 -0.06636865 -0.39279592 -0.010800503 -0.49237558 0.078149445 0.03215968 -0.371019 -0.16697516 -0.07066736 0.04702084 0.31696692 0.17464077 -0.32284063 0.38530314 -0.021884568 -0.16467927 -0.32910702 -0.31860498 0.38238496 0.03909514 0.15550628 0.18208784 0.6388393 0.109989576 -0.2663929 -0.3220305 0.51034844 -0.07945158 0.19568613 -0.15245132 -0.6568291 -0.47795415 0.3916503 0.08383714 0.1719117 -0.18960872 0.054179523 0.21221867 0.52202994 -0.24988368 0.30020124 -0.51987636 -0.1276383 0.1312206 -0.35352486 -0.051797327 0.11062947 -0.36337915 0.007669629 0.16409262 -0.016733332 0.4335666 -0.11349432 0.13429332 0.2503959 0.30325204 0.005758647 -0.31081456 0.20139328 -0.3077623 0.30620804 0.44180483 0.21940395 -0.0012040602 0.056092624 0.50537205 0.4227313 0.29722148 -0.4083099 -0.3953944 -0.26252753 -0.21252325 0.16563043 -0.015101662 -0.14180262 0.24113186 -0.32435116 0.38813823 -0.38261336 0.23747762 -0.08271329 0.008474562 0.12900437 0.35668665 0.22780259 -0.03997346 -0.020914381 -0.000881434 0.51444507 -0.29261053 0.0033876544 0.05535151 -0.122031875 -0.023281291 -0.072575204 -0.11047983 0.033857074 -0.19517018 -0.27792618 0.007796891
8365 0.09175373 -0.50753087 -0.1573067 0.2360414 -0.1900504 0.18300638 0.15840402 -0.043417033 -0.38876018 0.125558 0.0049584713 -0.14768593 -0.5328394 0.23414838 0.22481161 -0.29217485 0.06328181 -0.55752593 -0.12674472 -0.15343821 -0.009217741 0.17009203 0.3296939 -0.45755512 -0.25350997 0.06380737 -0.04449595 0.049036037 -0.52220273 -0.45293367 0.05488215 -0.12213488 -0.1121545 0.36637568 0.08539214 -0.3826618 0.018474864 0.08533304 -0.14611411 0.40250582 -0.21208283 0.40467295 -0.28110185 -0.16380046 0.06259682 -0.49256068 0.36542168 0.14991537 0.22499399 0.043663613 0.3730884 0.07417628 -0.09932946 0.08903017 0.6401873 0.3974515 0.8309226 0.0056382567 -0.28424647 0.36046675 0.20429489 0.13279998 0.1619088 0.2743342 0.20476092 -0.025375057 0.23600462 0.09325994 0.22967729 -0.596334 0.53321666 0.05632172 -0.06528571 -0.51514214 0.09879096 -0.14676934 -0.32818356 0.15499781 -0.29462227 0.34816495 -0.16183569 0.1790266 0.13406146 0.052708644 -0.27209708 0.17366315 0.054422144 0.15327792 -0.006998495 0.4390381 0.12010219 -0.28618678 -0.0052845776 0.07461665 0.23092803 0.25181141 -0.3470304 -0.35993484 -0.19036822 0.08068685 -0.20725958 0.14393704 -0.2442048 0.29951182 0.24435152 0.021914182 -0.11032568 0.051488955 0.45961803 -0.09078798 -0.3263197 -0.017266115 -0.16182423 0.038323082 -0.44129547 0.38747042 0.47717178 0.06175858 0.43144992 0.36980146 -0.13305011 -0.17734659 -0.2166007 0.20064051 0.09352126 0.1603147 -0.2917896 0.35204875
24953 0.11287394 -0.0654578 0.031087907 0.54668224 0.56558895 -0.110742375 0.25666535 0.24663544 -0.13314022 0.020254787 0.32406035 -0.34574917 0.26645905 -0.25001872 0.4193831 -0.20731948 -0.47605175 -0.59697384 -0.5829574 0.26824975 0.4516226 -0.19717716 0.28446162 -0.87922555 -0.5932687 0.17857642 -0.14011559 0.05364236 0.19389395 -0.9122576 -0.2820344 0.0145784635 0.16891761 -0.31714392 0.22945824 -0.4668377 -0.03375532 -0.20108308 -0.42513642 0.3522412 -0.48063692 0.1431681 0.24088615 0.09693476 0.32707623 0.11932719 -0.17489024 0.047714215 -0.08720255 0.17322497 0.080701746 0.5988928 0.22027704 0.38142058 -0.47719073 0.7920286 0.5662669 -0.3100124 -0.012522441 0.50048804 -0.36398405 0.41755855 0.41980997 -0.3846063 -0.29808286 -0.44222954 -0.12659904 0.27525166 -0.28921983 -0.22303766 0.4989737 -0.28403565 -0.6629865 -0.65684134 0.30866444 0.21941473 -0.5742364 0.10116424 0.22588119 0.40007204 -0.03445932 0.15286995 0.5982389 0.4037845 0.1215462 0.1729189 0.104677424 0.3480513 0.6058148 0.060878847 -0.07065473 -0.471729 0.25665474 -0.3548195 0.57761055 0.45536926 -0.21755838 -0.447139 0.03212099 -0.03575132 -0.796194 0.54945594 -0.32651827 -0.43762547 0.16621168 -0.14592855 0.4789024 0.2661056 -0.16058753 -0.13905093 0.15073548 -0.073901065 -0.070326865 -0.41142827 -0.0878829 -0.36895686 0.9069312 0.33565846 -0.054156356 -0.45839766 -0.40508762 -0.30992037 0.1799977 -0.060811408 -0.13110977 -0.03236312 0.06513454 -0.5397087
25896 -0.03044871 -0.13432091 -0.17862298 -0.06300485 0.0009571806 0.15089981 0.10498556 0.3310073 -0.42708254 -0.16411056 0.38630816 0.17692505 -0.31742525 -0.20300256 0.44540247 -0.12477838 -0.10328166 -0.20248905 -0.24356015 -0.13017666 -0.23632967 0.30596104 0.18963718 -0.023284908 -0.17187381 -0.31160623 0.36057198 0.43537918 0.10545343 -0.09046056 0.053655393 0.055010762 -0.10725423 -0.1051136 -0.42900753 0.4405589 0.007154257 0.1514486 0.13566048 0.17536391 0.07214909 0.33659133 0.039727468 -0.0010899716 -0.2512546 -0.1586616 -0.16255407 0.0052017192 0.58089966 0.38486645 0.15079765 0.34328905 -0.007636959 0.4004081 0.2683735 -0.14688432 0.5094364 -0.21730876 -0.17554638 0.24293266 0.10057008 0.27715945 -0.18878533 -0.43957028 0.37827113 0.12489424 -0.23987997 -0.02556372 0.25831658 0.15336218 0.7814567 0.18016186 -0.25061056 -0.5666365 0.26214007 -0.08795091 -0.11697121 0.004794243 0.15028301 0.6497395 0.3790763 0.16723949 0.18270598 0.14008649 -0.038060464 -0.08319101 -0.3631734 -0.5126587 0.01292878 0.55725574 0.2962974 -0.27143228 0.18951157 0.2567626 0.10297498 0.0038900354 -0.3817822 -0.25824988 -0.23431635 -0.33140704 -0.085869476 -0.28274396 0.020057319 0.25352272 0.20709223 0.0841505 0.17055604 0.043765772 0.2069941 0.025613112 -0.024332037 0.09113738 0.368731 0.36997524 0.14507084 -0.19357881 0.49563923 -0.14430547 0.16230936 0.06863046 0.10819008 -0.065247156 -0.0045336345 0.11787581 -0.31823894 -0.2665503 -0.06144049 -0.1977801
36573 0.38657895 -0.0642311 -0.2582669 0.44226232 0.07815607 0.20018882 0.37132946 0.24977013 -0.51273286 -0.2790244 0.19010732 -0.046871364 0.015771704 -0.16315319 0.33020264 0.20940728 -0.3185812 -0.024041219 -0.1873266 0.27969947 -0.056876544 0.12976383 0.018636508 -0.3536726 -0.029558826 -0.32965976 -0.5747724 0.26133072 -0.11085659 -0.49143246 0.0053304327 -0.26834354 0.13686642 -0.48926702 0.17832564 -0.10100919 0.105613224 0.021911912 -0.13839048 0.22009374 0.15740381 0.30354947 0.3805573 -0.18585008 -0.003020364 0.121936396 -0.0666474 -0.34681073 0.07789399 0.066330135 0.037452575 0.23284636 0.3163537 -0.056463383 0.797237 0.19348001 0.49919876 -0.117635585 0.17524543 0.28635547 -0.2928708 0.012916092 -0.043303095 0.29710835 0.21799573 -0.058338076 0.28057703 0.05009646 -0.273235 0.18104881 0.37808853 0.05856884 -0.26410076 -0.13779958 0.012730828 -0.07891818 -0.16177984 -0.2965758 0.2537511 0.5868145 0.57585293 -0.20323916 0.047146875 0.28467625 0.20765558 0.14224322 0.29696706 0.16071953 0.10959153 0.16885452 -0.04699916 -0.09640817 0.119620524 -0.12103772 0.30357388 -0.059440922 -0.3514647 -0.687836 -0.4749258 0.124524206 -0.12198686 0.14058815 0.1381452 -0.11244889 -0.09684554 0.37104848 0.30004916 0.20431721 -0.020864682 -0.091982044 0.31937808 -0.08102494 0.09720451 -0.16322932 -0.13353258 -0.22466585 0.46889466 0.5194627 0.07320007 -0.4313862 -0.24321033 -0.016236681 0.03652341 -0.11580827 -0.20985758 -0.018807448 0.3681349 -0.35902265
17885 0.3393568 -0.29251152 -0.21604238 0.43035114 0.5110989 0.032593563 0.33473712 0.5126473 0.14464682 -0.17048807 0.5184149 -0.3277935 0.19388239 -0.5640641 0.5897286 0.110327736 -0.38919863 -0.4258743 -0.10135744 -0.0661277 0.040158305 -0.10348396 -0.24284373 -0.110341005 -0.14275521 0.030815057 0.12478183 -0.36654133 -0.09754543 -0.53678936 0.13267745 -0.24127278 0.26388216 0.066384286 -0.46917382 0.12145805 0.015381304 -0.2711652 0.20174743 -0.00804897 -0.0894487 0.45146862 0.09457783 0.12641014 -0.59189874 -0.14471716 0.1015446 -0.21547414 0.083471574 0.25403094 -0.3863369 0.07269825 0.20137872 0.16229455 0.5388007 0.39327955 0.41096017 -0.048890106 -0.53908294 -0.14827345 0.4513531 0.44777197 -0.041810293 -0.23538284 -0.08663979 -0.27032942 -0.17648813 0.071115226 0.1828685 0.09637361 0.5033094 0.33849034 -0.37660605 -0.29339433 0.34880325 0.0072848913 -0.016778044 -0.5204713 0.24479195 0.101539925 0.29694813 0.07333457 -0.023917085 0.36649698 0.28398177 0.03868441 -0.060962934 0.06433394 0.2528064 0.37866604 0.09813738 0.025186257 -0.34532338 0.15318991 0.102602184 -0.10846586 -0.0045893705 -0.560956 -0.1262537 -0.24885197 -0.005515817 -0.31675062 -0.22884175 -0.21400316 0.111001894 0.2972784 -0.15893263 0.27799892 0.3636178 -0.61523366 0.14932775 0.16703835 -0.12461475 -0.14941022 0.3388621 -0.2593508 0.2675778 -0.21501432 0.48199767 -0.07712716 -0.18120813 -0.12756237 0.27430543 -0.0640488 -0.47915667 -0.34908843 0.37167302 -0.3699276
